{"learner":{"attributes":{"scikit_learn":"{\"_estimator_type\": \"regressor\"}"},"feature_names":["open","high","low","close","volume","rsi","macd","macd_signal","ema20","ema50","bb_upper","bb_lower","vwap","return_1h","return_24h","volatility_24h"],"feature_types":["float","float","float","float","float","float","float","float","float","float","float","float","float","float","float","float"],"gradient_booster":{"model":{"gbtree_model_param":{"num_parallel_tree":"1","num_trees":"200"},"iteration_indptr":[0,1,2,3,4,5,6,7,8,9,10,11,12,13,14,15,16,17,18,19,20,21,22,23,24,25,26,27,28,29,30,31,32,33,34,35,36,37,38,39,40,41,42,43,44,45,46,47,48,49,50,51,52,53,54,55,56,57,58,59,60,61,62,63,64,65,66,67,68,69,70,71,72,73,74,75,76,77,78,79,80,81,82,83,84,85,86,87,88,89,90,91,92,93,94,95,96,97,98,99,100,101,102,103,104,105,106,107,108,109,110,111,112,113,114,115,116,117,118,119,120,121,122,123,124,125,126,127,128,129,130,131,132,133,134,135,136,137,138,139,140,141,142,143,144,145,146,147,148,149,150,151,152,153,154,155,156,157,158,159,160,161,162,163,164,165,166,167,168,169,170,171,172,173,174,175,176,177,178,179,180,181,182,183,184,185,186,187,188,189,190,191,192,193,194,195,196,197,198,199,200],"tree_info":[0,0,0,0,0,0,0,0,0,0,0,0,0,0,0,0,0,0,0,0,0,0,0,0,0,0,0,0,0,0,0,0,0,0,0,0,0,0,0,0,0,0,0,0,0,0,0,0,0,0,0,0,0,0,0,0,0,0,0,0,0,0,0,0,0,0,0,0,0,0,0,0,0,0,0,0,0,0,0,0,0,0,0,0,0,0,0,0,0,0,0,0,0,0,0,0,0,0,0,0,0,0,0,0,0,0,0,0,0,0,0,0,0,0,0,0,0,0,0,0,0,0,0,0,0,0,0,0,0,0,0,0,0,0,0,0,0,0,0,0,0,0,0,0,0,0,0,0,0,0,0,0,0,0,0,0,0,0,0,0,0,0,0,0,0,0,0,0,0,0,0,0,0,0,0,0,0,0,0,0,0,0,0,0,0,0,0,0,0,0,0,0,0,0,0,0,0,0,0,0],"trees":[{"base_weights":[2.7661324E-3,-1.3763843E0,3.8081664E-1,-1.5681862E0,-4.479953E-2,9.935466E-2,1.0709251E0,-8.597096E-2,-6.566295E-2,-2.2442803E-1,2.7773294E-1,9.528178E-1,5.9638716E-2,-3.1465706E-1,-1.5374327E-1,1.6352141E-1,3.5562545E-1,5.067442E-2,5.2423644E-1,-3.2758507E-1,-8.40888E-2,-7.761574E-2,-2.2982569E-1,1.9317111E-1,-2.0113138E-2,2.412757E-2,3.2351837E-1,1.52703095E-2,3.028264E-2,-4.796624E-3,-1.6526775E-2,-4.971838E-3,-9.5112325E-4,-5.3101983E-3,-2.7947621E-3,-1.1911973E-2,9.85384E-4,4.790508E-3,1.0897509E-2,1.1891101E-3,-4.755106E-3,1.3400462E-2,2.110606E-2],"categories":[],"categories_nodes":[],"categories_segments":[],"categories_sizes":[],"default_left":[0,0,0,0,0,0,0,0,0,0,0,0,0,0,0,0,0,0,0,0,0,0,0,0,0,0,0,0,0,0,0,0,0,0,0,0,0,0,0,0,0,0,0],"id":0,"left_children":[1,3,5,7,-1,9,11,-1,-1,13,15,17,-1,19,21,23,25,-1,27,29,31,33,35,37,39,-1,41,-1,-1,-1,-1,-1,-1,-1,-1,-1,-1,-1,-1,-1,-1,-1,-1],"loss_changes":[3.0292947E2,1.0112473E1,8.846672E1,1.1346588E0,0E0,1.8832964E1,7.631531E-1,0E0,0E0,6.914506E-1,1.8100529E0,1.3408585E0,0E0,1.2149286E-1,3.7022388E-1,4.7757483E-1,3.492136E-1,0E0,1.1009932E-2,4.143715E-4,2.1030083E-3,1.5796974E-2,7.397914E-2,1.6005683E-1,4.5053408E-2,0E0,4.4515038E-1,0E0,0E0,0E0,0E0,0E0,0E0,0E0,0E0,0E0,0E0,0E0,0E0,0E0,0E0,0E0,0E0],"parents":[2147483647,0,0,1,1,2,2,3,3,5,5,6,6,9,9,10,10,11,11,13,13,14,14,15,15,16,16,18,18,19,19,20,20,21,21,22,22,23,23,24,24,26,26],"right_children":[2,4,6,8,-1,10,12,-1,-1,14,16,18,-1,20,22,24,26,-1,28,30,32,34,36,38,40,-1,42,-1,-1,-1,-1,-1,-1,-1,-1,-1,-1,-1,-1,-1,-1,-1,-1],"split_conditions":[9.822333E0,8.766343E0,1.019467E1,-7.9347E-2,-4.479953E-2,9.988652E0,1.0187014E1,-8.597096E-2,-6.566295E-2,-9.888699E-3,1.0114743E1,1.0145057E1,5.9638716E-2,9.430131E0,9.12183E0,3.4602873E-2,1.0156655E1,5.067442E-2,1.0389931E1,8.979608E0,9.37139E0,-9.477361E-3,9.443107E0,1.0003185E1,9.82182E0,2.412757E-2,9.8618355E0,1.52703095E-2,3.028264E-2,-4.796624E-3,-1.6526775E-2,-4.971838E-3,-9.5112325E-4,-5.3101983E-3,-2.7947621E-3,-1.1911973E-2,9.85384E-4,4.790508E-3,1.0897509E-2,1.1891101E-3,-4.755106E-3,1.3400462E-2,2.110606E-2],"split_indices":[12,10,1,7,0,12,11,0,0,14,12,11,0,8,8,7,12,0,8,8,0,6,8,12,3,0,10,0,0,0,0,0,0,0,0,0,0,0,0,0,0,0,0],"split_type":[0,0,0,0,0,0,0,0,0,0,0,0,0,0,0,0,0,0,0,0,0,0,0,0,0,0,0,0,0,0,0,0,0,0,0,0,0,0,0,0,0,0,0],"sum_hessian":[5.79E2,1.24E2,4.55E2,8.7E1,3.7E1,3.24E2,1.31E2,5.1E1,3.6E1,1.15E2,2.09E2,7.1E1,6E1,4.9E1,6.6E1,8.6E1,1.23E2,6.1E1,1E1,4.6E1,3E0,3.4E1,3.2E1,7.4E1,1.2E1,2.2E1,1.01E2,4E0,6E0,1E0,4.5E1,2E0,1E0,1.3E1,2.1E1,3.1E1,1E0,1.6E1,5.8E1,8E0,4E0,6.7E1,3.4E1],"tree_param":{"num_deleted":"0","num_feature":"16","num_nodes":"43","size_leaf_vector":"1"}},{"base_weights":[7.712275E-3,-1.2919959E0,3.648219E-1,-1.4898521E0,-8.3271587E-1,9.9219196E-2,1.0055914E0,-8.2373016E-2,-6.2256064E-2,-4.2168632E-2,-1.0693955E-2,-2.170958E-1,2.5615692E-1,8.8496864E-1,5.678741E-2,-8.184538E-2,-2.6762763E-1,1.5017253E-1,3.384143E-1,9.2521214E-1,1.89553E-2,-1.2364713E-1,-5.113662E-2,-2.8534248E-1,-1.0404544E-1,1.7889632E-1,-4.255999E-2,1.3173181E-1,3.5633186E-1,4.865406E-2,3.143556E-2,-1.1373758E-3,-6.5375934E-3,-1.9515445E-3,-3.5430272E-3,-1.5181658E-2,-6.585005E-3,-6.4499313E-3,-5.5697764E-4,4.7382032E-3,1.03153195E-2,-3.9859535E-3,7.0393883E-4,6.6661835E-4,7.1119266E-3,1.263604E-2,1.9647112E-2],"categories":[],"categories_nodes":[],"categories_segments":[],"categories_sizes":[],"default_left":[0,0,0,0,0,0,0,0,0,0,0,0,0,0,0,0,0,0,0,0,0,0,0,0,0,0,0,0,0,0,0,0,0,0,0,0,0,0,0,0,0,0,0,0,0,0,0],"id":1,"left_children":[1,3,5,7,9,11,13,-1,-1,-1,-1,15,17,19,-1,21,23,25,27,29,-1,31,33,35,37,39,41,43,45,-1,-1,-1,-1,-1,-1,-1,-1,-1,-1,-1,-1,-1,-1,-1,-1,-1,-1],"loss_changes":[2.627095E2,9.845703E0,7.546463E1,1.1887207E0,7.682037E-2,1.5692762E1,1.0358887E0,0E0,0E0,0E0,0E0,6.9571304E-1,1.7886782E0,1.1149979E0,0E0,3.218749E-2,1.9054747E-1,5.279987E-1,3.9004135E-1,3.2496643E-1,0E0,5.628109E-3,1.7709285E-3,1.5110636E-1,1.9427687E-2,1.6954756E-1,2.8482724E-2,1.1787504E-2,3.1036568E-1,0E0,0E0,0E0,0E0,0E0,0E0,0E0,0E0,0E0,0E0,0E0,0E0,0E0,0E0,0E0,0E0,0E0,0E0],"parents":[2147483647,0,0,1,1,2,2,3,3,4,4,5,5,6,6,11,11,12,12,13,13,15,15,16,16,17,17,18,18,19,19,21,21,22,22,23,23,24,24,25,25,26,26,27,27,28,28],"right_children":[2,4,6,8,10,12,14,-1,-1,-1,-1,16,18,20,-1,22,24,26,28,30,-1,32,34,36,38,40,42,44,46,-1,-1,-1,-1,-1,-1,-1,-1,-1,-1,-1,-1,-1,-1,-1,-1,-1,-1],"split_conditions":[9.829626E0,8.705348E0,1.019467E1,-7.9347E-2,9.035064E0,9.988652E0,1.0187014E1,-8.2373016E-2,-6.2256064E-2,-4.2168632E-2,-1.0693955E-2,9.108417E0,1.0114743E1,7.964694E-3,5.678741E-2,5.782445E-3,9.439287E0,3.8094938E-2,3.7448024E-3,1.0775153E1,1.89553E-2,-2.7665434E-2,8.863236E0,3.530715E-2,4.1376877E1,1.0004907E1,9.796584E0,9.68849E0,9.375487E0,4.865406E-2,3.143556E-2,-1.1373758E-3,-6.5375934E-3,-1.9515445E-3,-3.5430272E-3,-1.5181658E-2,-6.585005E-3,-6.4499313E-3,-5.5697764E-4,4.7382032E-3,1.03153195E-2,-3.9859535E-3,7.0393883E-4,6.6661835E-4,7.1119266E-3,1.263604E-2,1.9647112E-2],"split_indices":[12,9,1,7,8,12,11,0,0,0,0,9,12,15,0,15,8,7,15,10,0,6,11,6,5,12,8,0,11,0,0,0,0,0,0,0,0,0,0,0,0,0,0,0,0,0,0],"split_type":[0,0,0,0,0,0,0,0,0,0,0,0,0,0,0,0,0,0,0,0,0,0,0,0,0,0,0,0,0,0,0,0,0,0,0,0,0,0,0,0,0,0,0,0,0,0,0],"sum_hessian":[5.64E2,1.21E2,4.43E2,8.3E1,3.8E1,3.14E2,1.29E2,4.7E1,3.6E1,3.7E1,1E0,1.04E2,2.1E2,7.1E1,5.8E1,2.9E1,7.5E1,9.3E1,1.17E2,6.5E1,6E0,1.1E1,1.8E1,6.7E1,8E0,8.1E1,1.2E1,1E1,1.07E2,5.4E1,1.1E1,1E0,1E1,1.3E1,5E0,5.9E1,8E0,6E0,2E0,2.1E1,6E1,7E0,5E0,1E0,9E0,3E1,7.7E1],"tree_param":{"num_deleted":"0","num_feature":"16","num_nodes":"47","size_leaf_vector":"1"}},{"base_weights":[-2.7453365E-2,-1.209228E0,3.2846856E-1,-1.402975E0,-7.355343E-1,9.026488E-2,9.3754786E-1,-5.7418924E-2,-7.521868E-2,-3.9459314E-2,-2.2854216E-2,-2.007036E-1,2.4290583E-1,8.197008E-1,5.340574E-2,-2.6927564E-1,-1.4008269E-1,1.5351027E-1,3.1479433E-1,8.75414E-1,2.2064617E-2,-2.9315522E-1,-4.131953E-2,-7.037264E-2,-2.0527394E-1,1.7163752E-1,-2.1672682E-3,2.192334E-2,2.8284076E-1,7.0133926E-3,8.854967E-1,-4.055548E-3,-1.5047508E-2,-4.202811E-3,5.3143503E-5,-2.6353577E-3,-5.109973E-3,-1.068062E-2,1.1219978E-3,4.637365E-3,9.784913E-3,1.9025666E-3,-2.9019928E-3,1.784991E-2,1.0593092E-2,1.4456081E-2,4.506749E-2],"categories":[],"categories_nodes":[],"categories_segments":[],"categories_sizes":[],"default_left":[0,0,0,0,0,0,0,0,0,0,0,0,0,0,0,0,0,0,0,0,0,0,0,0,0,0,0,0,0,0,0,0,0,0,0,0,0,0,0,0,0,0,0,0,0,0,0],"id":2,"left_children":[1,3,5,7,9,11,13,-1,-1,-1,-1,15,17,19,-1,21,23,25,27,29,-1,31,33,35,37,39,41,-1,43,-1,45,-1,-1,-1,-1,-1,-1,-1,-1,-1,-1,-1,-1,-1,-1,-1,-1],"loss_changes":[2.4351526E2,1.1266144E1,6.447816E1,6.990967E-1,2.517891E-1,1.4305552E1,1.0478363E0,0E0,0E0,0E0,0E0,4.236951E-1,1.3076696E0,1.089447E0,0E0,2.655053E-1,2.627678E-1,2.7128434E-1,3.343897E-1,3.2052994E-1,0E0,5.1621675E-2,1.0957041E-2,1.2042686E-2,6.3655734E-2,1.4509106E-1,2.6926784E-2,0E0,4.2440796E-1,0E0,2.972107E-1,0E0,0E0,0E0,0E0,0E0,0E0,0E0,0E0,0E0,0E0,0E0,0E0,0E0,0E0,0E0,0E0],"parents":[2147483647,0,0,1,1,2,2,3,3,4,4,5,5,6,6,11,11,12,12,13,13,15,15,16,16,17,17,18,18,19,19,21,21,22,22,23,23,24,24,25,25,26,26,28,28,30,30],"right_children":[2,4,6,8,10,12,14,-1,-1,-1,-1,16,18,20,-1,22,24,26,28,30,-1,32,34,36,38,40,42,-1,44,-1,46,-1,-1,-1,-1,-1,-1,-1,-1,-1,-1,-1,-1,-1,-1,-1,-1],"split_conditions":[9.830428E0,8.909588E0,1.012745E1,9.6638E-3,9.813234E0,9.988652E0,1.0187014E1,-5.7418924E-2,-7.521868E-2,-3.9459314E-2,-2.2854216E-2,-9.888699E-3,1.0114743E1,1.0145057E1,5.340574E-2,9.430131E0,9.12183E0,3.3911116E-2,1.0156655E1,1.002726E1,2.2064617E-2,9.086068E0,-2.9456256E-2,9.897877E0,9.443107E0,1.0004907E1,1.9473538E-2,2.192334E-2,4.1376877E1,7.0133926E-3,-5.0541077E-2,-4.055548E-3,-1.5047508E-2,-4.202811E-3,5.3143503E-5,-2.6353577E-3,-5.109973E-3,-1.068062E-2,1.1219978E-3,4.637365E-3,9.784913E-3,1.9025666E-3,-2.9019928E-3,1.784991E-2,1.0593092E-2,1.4456081E-2,4.506749E-2],"split_indices":[12,10,1,15,12,12,11,0,0,0,0,14,12,11,0,8,8,7,12,3,0,10,6,12,8,12,14,0,5,0,14,0,0,0,0,0,0,0,0,0,0,0,0,0,0,0,0],"split_type":[0,0,0,0,0,0,0,0,0,0,0,0,0,0,0,0,0,0,0,0,0,0,0,0,0,0,0,0,0,0,0,0,0,0,0,0,0,0,0,0,0,0,0,0,0,0,0],"sum_hessian":[5.77E2,1.33E2,4.44E2,9.3E1,4E1,3.2E2,1.24E2,3E1,6.3E1,3.2E1,8E0,1.1E2,2.1E2,6.9E1,5.5E1,5E1,6E1,9.5E1,1.15E2,5.9E1,1E1,4.5E1,5E0,3E1,3E1,8.5E1,1E1,2.1E1,9.4E1,1E0,5.8E1,2E0,4.3E1,2E0,3E0,2.1E1,9E0,2.9E1,1E0,2.1E1,6.4E1,6E0,4E0,4.4E1,5E1,2E0,5.6E1],"tree_param":{"num_deleted":"0","num_feature":"16","num_nodes":"47","size_leaf_vector":"1"}},{"base_weights":[-5.68888E-3,-1.2535713E0,3.0302352E-1,-1.4073801E0,-9.059231E-1,6.164611E-2,9.268745E-1,-5.970475E-2,-7.859608E-2,-4.818446E-2,-2.8080935E-2,-2.653991E-1,2.3063597E-1,8.177498E-1,5.1422745E-2,-3.7589E-1,-1.629723E-1,1.1408597E-1,2.7444544E-1,4.4419043E-2,5.042528E-1,-3.2948744E-2,-2.5624982E-1,-6.1870918E-2,-2.236021E-1,1.6775417E-1,9.423338E-2,2.9547697E-1,-1.8329382E-2,1.2307084E-2,2.741344E-2,-5.5676796E-3,-1.4676104E-2,-1.6909161E-3,-4.0748324E-3,-1.3142335E-2,-7.16438E-3,4.8924624E-3,1.0562627E-2,1.7143658E-3,6.7196586E-3,4.6137213E-3,1.52262775E-2,2.155142E-3,-2.7216673E-3],"categories":[],"categories_nodes":[],"categories_segments":[],"categories_sizes":[],"default_left":[0,0,0,0,0,0,0,0,0,0,0,0,0,0,0,0,0,0,0,0,0,0,0,0,0,0,0,0,0,0,0,0,0,0,0,0,0,0,0,0,0,0,0,0,0],"id":3,"left_children":[1,3,5,7,9,11,13,-1,-1,-1,-1,15,17,19,-1,21,23,25,27,-1,29,-1,31,33,35,37,39,41,43,-1,-1,-1,-1,-1,-1,-1,-1,-1,-1,-1,-1,-1,-1,-1,-1],"loss_changes":[2.2921051E2,5.0346375E0,7.177121E1,9.305115E-1,2.3444748E-1,1.9128437E1,6.3327026E-1,0E0,0E0,0E0,0E0,1.2741737E0,1.1328573E0,1.0798683E0,0E0,1.7277637E0,3.7234044E-1,5.238098E-2,1.0214014E0,0E0,3.546357E-2,0E0,1.8874049E-1,1.1007734E-2,8.52617E-2,2.7981073E-2,1.1335561E-1,2.550602E-1,2.8961591E-2,0E0,0E0,0E0,0E0,0E0,0E0,0E0,0E0,0E0,0E0,0E0,0E0,0E0,0E0,0E0,0E0],"parents":[2147483647,0,0,1,1,2,2,3,3,4,4,5,5,6,6,11,11,12,12,13,13,15,15,16,16,17,17,18,18,20,20,22,22,23,23,24,24,25,25,26,26,27,27,28,28],"right_children":[2,4,6,8,10,12,14,-1,-1,-1,-1,16,18,20,-1,22,24,26,28,-1,30,-1,32,34,36,38,40,42,44,-1,-1,-1,-1,-1,-1,-1,-1,-1,-1,-1,-1,-1,-1,-1,-1],"split_conditions":[8.9567E0,8.347428E0,1.01492E1,7.6999726E0,-5.9736133E-2,9.4683485E0,1.0187014E1,-5.970475E-2,-7.859608E-2,-4.818446E-2,-2.8080935E-2,-2.4071028E-2,9.510219E0,1.0752933E1,5.1422745E-2,9.07683E0,9.08727E0,9.621449E0,3.513715E-2,4.4419043E-2,1.1228437E-2,-3.2948744E-2,9.091195E0,8.863236E0,3.2749604E-2,9.39595E0,9.6509E0,3.6817247E-3,3.914771E-2,1.2307084E-2,2.741344E-2,-5.5676796E-3,-1.4676104E-2,-1.6909161E-3,-4.0748324E-3,-1.3142335E-2,-7.16438E-3,4.8924624E-3,1.0562627E-2,1.7143658E-3,6.7196586E-3,4.6137213E-3,1.52262775E-2,2.155142E-3,-2.7216673E-3],"split_indices":[8,8,3,9,7,9,11,0,0,0,0,7,9,10,0,9,9,10,7,0,7,0,10,11,7,0,10,15,7,0,0,0,0,0,0,0,0,0,0,0,0,0,0,0,0],"split_type":[0,0,0,0,0,0,0,0,0,0,0,0,0,0,0,0,0,0,0,0,0,0,0,0,0,0,0,0,0,0,0,0,0,0,0,0,0,0,0,0,0,0,0,0,0],"sum_hessian":[5.93E2,1.17E2,4.76E2,7.9E1,3.8E1,3.44E2,1.32E2,3.8E1,4.1E1,3.1E1,7E0,1.17E2,2.27E2,6.8E1,6.4E1,5.5E1,6.2E1,6.3E1,1.64E2,5.4E1,1.4E1,1.5E1,4E1,2.4E1,3.8E1,1.5E1,4.8E1,1.53E2,1.1E1,3E0,1.1E1,9E0,3.1E1,1.1E1,1.3E1,2.4E1,1.4E1,7E0,8E0,2E1,2.8E1,7E0,1.46E2,4E0,7E0],"tree_param":{"num_deleted":"0","num_feature":"16","num_nodes":"45","size_leaf_vector":"1"}},{"base_weights":[3.5181712E-2,-1.1232083E0,3.1480324E-1,-1.3224442E0,-7.549178E-1,8.3659515E-2,8.5574245E-1,-7.274919E-2,-5.5565085E-2,-2.9399807E-2,-4.3362234E-2,-1.8196192E-1,2.2159298E-1,4.8277467E-1,8.869365E-1,-6.570849E-2,-2.2511008E-1,1.2778845E-1,2.9224208E-1,1.4432015E-2,3.0397061E-2,4.4574913E-2,7.689953E-3,-9.408195E-2,-4.398031E-2,-2.4562421E-1,-7.0371196E-2,1.4705771E-1,-1.7745415E-2,2.139835E-2,2.633311E-1,-1.4812787E-3,-5.1554027E-3,-9.1755047E-4,-2.6826756E-3,-1.3328508E-2,-6.502823E-3,-5.8219573E-3,4.0990833E-4,3.8382958E-3,8.321176E-3,1.5778814E-3,-3.6154033E-3,1.075085E-2,1.7823864E-2],"categories":[],"categories_nodes":[],"categories_segments":[],"categories_sizes":[],"default_left":[0,0,0,0,0,0,0,0,0,0,0,0,0,0,0,0,0,0,0,0,0,0,0,0,0,0,0,0,0,0,0,0,0,0,0,0,0,0,0,0,0,0,0,0,0],"id":4,"left_children":[1,3,5,7,9,11,13,-1,-1,-1,-1,15,17,19,21,23,25,27,29,-1,-1,-1,-1,31,33,35,37,39,41,-1,43,-1,-1,-1,-1,-1,-1,-1,-1,-1,-1,-1,-1,-1,-1],"loss_changes":[1.8822186E2,7.293213E0,5.8444656E1,3.9797974E-1,2.7755547E-1,1.2094253E1,1.2006226E0,0E0,0E0,0E0,0E0,5.520303E-1,1.4007568E0,1.4041233E-1,2.9096985E-1,1.559037E-2,2.4301004E-1,2.6902092E-1,3.699484E-1,0E0,0E0,0E0,0E0,4.508622E-3,3.9737485E-3,1.3961983E-1,4.0769402E-2,1.0157013E-1,3.4563128E-2,0E0,3.9137936E-1,0E0,0E0,0E0,0E0,0E0,0E0,0E0,0E0,0E0,0E0,0E0,0E0,0E0,0E0],"parents":[2147483647,0,0,1,1,2,2,3,3,4,4,5,5,6,6,11,11,12,12,13,13,14,14,15,15,16,16,17,17,18,18,23,23,24,24,25,25,26,26,27,27,28,28,30,30],"right_children":[2,4,6,8,10,12,14,-1,-1,-1,-1,16,18,20,22,24,26,28,30,-1,-1,-1,-1,32,34,36,38,40,42,-1,44,-1,-1,-1,-1,-1,-1,-1,-1,-1,-1,-1,-1,-1,-1],"split_conditions":[9.829626E0,8.580981E0,1.006715E1,-1.8265853E-2,6.581701E-3,9.988652E0,-7.423628E-2,-7.274919E-2,-5.5565085E-2,-2.9399807E-2,-4.3362234E-2,9.0990305E0,1.0114743E1,1.0259879E1,8.214126E-3,5.8553023E-3,9.439287E0,3.4602873E-2,1.0156655E1,1.4432015E-2,3.0397061E-2,4.4574913E-2,7.689953E-3,-2.7665434E-2,-2.7315367E-3,3.1571828E-2,-2.513703E-2,1.0004907E1,9.80578E0,2.139835E-2,9.8618355E0,-1.4812787E-3,-5.1554027E-3,-9.1755047E-4,-2.6826756E-3,-1.3328508E-2,-6.502823E-3,-5.8219573E-3,4.0990833E-4,3.8382958E-3,8.321176E-3,1.5778814E-3,-3.6154033E-3,1.075085E-2,1.7823864E-2],"split_indices":[12,9,3,14,15,12,6,0,0,0,0,9,12,8,15,15,8,7,12,0,0,0,0,6,13,6,6,12,3,0,10,0,0,0,0,0,0,0,0,0,0,0,0,0,0],"split_type":[0,0,0,0,0,0,0,0,0,0,0,0,0,0,0,0,0,0,0,0,0,0,0,0,0,0,0,0,0,0,0,0,0,0,0,0,0,0,0,0,0,0,0,0,0],"sum_hessian":[5.79E2,1.12E2,4.67E2,7.1E1,4.1E1,3.28E2,1.39E2,4E1,3.1E1,1.9E1,2.2E1,1.12E2,2.16E2,1.2E1,1.27E2,3.1E1,8.1E1,9.4E1,1.22E2,6E0,6E0,1.26E2,1E0,1.2E1,1.9E1,7.1E1,1E1,8.3E1,1.1E1,1.9E1,1.03E2,2E0,1E1,6E0,1.3E1,5.9E1,1.2E1,6E0,4E0,1.9E1,6.4E1,6E0,5E0,7E1,3.3E1],"tree_param":{"num_deleted":"0","num_feature":"16","num_nodes":"45","size_leaf_vector":"1"}},{"base_weights":[1.5762173E-2,-1.0608271E0,3.150386E-1,-1.2116723E0,-6.3748604E-1,8.30257E-2,8.300462E-1,-1.2701892E0,-4.658252E-2,-3.3099957E-2,-1.3794089E-2,-1.6570875E-1,2.064283E-1,7.3267186E-1,9.252694E-1,-5.448633E-2,-7.177102E-2,-6.426865E-2,-2.0624E-1,1.2546708E-1,2.7068722E-1,7.796753E-1,3.8404492E-1,5.003755E-2,3.7102178E-2,-4.5963E-2,-8.7487444E-2,-2.1984713E-1,-1.0848999E-2,1.4535931E-1,-1.4248848E-2,1.7724687E-1,2.9490447E-1,6.011796E-3,7.879707E-1,1.0791178E-2,2.2466972E-2,-9.395191E-4,-2.813312E-3,-4.539053E-3,-1.1991024E-3,-8.556779E-3,-1.2565786E-2,9.7582344E-4,-2.385998E-3,3.6650852E-3,8.392894E-3,1.8053929E-3,-2.5117637E-3,1.1369354E-2,6.7188456E-3,1.8916277E-2,1.3491954E-2,4.072645E-2,2.6610816E-2],"categories":[],"categories_nodes":[],"categories_segments":[],"categories_sizes":[],"default_left":[0,0,0,0,0,0,0,0,0,0,0,0,0,0,0,0,0,0,0,0,0,0,0,0,0,0,0,0,0,0,0,0,0,0,0,0,0,0,0,0,0,0,0,0,0,0,0,0,0,0,0,0,0,0,0],"id":5,"left_children":[1,3,5,7,9,11,13,15,-1,-1,-1,17,19,21,23,-1,-1,25,27,29,31,33,35,-1,-1,37,39,41,43,45,47,49,51,-1,53,-1,-1,-1,-1,-1,-1,-1,-1,-1,-1,-1,-1,-1,-1,-1,-1,-1,-1,-1,-1],"loss_changes":[1.910753E2,7.465378E0,5.5373707E1,3.5690308E-1,1.364727E-1,9.8871355E0,6.572876E-1,6.72142E-1,0E0,0E0,0E0,4.2667508E-1,1.0845709E0,9.459572E-1,2.1168137E-1,0E0,0E0,9.579927E-3,1.9967699E-1,2.716596E-1,2.1700954E-1,2.662964E-1,2.3845315E-2,0E0,0E0,4.5420527E-3,5.419925E-4,6.58257E-2,7.648948E-3,1.2549722E-1,2.5371939E-2,2.7481198E-2,9.23748E-2,0E0,7.99942E-3,0E0,0E0,0E0,0E0,0E0,0E0,0E0,0E0,0E0,0E0,0E0,0E0,0E0,0E0,0E0,0E0,0E0,0E0,0E0,0E0],"parents":[2147483647,0,0,1,1,2,2,3,3,4,4,5,5,6,6,7,7,11,11,12,12,13,13,14,14,17,17,18,18,19,19,20,20,21,21,22,22,25,25,26,26,27,27,28,28,29,29,30,30,31,31,32,32,34,34],"right_children":[2,4,6,8,10,12,14,16,-1,-1,-1,18,20,22,24,-1,-1,26,28,30,32,34,36,-1,-1,38,40,42,44,46,48,50,52,-1,54,-1,-1,-1,-1,-1,-1,-1,-1,-1,-1,-1,-1,-1,-1,-1,-1,-1,-1,-1,-1],"split_conditions":[9.835255E0,8.523932E0,1.012745E1,8.308299E0,9.035064E0,9.988652E0,1.0187014E1,7.6999726E0,-4.658252E-2,-3.3099957E-2,-1.3794089E-2,9.0990305E0,1.0114743E1,1.0145057E1,1.0410894E1,-5.448633E-2,-7.177102E-2,8.863697E0,9.443107E0,9.733875E0,9.3574E0,1.00231E1,1.0389931E1,5.003755E-2,3.7102178E-2,-4.0648035E-3,6.4640015E1,9.15493E0,9.39369E0,1.0004907E1,9.83093E0,1.0236118E1,1.0156655E1,6.011796E-3,1.0440421E1,1.0791178E-2,2.2466972E-2,-9.395191E-4,-2.813312E-3,-4.539053E-3,-1.1991024E-3,-8.556779E-3,-1.2565786E-2,9.7582344E-4,-2.385998E-3,3.6650852E-3,8.392894E-3,1.8053929E-3,-2.5117637E-3,1.1369354E-2,6.7188456E-3,1.8916277E-2,1.3491954E-2,4.072645E-2,2.6610816E-2],"split_indices":[12,8,1,8,8,12,11,9,0,0,0,9,12,11,11,0,0,11,8,8,11,2,8,0,0,13,5,9,0,12,1,12,12,0,8,0,0,0,0,0,0,0,0,0,0,0,0,0,0,0,0,0,0,0,0],"split_type":[0,0,0,0,0,0,0,0,0,0,0,0,0,0,0,0,0,0,0,0,0,0,0,0,0,0,0,0,0,0,0,0,0,0,0,0,0,0,0,0,0,0,0,0,0,0,0,0,0,0,0,0,0,0,0],"sum_hessian":[5.91E2,1.28E2,4.63E2,9.3E1,3.5E1,3.2E2,1.43E2,7.4E1,1.9E1,3.2E1,3E0,1.06E2,2.14E2,7.5E1,6.8E1,3.9E1,3.5E1,3.1E1,7.5E1,9.6E1,1.18E2,6.5E1,1E1,4.5E1,2.3E1,1.9E1,1.2E1,7E1,5E0,8.4E1,1.2E1,2.6E1,9.2E1,1E0,6.4E1,4E0,6E0,6E0,1.3E1,1.1E1,1E0,3E1,4E1,3E0,2E0,2.1E1,6.3E1,5E0,7E0,1E1,1.6E1,1.8E1,7.4E1,5.6E1,8E0],"tree_param":{"num_deleted":"0","num_feature":"16","num_nodes":"55","size_leaf_vector":"1"}},{"base_weights":[-2.1491966E-3,-1.0964129E0,2.4613363E-1,-1.22186E0,-7.8744364E-1,3.88273E-2,3.9879438E-2,-6.585783E-2,-4.6620574E-2,-4.2171624E-2,-2.500254E-2,-1.8976189E-1,2.0385301E-1,-2.6798457E-1,-1.1813206E-1,1.7801474E-1,3.1426653E-1,-9.173924E-2,-3.5994342E-1,-1.5336001E-1,1.1037991E-1,2.3461309E-1,1.2518197E-1,8.675016E-3,1.6795741E-2,-8.5090725E-3,-3.1809807E-3,-1.1750102E-2,-2.3994103E-2,-1.211603E-2,-5.2772895E-3,6.8113278E-3,-1.9766491E-4,8.997541E-3,1.5672332E-2,7.4043125E-3,1.0405962E-3],"categories":[],"categories_nodes":[],"categories_segments":[],"categories_sizes":[],"default_left":[0,0,0,0,0,0,0,0,0,0,0,0,0,0,0,0,0,0,0,0,0,0,0,0,0,0,0,0,0,0,0,0,0,0,0,0,0],"id":6,"left_children":[1,3,5,7,9,11,-1,-1,-1,-1,-1,13,15,17,19,21,23,25,27,29,31,33,35,-1,-1,-1,-1,-1,-1,-1,-1,-1,-1,-1,-1,-1,-1],"loss_changes":[1.5866331E2,3.2238617E0,5.4385418E1,8.406296E-1,1.2532806E-1,1.3128597E1,0E0,0E0,0E0,0E0,0E0,7.8639174E-1,5.203409E-1,1.0852842E0,6.448282E-1,4.6701193E-1,5.447054E-2,4.4317245E-2,5.6156445E-1,2.6366758E-1,3.304495E-2,2.8402328E-1,2.0728385E-1,0E0,0E0,0E0,0E0,0E0,0E0,0E0,0E0,0E0,0E0,0E0,0E0,0E0,0E0],"parents":[2147483647,0,0,1,1,2,2,3,3,4,4,5,5,11,11,12,12,13,13,14,14,15,15,16,16,17,17,18,18,19,19,20,20,21,21,22,22],"right_children":[2,4,6,8,10,12,-1,-1,-1,-1,-1,14,16,18,20,22,24,26,28,30,32,34,36,-1,-1,-1,-1,-1,-1,-1,-1,-1,-1,-1,-1,-1,-1],"split_conditions":[8.83674E0,8.347428E0,1.019467E1,-3.9399046E-2,8.66158E0,9.443107E0,3.9879438E-2,-6.585783E-2,-4.6620574E-2,-4.2171624E-2,-2.500254E-2,9.08916E0,1.0009391E1,9.103322E0,6.672804E-3,5.0579677E-3,9.50927E0,-5.4035462E-2,-2.166098E-2,-2.3282584E-2,9.57464E0,-4.118536E-3,9.684236E0,8.675016E-3,1.6795741E-2,-8.5090725E-3,-3.1809807E-3,-1.1750102E-2,-2.3994103E-2,-1.211603E-2,-5.2772895E-3,6.8113278E-3,-1.9766491E-4,8.997541E-3,1.5672332E-2,7.4043125E-3,1.0405962E-3],"split_indices":[3,8,1,6,0,8,0,0,0,0,0,3,10,10,15,15,3,7,14,7,1,6,8,0,0,0,0,0,0,0,0,0,0,0,0,0,0],"split_type":[0,0,0,0,0,0,0,0,0,0,0,0,0,0,0,0,0,0,0,0,0,0,0,0,0,0,0,0,0,0,0,0,0,0,0,0,0],"sum_hessian":[5.82E2,1.07E2,4.75E2,7.4E1,3.3E1,3.46E2,1.29E2,5.3E1,2.1E1,2.6E1,7E0,1.45E2,2.01E2,6.8E1,7.7E1,1.65E2,3.6E1,2.4E1,4.4E1,6.7E1,1E1,7.8E1,8.7E1,6E0,3E1,5E0,1.9E1,2.3E1,2.1E1,2.2E1,4.5E1,8E0,2E0,4.8E1,3E1,7.1E1,1.6E1],"tree_param":{"num_deleted":"0","num_feature":"16","num_nodes":"37","size_leaf_vector":"1"}},{"base_weights":[6.937948E-3,-1.0149052E0,2.3877013E-1,-1.1389042E0,-6.701687E-1,4.808166E-2,7.405979E-1,-6.297973E-2,-4.6807848E-2,-6.8696535E-1,-4.1567087E-3,-2.1216264E-1,1.8720324E-1,6.432553E-1,8.594808E-1,-2.3205131E-2,-3.734554E-2,-2.818373E-1,-1.3416828E-1,8.546663E-2,2.2101106E-1,6.737387E-1,1.2326377E-2,4.5979764E-2,3.2586005E-2,-2.737973E-2,-2.1508875E-1,-5.064682E-2,-1.899931E-1,4.0793832E-2,1.1163351E-1,2.4342202E-1,-2.530295E-2,7.06204E-1,2.177032E-2,-5.939952E-3,-1.272921E-2,-1.2448421E-3,-3.6250446E-3,-1.0648011E-2,-5.5639646E-3,3.5696925E-4,5.150175E-3,6.641892E-3,2.160926E-3,5.9616994E-3,1.2943419E-2,-2.9906274E-3,1.1340618E-3,3.5780665E-2,1.4444463E-2],"categories":[],"categories_nodes":[],"categories_segments":[],"categories_sizes":[],"default_left":[0,0,0,0,0,0,0,0,0,0,0,0,0,0,0,0,0,0,0,0,0,0,0,0,0,0,0,0,0,0,0,0,0,0,0,0,0,0,0,0,0,0,0,0,0,0,0,0,0,0,0],"id":7,"left_children":[1,3,5,7,9,11,13,-1,-1,15,-1,17,19,21,23,-1,-1,25,27,29,31,33,-1,-1,-1,-1,35,37,39,41,43,45,47,49,-1,-1,-1,-1,-1,-1,-1,-1,-1,-1,-1,-1,-1,-1,-1,-1,-1],"loss_changes":[1.3835277E2,3.8534164E0,4.5514145E1,7.2945404E-1,2.4855614E-1,1.2566855E1,9.631119E-1,0E0,0E0,5.4145813E-2,0E0,6.1972857E-1,7.584357E-1,7.5302124E-1,1.0009003E-1,0E0,0E0,9.9977016E-1,2.6546907E-1,6.324503E-2,9.390621E-1,2.341404E-1,0E0,0E0,0E0,0E0,1.6751194E-1,1.2263507E-2,3.9575934E-2,4.741816E-2,4.6483904E-2,2.6646233E-1,2.6195347E-2,2.8867722E-2,0E0,0E0,0E0,0E0,0E0,0E0,0E0,0E0,0E0,0E0,0E0,0E0,0E0,0E0,0E0,0E0,0E0],"parents":[2147483647,0,0,1,1,2,2,3,3,4,4,5,5,6,6,9,9,11,11,12,12,13,13,14,14,17,17,18,18,19,19,20,20,21,21,26,26,27,27,28,28,29,29,30,30,31,31,32,32,33,33],"right_children":[2,4,6,8,10,12,14,-1,-1,16,-1,18,20,22,24,-1,-1,26,28,30,32,34,-1,-1,-1,-1,36,38,40,42,44,46,48,50,-1,-1,-1,-1,-1,-1,-1,-1,-1,-1,-1,-1,-1,-1,-1,-1,-1],"split_conditions":[8.87068E0,8.46758E0,1.012745E1,-8.136155E-2,8.974494E0,9.4683485E0,1.0187014E1,-6.297973E-2,-4.6807848E-2,7.1976385E-3,-4.1567087E-3,-2.3282584E-2,9.510219E0,7.964694E-3,1.0410894E1,-2.3205131E-2,-3.734554E-2,9.0737095E0,9.081896E0,9.41224E0,3.513715E-2,1.0775153E1,1.2326377E-2,4.5979764E-2,3.2586005E-2,-2.737973E-2,9.198162E0,8.863236E0,3.530715E-2,9.647093E0,9.58396E0,3.985243E-3,9.726707E0,1.022062E-2,2.177032E-2,-5.939952E-3,-1.272921E-2,-1.2448421E-3,-3.6250446E-3,-1.0648011E-2,-5.5639646E-3,3.5696925E-4,5.150175E-3,6.641892E-3,2.160926E-3,5.9616994E-3,1.2943419E-2,-2.9906274E-3,1.1340618E-3,3.5780665E-2,1.4444463E-2],"split_indices":[1,8,1,7,8,9,11,0,0,15,0,7,9,15,11,0,0,9,9,2,7,10,0,0,0,0,10,11,6,10,0,15,9,13,0,0,0,0,0,0,0,0,0,0,0,0,0,0,0,0,0],"split_type":[0,0,0,0,0,0,0,0,0,0,0,0,0,0,0,0,0,0,0,0,0,0,0,0,0,0,0,0,0,0,0,0,0,0,0,0,0,0,0,0,0,0,0,0,0,0,0,0,0,0,0],"sum_hessian":[5.82E2,1.07E2,4.75E2,7.7E1,3E1,3.45E2,1.3E2,4.5E1,3.2E1,2.9E1,1E0,1.2E2,2.25E2,7.5E1,5.5E1,8E0,2.1E1,6.2E1,5.8E1,5.7E1,1.68E2,6.9E1,6E0,4E1,1.5E1,1.1E1,5.1E1,2.4E1,3.4E1,2.2E1,3.5E1,1.54E2,1.4E1,5.9E1,1E1,1.6E1,3.5E1,1.2E1,1.2E1,2.5E1,9E0,1.5E1,7E0,2.6E1,9E0,1.8E1,1.36E2,8E0,6E0,5.7E1,2E0],"tree_param":{"num_deleted":"0","num_feature":"16","num_nodes":"51","size_leaf_vector":"1"}},{"base_weights":[1.1786567E-2,-9.1496646E-1,2.6212552E-1,-1.0446924E0,-5.255799E-1,7.289933E-2,7.0634407E-1,-1.102063E0,-4.0602803E-2,-2.8688747E-2,-1.6665364E-2,-1.3711053E-1,1.7903037E-1,3.8761044E-1,7.394714E-1,-4.6609446E-2,-6.1648455E-2,-7.724266E-2,-1.6936201E-1,1.05487E-1,2.3972921E-1,1.1824441E-2,2.4514038E-2,7.435907E-1,5.9227943E-3,-1.06842555E-1,-3.0910885E-2,-1.9139001E-1,-8.942828E-2,1.2540136E-1,-2.4378913E-2,3.4621125E-1,2.1142589E-1,6.6495854E-1,8.0667555E-1,-6.9927867E-3,-3.6636014E-3,-9.6370775E-4,-2.4516264E-3,-1.0688491E-2,-3.5770894E-3,-2.2378683E-3,-5.2155694E-3,2.7909344E-3,7.3511587E-3,1.4796666E-3,-3.4278631E-3,1.7697524E-2,4.3987273E-3,1.3984889E-2,7.479573E-3,3.430622E-2,9.855258E-3,4.376168E-2,3.1956237E-2],"categories":[],"categories_nodes":[],"categories_segments":[],"categories_sizes":[],"default_left":[0,0,0,0,0,0,0,0,0,0,0,0,0,0,0,0,0,0,0,0,0,0,0,0,0,0,0,0,0,0,0,0,0,0,0,0,0,0,0,0,0,0,0,0,0,0,0,0,0,0,0,0,0,0,0],"id":8,"left_children":[1,3,5,7,9,11,13,15,-1,-1,-1,17,19,21,23,-1,-1,25,27,29,31,-1,-1,33,-1,35,37,39,41,43,45,47,49,51,53,-1,-1,-1,-1,-1,-1,-1,-1,-1,-1,-1,-1,-1,-1,-1,-1,-1,-1,-1,-1],"loss_changes":[1.3526523E2,5.7146072E0,3.853103E1,3.3293152E-1,1.1455345E-1,7.223753E0,1.159935E0,4.295044E-1,0E0,0E0,0E0,1.9737816E-1,9.3447113E-1,1.1678958E-1,2.265625E-1,0E0,0E0,5.1554024E-2,1.0613918E-1,2.590909E-1,2.7941656E-1,0E0,0E0,6.878662E-2,0E0,1.6350985E-2,2.6398432E-3,1.2954414E-1,6.6336095E-3,1.21180534E-1,3.54105E-2,1.4827728E-2,3.5920715E-1,4.589119E-1,1.642952E-1,0E0,0E0,0E0,0E0,0E0,0E0,0E0,0E0,0E0,0E0,0E0,0E0,0E0,0E0,0E0,0E0,0E0,0E0,0E0,0E0],"parents":[2147483647,0,0,1,1,2,2,3,3,4,4,5,5,6,6,7,7,11,11,12,12,13,13,14,14,17,17,18,18,19,19,20,20,23,23,25,25,26,26,27,27,28,28,29,29,30,30,31,31,32,32,33,33,34,34],"right_children":[2,4,6,8,10,12,14,16,-1,-1,-1,18,20,22,24,-1,-1,26,28,30,32,-1,-1,34,-1,36,38,40,42,44,46,48,50,52,54,-1,-1,-1,-1,-1,-1,-1,-1,-1,-1,-1,-1,-1,-1,-1,-1,-1,-1,-1,-1],"split_conditions":[9.835255E0,8.909588E0,1.005924E1,8.308299E0,9.813234E0,9.988652E0,-7.248857E-2,9.38478E0,-4.0602803E-2,-2.8688747E-2,-1.6665364E-2,9.275449E0,1.0114743E1,1.014979E1,8.214126E-3,-4.6609446E-2,-6.1648455E-2,-9.477361E-3,3.530715E-2,9.733875E0,1.0156655E1,1.1824441E-2,2.4514038E-2,1.0187014E1,5.9227943E-3,-8.77136E-3,8.863236E0,9.439287E0,2.4890793E3,1.0004907E1,1.0107777E1,9.75527E0,4.1121777E1,1.0154459E1,1.0410894E1,-6.9927867E-3,-3.6636014E-3,-9.6370775E-4,-2.4516264E-3,-1.0688491E-2,-3.5770894E-3,-2.2378683E-3,-5.2155694E-3,2.7909344E-3,7.3511587E-3,1.4796666E-3,-3.4278631E-3,1.7697524E-2,4.3987273E-3,1.3984889E-2,7.479573E-3,3.430622E-2,9.855258E-3,4.376168E-2,3.1956237E-2],"split_indices":[12,10,0,8,12,12,6,12,0,0,0,10,12,0,15,0,0,6,6,8,12,0,0,11,0,14,11,8,4,12,12,0,5,11,11,0,0,0,0,0,0,0,0,0,0,0,0,0,0,0,0,0,0,0,0],"split_type":[0,0,0,0,0,0,0,0,0,0,0,0,0,0,0,0,0,0,0,0,0,0,0,0,0,0,0,0,0,0,0,0,0,0,0,0,0,0,0,0,0,0,0,0,0,0,0,0,0,0,0,0,0,0,0],"sum_hessian":[5.81E2,1.23E2,4.58E2,9.1E1,3.2E1,3.22E2,1.36E2,7E1,2.1E1,2.4E1,8E0,1.08E2,2.14E2,1.4E1,1.22E2,3.4E1,3.6E1,3.9E1,6.9E1,9.8E1,1.16E2,7E0,7E0,1.21E2,1E0,2.3E1,1.6E1,5.3E1,1.6E1,8.5E1,1.3E1,2.2E1,9.4E1,5.9E1,6.2E1,1E1,1.3E1,1.1E1,5E0,4.4E1,9E0,5E0,1.1E1,2.1E1,6.4E1,6E0,7E0,2.1E1,1E0,4.3E1,5.1E1,5.6E1,3E0,4.1E1,2.1E1],"tree_param":{"num_deleted":"0","num_feature":"16","num_nodes":"55","size_leaf_vector":"1"}},{"base_weights":[1.1096157E-2,-8.671121E-1,2.5619802E-1,-9.9900174E-1,-4.918879E-1,7.243611E-2,6.691449E-1,-1.0502515E0,-3.797137E-2,-2.6398638E-2,-1.36061935E-2,-1.4238665E-1,1.7255029E-1,5.750413E-1,7.6594234E-1,-5.6929946E-2,-4.024232E-2,-5.8694016E-2,-1.736839E-1,1.0064088E-1,2.303198E-1,6.085304E-1,2.965091E-1,4.1452263E-2,3.0596096E-2,-6.764564E-2,-2.6740313E-2,-1.820216E-1,1.5646935E-2,1.2437098E-1,-1.1735704E-2,3.2958415E-1,2.0440845E-1,4.4082883E-3,6.151796E-1,7.6719E-3,1.831584E-2,-1.1593461E-3,-3.6722533E-3,-1.4400482E-3,-3.0789376E-4,-8.03086E-3,-1.2211147E-2,1.0948818E-3,-7.762909E-5,2.933123E-3,7.393909E-3,1.9462857E-3,-2.0155113E-3,1.6838375E-2,4.288769E-3,1.3886775E-2,7.2881514E-3,6.9772485E-3,3.102155E-2],"categories":[],"categories_nodes":[],"categories_segments":[],"categories_sizes":[],"default_left":[0,0,0,0,0,0,0,0,0,0,0,0,0,0,0,0,0,0,0,0,0,0,0,0,0,0,0,0,0,0,0,0,0,0,0,0,0,0,0,0,0,0,0,0,0,0,0,0,0,0,0,0,0,0,0],"id":9,"left_children":[1,3,5,7,9,11,13,15,-1,-1,-1,17,19,21,23,-1,-1,25,27,29,31,33,35,-1,-1,37,39,41,43,45,47,49,51,-1,53,-1,-1,-1,-1,-1,-1,-1,-1,-1,-1,-1,-1,-1,-1,-1,-1,-1,-1,-1,-1],"loss_changes":[1.25282684E2,5.793602E0,3.4478714E1,3.4428406E-1,1.3388157E-1,6.8207183E0,8.3480835E-1,6.879883E-1,0E0,0E0,0E0,2.5435996E-1,8.741212E-1,5.191498E-1,1.3415146E-1,0E0,0E0,6.486222E-3,1.1808467E-1,2.6279688E-1,2.3870707E-1,1.7412376E-1,4.3667674E-2,0E0,0E0,3.9694086E-3,1.6195327E-4,5.3970575E-2,4.640338E-4,1.1643958E-1,2.7626367E-2,1.1394739E-2,3.7664557E-1,0E0,7.5777054E-2,0E0,0E0,0E0,0E0,0E0,0E0,0E0,0E0,0E0,0E0,0E0,0E0,0E0,0E0,0E0,0E0,0E0,0E0,0E0,0E0],"parents":[2147483647,0,0,1,1,2,2,3,3,4,4,5,5,6,6,7,7,11,11,12,12,13,13,14,14,17,17,18,18,19,19,20,20,21,21,22,22,25,25,26,26,27,27,28,28,29,29,30,30,31,31,32,32,34,34],"right_children":[2,4,6,8,10,12,14,16,-1,-1,-1,18,20,22,24,-1,-1,26,28,30,32,34,36,-1,-1,38,40,42,44,46,48,50,52,-1,54,-1,-1,-1,-1,-1,-1,-1,-1,-1,-1,-1,-1,-1,-1,-1,-1,-1,-1,-1,-1],"split_conditions":[9.835255E0,8.808531E0,1.012745E1,8.487517E0,9.07683E0,9.988652E0,1.0187014E1,-3.9399046E-2,-3.797137E-2,-2.6398638E-2,-1.36061935E-2,9.0990305E0,1.0114743E1,1.0145057E1,1.0410894E1,-5.6929946E-2,-4.024232E-2,6.2898605E1,9.479336E0,9.76729E0,1.0156655E1,1.00231E1,1.0389859E1,4.1452263E-2,3.0596096E-2,8.82329E0,9.26417E0,9.428795E0,9.42296E0,1.0004907E1,9.556007E0,9.618832E0,4.1121777E1,4.4082883E-3,-5.3996537E-2,7.6719E-3,1.831584E-2,-1.1593461E-3,-3.6722533E-3,-1.4400482E-3,-3.0789376E-4,-8.03086E-3,-1.2211147E-2,1.0948818E-3,-7.762909E-5,2.933123E-3,7.393909E-3,1.9462857E-3,-2.0155113E-3,1.6838375E-2,4.288769E-3,1.3886775E-2,7.2881514E-3,6.9772485E-3,3.102155E-2],"split_indices":[12,9,1,9,9,12,11,6,0,0,0,9,12,11,11,0,0,5,9,3,12,2,9,0,0,11,1,9,1,12,11,9,5,0,14,0,0,0,0,0,0,0,0,0,0,0,0,0,0,0,0,0,0,0,0],"split_type":[0,0,0,0,0,0,0,0,0,0,0,0,0,0,0,0,0,0,0,0,0,0,0,0,0,0,0,0,0,0,0,0,0,0,0,0,0,0,0,0,0,0,0,0,0,0,0,0,0,0,0,0,0,0,0],"sum_hessian":[5.8E2,1.26E2,4.54E2,9.2E1,3.4E1,3.15E2,1.39E2,7.3E1,1.9E1,2.8E1,6E0,1E2,2.15E2,7.4E1,6.5E1,5.1E1,2.2E1,2.8E1,7.2E1,9.7E1,1.18E2,6.5E1,9E0,4.3E1,2.2E1,2.1E1,7E0,6.9E1,3E0,8E1,1.7E1,2.2E1,9.6E1,1E0,6.4E1,4E0,5E0,3E0,1.8E1,6E0,1E0,5.4E1,1.5E1,2E0,1E0,2.2E1,5.8E1,6E0,1.1E1,2.1E1,1E0,4.1E1,5.5E1,1E0,6.3E1],"tree_param":{"num_deleted":"0","num_feature":"16","num_nodes":"55","size_leaf_vector":"1"}},{"base_weights":[5.5729714E-3,-8.3154505E-1,2.4882615E-1,-9.603597E-1,-4.7406644E-1,6.837385E-2,6.54369E-1,-3.7060462E-2,-1.0169288E0,-2.6520887E-2,-1.538852E-2,-1.336127E-1,1.6812694E-1,5.7254446E-1,7.374002E-1,-5.320772E-2,-3.6588784E-2,-4.596005E-2,-1.6226284E-1,9.811864E-2,2.1942817E-1,5.942513E-1,1.0831905E-2,3.945641E-2,2.920252E-2,-6.740561E-2,-3.0301094E-2,-1.7095234E-1,4.007912E-3,1.2693758E-1,-1.9677768E-3,1.6018696E-2,1.9475652E-1,6.243961E-1,1.8516077E-2,-8.4123615E-4,-3.8388202E-3,-6.686986E-4,-1.9928543E-3,-6.7025158E-3,-9.779113E-3,1.0583878E-3,-7.2439515E-4,2.8701015E-3,7.3510776E-3,1.7572681E-3,-2.1137975E-3,1.25589995E-2,7.047365E-3,1.6503708E-2,3.222115E-2],"categories":[],"categories_nodes":[],"categories_segments":[],"categories_sizes":[],"default_left":[0,0,0,0,0,0,0,0,0,0,0,0,0,0,0,0,0,0,0,0,0,0,0,0,0,0,0,0,0,0,0,0,0,0,0,0,0,0,0,0,0,0,0,0,0,0,0,0,0,0,0],"id":10,"left_children":[1,3,5,7,9,11,13,-1,15,-1,-1,17,19,21,23,-1,-1,25,27,29,31,33,-1,-1,-1,35,37,39,41,43,45,-1,47,49,-1,-1,-1,-1,-1,-1,-1,-1,-1,-1,-1,-1,-1,-1,-1,-1,-1],"loss_changes":[1.2299677E2,5.8073196E0,3.4204025E1,4.7355652E-1,1.9285107E-1,6.5708184E0,5.561447E-1,0E0,2.4474335E-1,0E0,0E0,2.6375854E-1,7.614193E-1,4.6613312E-1,7.8517914E-2,0E0,0E0,7.360358E-3,1.1771488E-1,2.7138197E-1,2.489171E-1,2.5479507E-1,0E0,0E0,0E0,3.9220676E-3,2.3785513E-3,4.3766975E-2,1.8936028E-3,9.350872E-2,3.4396987E-2,0E0,2.7731538E-1,1.5274239E-1,0E0,0E0,0E0,0E0,0E0,0E0,0E0,0E0,0E0,0E0,0E0,0E0,0E0,0E0,0E0,0E0,0E0],"parents":[2147483647,0,0,1,1,2,2,3,3,4,4,5,5,6,6,8,8,11,11,12,12,13,13,14,14,17,17,18,18,19,19,20,20,21,21,25,25,26,26,27,27,28,28,29,29,30,30,32,32,33,33],"right_children":[2,4,6,8,10,12,14,-1,16,-1,-1,18,20,22,24,-1,-1,26,28,30,32,34,-1,-1,-1,36,38,40,42,44,46,-1,48,50,-1,-1,-1,-1,-1,-1,-1,-1,-1,-1,-1,-1,-1,-1,-1,-1,-1],"split_conditions":[9.835255E0,8.267605E0,1.012745E1,8.9356275E-3,9.068776E0,9.988652E0,1.0187014E1,-3.7060462E-2,8.487517E0,-2.6520887E-2,-1.538852E-2,9.0990305E0,1.0114743E1,7.964694E-3,1.0410894E1,-5.320772E-2,-3.6588784E-2,5.2155657E-3,9.479336E0,9.66079E0,1.0156655E1,1.0775153E1,1.0831905E-2,3.945641E-2,2.920252E-2,-2.7665434E-2,6.226344E-3,9.15493E0,9.42296E0,1.0003185E1,9.83093E0,1.6018696E-2,4.1376877E1,-8.7122135E-2,1.8516077E-2,-8.4123615E-4,-3.8388202E-3,-6.686986E-4,-1.9928543E-3,-6.7025158E-3,-9.779113E-3,1.0583878E-3,-7.2439515E-4,2.8701015E-3,7.3510776E-3,1.7572681E-3,-2.1137975E-3,1.25589995E-2,7.047365E-3,1.6503708E-2,3.222115E-2],"split_indices":[12,11,1,15,9,12,11,0,9,0,0,9,12,15,11,0,0,15,9,1,12,10,0,0,0,6,15,9,1,12,1,0,5,6,0,0,0,0,0,0,0,0,0,0,0,0,0,0,0,0,0],"split_type":[0,0,0,0,0,0,0,0,0,0,0,0,0,0,0,0,0,0,0,0,0,0,0,0,0,0,0,0,0,0,0,0,0,0,0,0,0,0,0,0,0,0,0,0,0,0,0,0,0,0,0],"sum_hessian":[6.02E2,1.35E2,4.67E2,9.8E1,3.7E1,3.24E2,1.43E2,2.3E1,7.5E1,2.6E1,1.1E1,1.07E2,2.17E2,7.6E1,6.7E1,6.2E1,1.3E1,2.7E1,8E1,9.3E1,1.24E2,7.1E1,5E0,4.7E1,2E1,1E1,1.7E1,7.6E1,4E0,7.2E1,2.1E1,2.2E1,1.02E2,6.1E1,1E1,2E0,8E0,7E0,1E1,3.3E1,4.3E1,2E0,2E0,1.7E1,5.5E1,1.1E1,1E1,4.8E1,5.4E1,5E0,5.6E1],"tree_param":{"num_deleted":"0","num_feature":"16","num_nodes":"51","size_leaf_vector":"1"}},{"base_weights":[-9.467965E-3,-8.1538093E-1,2.2107801E-1,-9.4632894E-1,-5.856033E-1,5.5820055E-2,6.1521465E-1,-4.0068068E-2,-5.2880403E-2,-3.3260692E-2,-2.0798137E-2,-1.4044337E-1,1.5607293E-1,6.435611E-1,4.4809493E-1,-5.880085E-2,-1.6390781E-1,9.1488466E-2,2.0483612E-1,7.224062E-1,5.9043944E-1,3.0525434E-1,2.944891E-2,-2.6992211E-2,-8.608635E-2,-1.890566E-1,-7.189299E-2,1.1504774E-1,2.1906814E-2,8.101377E-2,2.1575318E-1,2.1111693E-2,7.64188E-1,6.278784E-1,2.1839192E-2,1.8195184E-2,6.9317343E-3,-2.3029041E-3,-6.7004625E-4,-5.093379E-3,-1.2555838E-3,-1.0276091E-2,-2.5084019E-3,-1.9996325E-3,-5.537844E-3,2.7186454E-3,6.575223E-3,2.2008335E-3,-1.3907492E-3,1.6798497E-3,4.7297715E-3,7.4502626E-3,1.1947844E-2,3.9366737E-2,1.3513788E-2,2.0976124E-2,3.3011343E-2],"categories":[],"categories_nodes":[],"categories_segments":[],"categories_sizes":[],"default_left":[0,0,0,0,0,0,0,0,0,0,0,0,0,0,0,0,0,0,0,0,0,0,0,0,0,0,0,0,0,0,0,0,0,0,0,0,0,0,0,0,0,0,0,0,0,0,0,0,0,0,0,0,0,0,0,0,0],"id":11,"left_children":[1,3,5,7,9,11,13,-1,-1,-1,-1,15,17,19,21,23,25,27,29,31,33,35,-1,37,39,41,43,45,47,49,51,-1,53,55,-1,-1,-1,-1,-1,-1,-1,-1,-1,-1,-1,-1,-1,-1,-1,-1,-1,-1,-1,-1,-1,-1,-1],"loss_changes":[1.0441405E2,3.2069397E0,2.842931E1,4.1075897E-1,3.7154388E-1,6.101795E0,3.2273102E-1,0E0,0E0,0E0,0E0,1.9150996E-1,6.268754E-1,2.5806427E-2,2.629366E-1,1.93742E-2,1.738472E-1,1.4501607E-1,1.3932753E-1,1.6646385E-1,1.2844086E-1,7.6588035E-2,0E0,2.751465E-3,9.951256E-3,1.3375974E-1,1.9126192E-2,5.9749782E-2,2.7608525E-2,3.9058551E-3,1.2856674E-1,0E0,1.6447449E-1,8.698082E-2,0E0,0E0,0E0,0E0,0E0,0E0,0E0,0E0,0E0,0E0,0E0,0E0,0E0,0E0,0E0,0E0,0E0,0E0,0E0,0E0,0E0,0E0,0E0],"parents":[2147483647,0,0,1,1,2,2,3,3,4,4,5,5,6,6,11,11,12,12,13,13,14,14,15,15,16,16,17,17,18,18,19,19,20,20,21,21,23,23,24,24,25,25,26,26,27,27,28,28,29,29,30,30,32,32,33,33],"right_children":[2,4,6,8,10,12,14,-1,-1,-1,-1,16,18,20,22,24,26,28,30,32,34,36,-1,38,40,42,44,46,48,50,52,-1,54,56,-1,-1,-1,-1,-1,-1,-1,-1,-1,-1,-1,-1,-1,-1,-1,-1,-1,-1,-1,-1,-1,-1,-1],"split_conditions":[9.822333E0,8.347428E0,1.008157E1,9.409297E0,9.105247E0,9.988652E0,7.690985E-3,-4.0068068E-2,-5.2880403E-2,-3.3260692E-2,-2.0798137E-2,9.198162E0,1.0114743E1,4.423043E1,-1.7230293E-3,9.897877E0,3.530715E-2,9.59856E0,3.6817247E-3,-7.0809476E-2,6.9674975E-3,7.964694E-3,2.944891E-2,5.8553023E-3,8.99109E0,9.439287E0,4.128941E-2,1.0004907E1,3.914771E-2,9.71839E0,9.56146E0,2.1111693E-2,1.0775153E1,-1.0984519E-2,2.1839192E-2,1.8195184E-2,6.9317343E-3,-2.3029041E-3,-6.7004625E-4,-5.093379E-3,-1.2555838E-3,-1.0276091E-2,-2.5084019E-3,-1.9996325E-3,-5.537844E-3,2.7186454E-3,6.575223E-3,2.2008335E-3,-1.3907492E-3,1.6798497E-3,4.7297715E-3,7.4502626E-3,1.1947844E-2,3.9366737E-2,1.3513788E-2,2.0976124E-2,3.3011343E-2],"split_indices":[12,8,2,12,10,12,15,0,0,0,0,10,12,5,6,12,6,3,15,6,15,15,0,15,8,8,7,12,7,0,8,0,10,7,0,0,0,0,0,0,0,0,0,0,0,0,0,0,0,0,0,0,0,0,0,0,0],"split_type":[0,0,0,0,0,0,0,0,0,0,0,0,0,0,0,0,0,0,0,0,0,0,0,0,0,0,0,0,0,0,0,0,0,0,0,0,0,0,0,0,0,0,0,0,0,0,0,0,0,0,0,0,0,0,0,0,0],"sum_hessian":[5.6E2,1.24E2,4.36E2,7.7E1,4.7E1,3.08E2,1.28E2,3.7E1,4E1,3E1,1.7E1,1.04E2,2.04E2,1.07E2,2.1E1,2.4E1,8E1,8.9E1,1.15E2,3.8E1,6.9E1,1.2E1,9E0,1.2E1,1.2E1,6.2E1,1.8E1,6.6E1,2.3E1,1E1,1.05E2,6E0,3.2E1,5.3E1,1.6E1,8E0,4E0,4E0,8E0,9E0,3E0,5.5E1,7E0,1.1E1,7E0,1.5E1,5.1E1,1.6E1,7E0,3E0,7E0,2.9E1,7.6E1,3E1,2E0,9E0,4.4E1],"tree_param":{"num_deleted":"0","num_feature":"16","num_nodes":"57","size_leaf_vector":"1"}},{"base_weights":[-1.10363215E-2,-7.578892E-1,2.1765001E-1,-8.716664E-1,-4.206749E-1,5.513543E-2,5.74336E-1,-3.596588E-2,-4.650997E-2,-2.269167E-2,-1.2187309E-2,-1.2080197E-1,1.4841367E-1,3.1608242E-1,5.979113E-1,-4.7051527E-2,-1.4694837E-1,8.37748E-2,2.0133904E-1,1.0060281E-2,2.0110777E-2,6.246098E-1,4.5507982E-1,-6.614715E-2,-2.3546092E-2,-1.550694E-1,5.880928E-3,1.0862999E-1,1.0829277E-2,2.63477E-1,1.6586986E-1,6.80141E-1,5.4334015E-1,3.4211192E-1,2.7874315E-2,-2.3765564E-4,-3.4961605E-3,-4.237652E-4,-1.9779548E-3,-8.28424E-3,-4.232339E-3,-6.1662996E-4,1.1067073E-3,2.255249E-3,6.4876005E-3,-2.3631514E-3,1.8023227E-3,9.310012E-3,1.41851725E-2,5.358077E-3,1.1589333E-2,1.9591965E-2,3.5269286E-2,1.0894505E-2,2.763767E-2,2.2603845E-2,1.1539475E-2],"categories":[],"categories_nodes":[],"categories_segments":[],"categories_sizes":[],"default_left":[0,0,0,0,0,0,0,0,0,0,0,0,0,0,0,0,0,0,0,0,0,0,0,0,0,0,0,0,0,0,0,0,0,0,0,0,0,0,0,0,0,0,0,0,0,0,0,0,0,0,0,0,0,0,0,0,0],"id":12,"left_children":[1,3,5,7,9,11,13,-1,-1,-1,-1,15,17,19,21,23,25,27,29,-1,-1,31,33,35,37,39,41,43,45,47,49,51,53,55,-1,-1,-1,-1,-1,-1,-1,-1,-1,-1,-1,-1,-1,-1,-1,-1,-1,-1,-1,-1,-1,-1,-1],"loss_changes":[1.0127563E2,4.966362E0,2.6285206E1,2.4938965E-1,1.0644722E-1,5.1546135E0,6.7556E-1,0E0,0E0,0E0,0E0,2.0327139E-1,6.844449E-1,5.7597756E-2,2.0768356E-1,1.1908017E-2,1.0020244E-1,1.6925263E-1,2.0314312E-1,0E0,0E0,1.088295E-1,8.692503E-2,3.3768937E-3,3.2846527E-3,4.2790174E-2,1.7531135E-3,8.807194E-2,3.832676E-2,8.132696E-3,2.615316E-1,1.5300941E-1,2.6611328E-2,6.704736E-2,0E0,0E0,0E0,0E0,0E0,0E0,0E0,0E0,0E0,0E0,0E0,0E0,0E0,0E0,0E0,0E0,0E0,0E0,0E0,0E0,0E0,0E0,0E0],"parents":[2147483647,0,0,1,1,2,2,3,3,4,4,5,5,6,6,11,11,12,12,13,13,14,14,15,15,16,16,17,17,18,18,21,21,22,22,23,23,24,24,25,25,26,26,27,27,28,28,29,29,30,30,31,31,32,32,33,33],"right_children":[2,4,6,8,10,12,14,-1,-1,-1,-1,16,18,20,22,24,26,28,30,-1,-1,32,34,36,38,40,42,44,46,48,50,52,54,56,-1,-1,-1,-1,-1,-1,-1,-1,-1,-1,-1,-1,-1,-1,-1,-1,-1,-1,-1,-1,-1,-1,-1],"split_conditions":[9.835255E0,8.620713E0,1.006715E1,9.6638E-3,9.035064E0,9.988652E0,-7.8987055E-2,-3.596588E-2,-4.650997E-2,-2.269167E-2,-1.2187309E-2,9.0990305E0,1.0114743E1,1.014979E1,7.7647464E-3,5.8553023E-3,9.469617E0,9.59856E0,1.0193598E1,1.0060281E-2,2.0110777E-2,1.045058E1,1.0558429E1,-2.7665434E-2,1.6710013E-2,3.530715E-2,9.38851E0,1.0004907E1,5.3995317E-3,9.650135E0,9.845085E0,-5.7223074E-2,1.041651E1,1.0706675E1,2.7874315E-2,-2.3765564E-4,-3.4961605E-3,-4.237652E-4,-1.9779548E-3,-8.28424E-3,-4.232339E-3,-6.1662996E-4,1.1067073E-3,2.255249E-3,6.4876005E-3,-2.3631514E-3,1.8023227E-3,9.310012E-3,1.41851725E-2,5.358077E-3,1.1589333E-2,1.9591965E-2,3.5269286E-2,1.0894505E-2,2.763767E-2,2.2603845E-2,1.1539475E-2],"split_indices":[12,8,3,15,8,12,6,0,0,0,0,9,12,0,15,15,8,3,12,0,0,3,8,6,7,6,3,12,15,10,10,7,0,10,0,0,0,0,0,0,0,0,0,0,0,0,0,0,0,0,0,0,0,0,0,0,0],"split_type":[0,0,0,0,0,0,0,0,0,0,0,0,0,0,0,0,0,0,0,0,0,0,0,0,0,0,0,0,0,0,0,0,0,0,0,0,0,0,0,0,0,0,0,0,0,0,0,0,0,0,0,0,0,0,0,0,0],"sum_hessian":[5.91E2,1.38E2,4.53E2,1.02E2,3.6E1,3.12E2,1.41E2,3.2E1,7E1,2.9E1,7E0,1.08E2,2.04E2,1.3E1,1.28E2,2.9E1,7.9E1,9.3E1,1.11E2,7E0,6E0,1.05E2,2.3E1,1.5E1,1.4E1,7.5E1,4E0,6.9E1,2.4E1,3.8E1,7.3E1,5.8E1,4.7E1,1.3E1,1E1,1E0,1.4E1,8E0,6E0,6.4E1,1.1E1,2E0,2E0,1.8E1,5.1E1,7E0,1.7E1,1E1,2.8E1,4E1,3.3E1,6E0,5.2E1,2E0,4.5E1,5E0,8E0],"tree_param":{"num_deleted":"0","num_feature":"16","num_nodes":"57","size_leaf_vector":"1"}},{"base_weights":[4.2907936E-3,-6.944236E-1,2.0978533E-1,-8.160114E-1,-4.1058648E-1,6.0793974E-2,5.630335E-1,-3.205238E-2,-8.7707406E-1,-2.320836E-2,-1.433844E-2,-1.0760141E-1,1.4673173E-1,4.8673752E-1,6.4260703E-1,-4.667673E-2,-3.1520043E-2,-4.5895085E-2,-1.3610308E-1,8.2063586E-2,1.9022816E-1,5.1527417E-1,2.3289935E-1,6.925991E-1,2.5720155E-2,-2.522463E-2,-6.1974175E-2,-1.4452717E-1,5.685234E-3,1.06993735E-1,-1.0167122E-2,2.4739519E-1,1.5969713E-1,6.2005186E-1,4.5593712E-1,7.3820525E-3,1.7710114E-2,9.182549E-3,3.503658E-2,-2.4099946E-3,-8.4292545E-4,-3.344375E-3,-1.3413668E-3,-7.86073E-3,-3.610893E-3,1.0698319E-3,-5.9606234E-4,3.5596283E-3,7.438771E-3,1.4172337E-3,-2.8053708E-3,1.2809277E-2,5.1019075E-3,5.3273677E-3,1.1849919E-2,1.7387295E-2,3.331971E-2,2.8469836E-2,1.9200472E-2],"categories":[],"categories_nodes":[],"categories_segments":[],"categories_sizes":[],"default_left":[0,0,0,0,0,0,0,0,0,0,0,0,0,0,0,0,0,0,0,0,0,0,0,0,0,0,0,0,0,0,0,0,0,0,0,0,0,0,0,0,0,0,0,0,0,0,0,0,0,0,0,0,0,0,0,0,0,0,0],"id":13,"left_children":[1,3,5,7,9,11,13,-1,15,-1,-1,17,19,21,23,-1,-1,25,27,29,31,33,35,37,-1,39,41,43,45,47,49,51,53,55,57,-1,-1,-1,-1,-1,-1,-1,-1,-1,-1,-1,-1,-1,-1,-1,-1,-1,-1,-1,-1,-1,-1,-1,-1],"loss_changes":[8.2131E1,4.1514053E0,2.3228642E1,3.992958E-1,1.3889599E-1,4.530904E0,4.8254013E-1,0E0,3.02845E-1,0E0,0E0,1.8017924E-1,5.666461E-1,3.9429283E-1,3.4685135E-2,0E0,0E0,1.0069393E-2,8.682132E-2,1.965304E-1,1.7517138E-1,1.0897827E-1,4.0783912E-2,4.1007996E-2,0E0,2.4550566E-3,1.4866516E-3,5.1030755E-2,1.6381873E-3,8.962911E-2,3.5205968E-2,2.6246786E-2,3.1575775E-1,2.0650387E-2,1.4042568E-1,0E0,0E0,0E0,0E0,0E0,0E0,0E0,0E0,0E0,0E0,0E0,0E0,0E0,0E0,0E0,0E0,0E0,0E0,0E0,0E0,0E0,0E0,0E0,0E0],"parents":[2147483647,0,0,1,1,2,2,3,3,4,4,5,5,6,6,8,8,11,11,12,12,13,13,14,14,17,17,18,18,19,19,20,20,21,21,22,22,23,23,25,25,26,26,27,27,28,28,29,29,30,30,31,31,32,32,33,33,34,34],"right_children":[2,4,6,8,10,12,14,-1,16,-1,-1,18,20,22,24,-1,-1,26,28,30,32,34,36,38,-1,40,42,44,46,48,50,52,54,56,58,-1,-1,-1,-1,-1,-1,-1,-1,-1,-1,-1,-1,-1,-1,-1,-1,-1,-1,-1,-1,-1,-1,-1,-1],"split_conditions":[9.835255E0,8.267605E0,1.019467E1,8.9356275E-3,9.064483E0,9.988652E0,1.0187014E1,-3.205238E-2,8.618199E0,-2.320836E-2,-1.433844E-2,9.108417E0,1.0112011E1,7.84257E-3,1.0399568E1,-4.667673E-2,-3.1520043E-2,8.863236E0,9.453873E0,9.61109E0,1.0193598E1,1.025945E1,3.5521404E1,1.020577E1,2.5720155E-2,4.894121E-3,6.3923492E1,3.8094938E-2,9.42296E0,7.3049935E-3,3.914771E-2,9.75527E0,9.874807E0,-6.32986E-2,1.0202018E1,7.3820525E-3,1.7710114E-2,9.182549E-3,3.503658E-2,-2.4099946E-3,-8.4292545E-4,-3.344375E-3,-1.3413668E-3,-7.86073E-3,-3.610893E-3,1.0698319E-3,-5.9606234E-4,3.5596283E-3,7.438771E-3,1.4172337E-3,-2.8053708E-3,1.2809277E-2,5.1019075E-3,5.3273677E-3,1.1849919E-2,1.7387295E-2,3.331971E-2,2.8469836E-2,1.9200472E-2],"split_indices":[12,11,1,15,9,12,11,0,10,0,0,9,12,15,11,0,0,11,8,0,12,0,5,2,0,15,5,7,1,15,7,0,10,7,9,0,0,0,0,0,0,0,0,0,0,0,0,0,0,0,0,0,0,0,0,0,0,0,0],"split_type":[0,0,0,0,0,0,0,0,0,0,0,0,0,0,0,0,0,0,0,0,0,0,0,0,0,0,0,0,0,0,0,0,0,0,0,0,0,0,0,0,0,0,0,0,0,0,0,0,0,0,0,0,0,0,0,0,0,0,0],"sum_hessian":[5.7E2,1.29E2,4.41E2,8.9E1,4E1,3.11E2,1.3E2,2.6E1,6.3E1,2.6E1,1.4E1,1.05E2,2.06E2,7E1,6E1,4.9E1,1.4E1,3.4E1,7.1E1,8.4E1,1.22E2,6.2E1,8E0,4E1,2E1,1.6E1,1.8E1,6.7E1,4E0,6.6E1,1.8E1,4E1,8.2E1,1.9E1,4.3E1,6E0,2E0,1E0,3.9E1,3E0,1.3E1,1.5E1,3E0,5.6E1,1.1E1,2E0,2E0,3.7E1,2.9E1,1E1,8E0,3.7E1,3E0,5E1,3.2E1,4E0,1.5E1,1.4E1,2.9E1],"tree_param":{"num_deleted":"0","num_feature":"16","num_nodes":"59","size_leaf_vector":"1"}},{"base_weights":[-9.986972E-4,-6.563487E-1,1.9650634E-1,-7.7091366E-1,-3.7357655E-1,4.68516E-2,5.249678E-1,-2.944702E-2,-8.2229143E-1,-2.06611E-2,-1.2331764E-2,-1.01554714E-1,1.3611862E-1,2.9500937E-1,5.5293745E-1,-4.389725E-2,-2.985699E-2,-3.454524E-2,-1.2297006E-1,8.4217094E-2,1.7183127E-1,1.800583E-2,8.8374615E-3,5.796982E-1,4.1370907E-1,-1.9418972E-2,-4.7368493E-2,-1.344808E-1,6.0697794E-3,9.7301036E-2,-1.579218E-2,2.3812068E-1,1.4073291E-1,6.677433E-1,5.2555835E-1,2.8293562E-1,2.3878401E-2,-4.959213E-4,-1.4429911E-3,-2.4423907E-3,-6.6645147E-4,-5.0577926E-3,-8.001416E-3,-8.0687656E-5,1.4963627E-3,6.486013E-3,3.9338153E-3,-3.7172677E-3,9.961402E-4,4.6387515E-3,1.2215278E-2,1.07556535E-2,4.2156912E-3,3.4419395E-2,1.12476675E-2,6.5858127E-3,2.6479552E-2,7.877088E-3,1.8841056E-2],"categories":[],"categories_nodes":[],"categories_segments":[],"categories_sizes":[],"default_left":[0,0,0,0,0,0,0,0,0,0,0,0,0,0,0,0,0,0,0,0,0,0,0,0,0,0,0,0,0,0,0,0,0,0,0,0,0,0,0,0,0,0,0,0,0,0,0,0,0,0,0,0,0,0,0,0,0,0,0],"id":14,"left_children":[1,3,5,7,9,11,13,-1,15,-1,-1,17,19,21,23,-1,-1,25,27,29,31,-1,-1,33,35,37,39,41,43,45,47,49,51,53,55,57,-1,-1,-1,-1,-1,-1,-1,-1,-1,-1,-1,-1,-1,-1,-1,-1,-1,-1,-1,-1,-1,-1,-1],"loss_changes":[7.377745E1,3.9882507E0,2.1505651E1,3.8521194E-1,9.939098E-2,4.014656E0,7.1803665E-1,0E0,3.5287476E-1,0E0,0E0,1.5934551E-1,3.3584785E-1,6.724262E-2,2.1100616E-1,0E0,0E0,4.7052205E-3,1.285559E-1,1.049093E-1,1.953144E-1,0E0,0E0,1.20967865E-1,5.695343E-2,1.0591545E-3,1.0423362E-4,5.1070213E-2,1.5147727E-3,3.2060027E-2,2.239342E-2,7.89845E-3,3.0918694E-1,1.5594578E-1,3.507042E-2,5.836159E-2,0E0,0E0,0E0,0E0,0E0,0E0,0E0,0E0,0E0,0E0,0E0,0E0,0E0,0E0,0E0,0E0,0E0,0E0,0E0,0E0,0E0,0E0,0E0],"parents":[2147483647,0,0,1,1,2,2,3,3,4,4,5,5,6,6,8,8,11,11,12,12,13,13,14,14,17,17,18,18,19,19,20,20,23,23,24,24,25,25,26,26,27,27,28,28,29,29,30,30,31,31,32,32,33,33,34,34,35,35],"right_children":[2,4,6,8,10,12,14,-1,16,-1,-1,18,20,22,24,-1,-1,26,28,30,32,-1,-1,34,36,38,40,42,44,46,48,50,52,54,56,58,-1,-1,-1,-1,-1,-1,-1,-1,-1,-1,-1,-1,-1,-1,-1,-1,-1,-1,-1,-1,-1,-1,-1],"split_conditions":[9.835255E0,8.808531E0,1.005924E1,8.9356275E-3,9.813234E0,9.995312E0,-6.9369145E-2,-2.944702E-2,8.487517E0,-2.06611E-2,-1.2331764E-2,9.08727E0,1.0114743E1,7.142786E-3,7.7647464E-3,-4.389725E-2,-2.985699E-2,8.863236E0,9.482255E0,9.516057E0,1.0193598E1,1.800583E-2,8.8374615E-3,4.423043E1,3.5521404E1,9.057971E0,6.4640015E1,9.15493E0,9.51111E0,3.8933933E1,2.9355234E3,-7.218163E-3,3.880597E1,1.0775153E1,-8.460327E-3,1.037775E1,2.3878401E-2,-4.959213E-4,-1.4429911E-3,-2.4423907E-3,-6.6645147E-4,-5.0577926E-3,-8.001416E-3,-8.0687656E-5,1.4963627E-3,6.486013E-3,3.9338153E-3,-3.7172677E-3,9.961402E-4,4.6387515E-3,1.2215278E-2,1.07556535E-2,4.2156912E-3,3.4419395E-2,1.12476675E-2,6.5858127E-3,2.6479552E-2,7.877088E-3,1.8841056E-2],"split_indices":[12,9,0,15,12,12,6,0,9,0,0,9,12,15,15,0,0,11,9,11,12,0,0,5,5,9,5,9,2,5,4,13,5,10,13,0,0,0,0,0,0,0,0,0,0,0,0,0,0,0,0,0,0,0,0,0,0,0,0],"split_type":[0,0,0,0,0,0,0,0,0,0,0,0,0,0,0,0,0,0,0,0,0,0,0,0,0,0,0,0,0,0,0,0,0,0,0,0,0,0,0,0,0,0,0,0,0,0,0,0,0,0,0,0,0,0,0,0,0,0,0],"sum_hessian":[5.68E2,1.31E2,4.37E2,9.2E1,3.9E1,3.01E2,1.36E2,2.3E1,6.9E1,2.8E1,1.1E1,1.13E2,1.88E2,1.6E1,1.2E2,5.3E1,1.6E1,2.8E1,8.5E1,7.8E1,1.1E2,9E0,7E0,9.8E1,2.2E1,1.4E1,1.4E1,7.8E1,7E0,6.9E1,9E0,3.3E1,7.7E1,3.3E1,6.5E1,9E0,1.3E1,8E0,6E0,1.3E1,1E0,3.6E1,4.2E1,6E0,1E0,2.3E1,4.6E1,3E0,6E0,2E0,3.1E1,3.2E1,4.5E1,3.1E1,2E0,1E0,6.4E1,5E0,4E0],"tree_param":{"num_deleted":"0","num_feature":"16","num_nodes":"59","size_leaf_vector":"1"}},{"base_weights":[5.9036748E-3,-6.416843E-1,1.8561773E-1,-7.5368834E-1,-3.7250376E-1,5.131859E-2,5.0594914E-1,-7.9889745E-1,-2.8570352E-2,-2.0748451E-2,-1.2782629E-2,-9.935851E-2,1.2925804E-1,4.3927088E-1,5.720148E-1,-3.281354E-2,-4.5731172E-2,-4.1883152E-2,-1.29111E-1,7.718854E-2,1.7334244E-1,4.6986517E-1,1.7630301E-1,6.245304E-1,2.2168512E-2,-2.7282033E-2,-7.2462164E-2,-1.3988994E-1,-3.8115185E-2,9.617735E-2,2.2989592E-2,2.5835478E-1,1.513681E-1,3.271021E-2,4.270271E-1,1.9693375E-3,9.424711E-3,1.2145058E-2,3.18611E-2,-1.1222363E-4,-1.6313698E-3,-2.6685344E-3,-4.865122E-3,-7.5977766E-3,-2.46359E-3,-2.800878E-3,-8.664131E-5,1.9951034E-3,5.7619493E-3,2.1593974E-3,-1.1102889E-3,1.3258181E-2,2.884245E-3,6.305929E-3,1.0935277E-2,3.0573846E-3,2.1638839E-2],"categories":[],"categories_nodes":[],"categories_segments":[],"categories_sizes":[],"default_left":[0,0,0,0,0,0,0,0,0,0,0,0,0,0,0,0,0,0,0,0,0,0,0,0,0,0,0,0,0,0,0,0,0,0,0,0,0,0,0,0,0,0,0,0,0,0,0,0,0,0,0,0,0,0,0,0,0],"id":15,"left_children":[1,3,5,7,9,11,13,15,-1,-1,-1,17,19,21,23,-1,-1,25,27,29,31,33,35,37,-1,39,41,43,45,47,49,51,53,-1,55,-1,-1,-1,-1,-1,-1,-1,-1,-1,-1,-1,-1,-1,-1,-1,-1,-1,-1,-1,-1,-1,-1],"loss_changes":[6.750352E1,3.5180588E0,1.9505222E1,2.6869202E-1,8.743477E-2,3.7825673E0,3.3901978E-1,5.221405E-1,0E0,0E0,0E0,1.8269622E-1,4.7325587E-1,4.8837852E-1,1.5547562E-1,0E0,0E0,1.5436105E-2,6.5288424E-2,9.9677086E-2,1.7385578E-1,2.1813107E-1,7.5983703E-3,5.3489685E-2,0E0,3.674144E-3,4.9775094E-4,6.248796E-2,5.764907E-3,7.370871E-2,2.5606565E-2,1.4763117E-2,1.3053918E-1,0E0,8.7135315E-2,0E0,0E0,0E0,0E0,0E0,0E0,0E0,0E0,0E0,0E0,0E0,0E0,0E0,0E0,0E0,0E0,0E0,0E0,0E0,0E0,0E0,0E0],"parents":[2147483647,0,0,1,1,2,2,3,3,4,4,5,5,6,6,7,7,11,11,12,12,13,13,14,14,17,17,18,18,19,19,20,20,21,21,22,22,23,23,25,25,26,26,27,27,28,28,29,29,30,30,31,31,32,32,34,34],"right_children":[2,4,6,8,10,12,14,16,-1,-1,-1,18,20,22,24,-1,-1,26,28,30,32,34,36,38,-1,40,42,44,46,48,50,52,54,-1,56,-1,-1,-1,-1,-1,-1,-1,-1,-1,-1,-1,-1,-1,-1,-1,-1,-1,-1,-1,-1,-1,-1],"split_conditions":[9.835255E0,8.7289505E0,1.019467E1,8.308299E0,9.064483E0,9.988652E0,1.0187014E1,7.760643E0,-2.8570352E-2,-2.0748451E-2,-1.2782629E-2,9.112267E0,1.0114743E1,1.0145057E1,1.0410894E1,-3.281354E-2,-4.5731172E-2,8.875526E0,9.439287E0,9.63994E0,1.0156655E1,1.024807E1,1.031983E1,-6.9369145E-2,2.2168512E-2,8.96558E0,9.181E0,3.530715E-2,-2.513703E-2,1.0004907E1,3.8094938E-2,9.618832E0,9.796584E0,3.271021E-2,1.00231E1,1.9693375E-3,9.424711E-3,1.2145058E-2,3.18611E-2,-1.1222363E-4,-1.6313698E-3,-2.6685344E-3,-4.865122E-3,-7.5977766E-3,-2.46359E-3,-2.800878E-3,-8.664131E-5,1.9951034E-3,5.7619493E-3,2.1593974E-3,-1.1102889E-3,1.3258181E-2,2.884245E-3,6.305929E-3,1.0935277E-2,3.0573846E-3,2.1638839E-2],"split_indices":[12,9,1,8,9,12,11,9,0,0,0,9,12,11,11,0,0,11,8,1,12,1,1,6,0,3,1,6,6,12,7,9,8,0,2,0,0,0,0,0,0,0,0,0,0,0,0,0,0,0,0,0,0,0,0,0,0],"split_type":[0,0,0,0,0,0,0,0,0,0,0,0,0,0,0,0,0,0,0,0,0,0,0,0,0,0,0,0,0,0,0,0,0,0,0,0,0,0,0,0,0,0,0,0,0,0,0,0,0,0,0,0,0,0,0,0,0],"sum_hessian":[5.78E2,1.25E2,4.53E2,8.7E1,3.8E1,3.2E2,1.33E2,6.7E1,2E1,2.6E1,1.2E1,1.09E2,2.11E2,7E1,6.3E1,3.3E1,3.4E1,3.8E1,7.1E1,9.8E1,1.13E2,6.2E1,8E0,4.2E1,2.1E1,2.7E1,1.1E1,6.3E1,8E0,7.2E1,2.6E1,2.1E1,9.2E1,9E0,5.3E1,1E0,7E0,2E0,4E1,5E0,2.2E1,8E0,3E0,5.5E1,8E0,5E0,3E0,1.9E1,5.3E1,1.8E1,8E0,2E1,1E0,6.9E1,2.3E1,1E0,5.2E1],"tree_param":{"num_deleted":"0","num_feature":"16","num_nodes":"57","size_leaf_vector":"1"}},{"base_weights":[-1.3003042E-2,-6.08705E-1,1.758745E-1,-7.0452315E-1,-3.332855E-1,4.5645304E-2,4.7177264E-1,-7.4811256E-1,-2.7191525E-2,-1.8142154E-2,-1.0050641E-2,-9.573012E-2,1.2265638E-1,3.9934847E-1,5.533861E-1,-3.0330477E-2,-4.3015E-2,-3.645605E-2,-1.1974398E-1,7.189941E-2,1.6240825E-1,2.2268255E-1,4.3391472E-1,6.039673E-1,2.1227716E-2,-2.0266104E-2,-5.8559343E-2,-1.094466E-1,-1.7573233E-1,9.228296E-2,7.480578E-3,7.080454E-2,1.7756972E-1,1.3905165E-1,1.5550757E-2,4.6903625E-1,2.5434223E-1,1.17402235E-2,3.0860895E-2,-1.8214295E-3,-5.3686416E-4,-3.4773138E-3,-1.35355E-3,-5.598803E-3,-9.501298E-4,-1.0180021E-2,-2.1420002E-3,3.6517985E-3,6.644962E-3,-1.2210329E-3,2.0800938E-3,4.369061E-3,6.772137E-4,5.7292613E-3,1.0625802E-2,7.3416294E-3,1.920104E-3,2.4979884E-2,1.24979615E-2,4.577208E-3,1.3887373E-2],"categories":[],"categories_nodes":[],"categories_segments":[],"categories_sizes":[],"default_left":[0,0,0,0,0,0,0,0,0,0,0,0,0,0,0,0,0,0,0,0,0,0,0,0,0,0,0,0,0,0,0,0,0,0,0,0,0,0,0,0,0,0,0,0,0,0,0,0,0,0,0,0,0,0,0,0,0,0,0,0,0],"id":16,"left_children":[1,3,5,7,9,11,13,15,-1,-1,-1,17,19,21,23,-1,-1,25,27,29,31,33,35,37,-1,39,41,43,45,47,49,51,53,55,-1,57,59,-1,-1,-1,-1,-1,-1,-1,-1,-1,-1,-1,-1,-1,-1,-1,-1,-1,-1,-1,-1,-1,-1,-1,-1],"loss_changes":[6.356536E1,3.3542595E0,1.6509802E1,2.936058E-1,7.172108E-2,3.2670965E0,5.53318E-1,6.846237E-1,0E0,0E0,0E0,1.4651501E-1,3.7975383E-1,3.4916306E-1,1.2805367E-1,0E0,0E0,1.0264467E-2,2.4006724E-2,1.1354801E-1,1.3742232E-1,6.017548E-2,2.5911617E-1,5.0740242E-2,0E0,2.689044E-3,2.6147962E-3,1.2971282E-2,2.8312296E-2,4.1888475E-2,2.4963198E-2,1.495263E-2,1.7814803E-1,1.4096648E-3,0E0,2.0318985E-1,2.0297706E-2,0E0,0E0,0E0,0E0,0E0,0E0,0E0,0E0,0E0,0E0,0E0,0E0,0E0,0E0,0E0,0E0,0E0,0E0,0E0,0E0,0E0,0E0,0E0,0E0],"parents":[2147483647,0,0,1,1,2,2,3,3,4,4,5,5,6,6,7,7,11,11,12,12,13,13,14,14,17,17,18,18,19,19,20,20,21,21,22,22,23,23,25,25,26,26,27,27,28,28,29,29,30,30,31,31,32,32,33,33,35,35,36,36],"right_children":[2,4,6,8,10,12,14,16,-1,-1,-1,18,20,22,24,-1,-1,26,28,30,32,34,36,38,-1,40,42,44,46,48,50,52,54,56,-1,58,60,-1,-1,-1,-1,-1,-1,-1,-1,-1,-1,-1,-1,-1,-1,-1,-1,-1,-1,-1,-1,-1,-1,-1,-1],"split_conditions":[9.835255E0,9.064234E0,1.006715E1,8.308299E0,9.035064E0,9.988652E0,1.0187014E1,7.760643E0,-2.7191525E-2,-1.8142154E-2,-1.0050641E-2,9.0990305E0,1.0114743E1,3.413753E1,1.0410894E1,-3.0330477E-2,-4.3015E-2,8.875526E0,9.37666E0,9.57848E0,3.985243E-3,1.0397045E1,1.0752933E1,-4.224084E-2,2.1227716E-2,5.782445E-3,6.1612556E1,9.34065E0,9.41772E0,9.510219E0,1.0110703E1,5.679173E1,9.392843E0,3.3089943E1,1.5550757E-2,1.0574E1,1.035226E1,1.17402235E-2,3.0860895E-2,-1.8214295E-3,-5.3686416E-4,-3.4773138E-3,-1.35355E-3,-5.598803E-3,-9.501298E-4,-1.0180021E-2,-2.1420002E-3,3.6517985E-3,6.644962E-3,-1.2210329E-3,2.0800938E-3,4.369061E-3,6.772137E-4,5.7292613E-3,1.0625802E-2,7.3416294E-3,1.920104E-3,2.4979884E-2,1.24979615E-2,4.577208E-3,1.3887373E-2],"split_indices":[12,10,3,8,8,12,11,9,0,0,0,9,12,5,11,0,0,11,3,2,15,9,10,7,0,15,5,2,3,9,12,5,11,5,0,3,0,0,0,0,0,0,0,0,0,0,0,0,0,0,0,0,0,0,0,0,0,0,0,0,0],"split_type":[0,0,0,0,0,0,0,0,0,0,0,0,0,0,0,0,0,0,0,0,0,0,0,0,0,0,0,0,0,0,0,0,0,0,0,0,0,0,0,0,0,0,0,0,0,0,0,0,0,0,0,0,0,0,0,0,0,0,0,0,0],"sum_hessian":[5.63E2,1.35E2,4.28E2,9.9E1,3.6E1,2.98E2,1.3E2,7.5E1,2.4E1,2.8E1,8E0,1.05E2,1.93E2,7.2E1,5.8E1,3.6E1,3.9E1,3.1E1,7.4E1,8.6E1,1.07E2,1.3E1,5.9E1,3.9E1,1.9E1,1.9E1,1.2E1,6.5E1,9E0,6.5E1,2.1E1,1.6E1,9.1E1,8E0,5E0,4.8E1,1.1E1,2E0,3.7E1,6E0,1.3E1,8E0,4E0,6.3E1,2E0,7E0,2E0,4.6E1,1.9E1,1.1E1,1E1,1.2E1,4E0,3.4E1,5.7E1,7E0,1E0,4.1E1,7E0,2E0,9E0],"tree_param":{"num_deleted":"0","num_feature":"16","num_nodes":"61","size_leaf_vector":"1"}},{"base_weights":[-1.283841E-2,-5.911951E-1,1.6082813E-1,-6.702753E-1,-3.5949922E-1,3.5305634E-2,4.531339E-1,-3.945199E-2,-3.031378E-2,-1.8448344E-2,-6.6182935E-3,-9.237638E-2,1.17105104E-1,2.6978044E-2,4.215771E-1,-3.439571E-2,-1.1438715E-1,6.5540045E-2,1.5401116E-1,4.3328807E-1,1.0037212E-2,-2.3682911E-3,-3.965467E-2,-1.33221E-1,-1.3847669E-2,7.568647E-2,-5.2534513E-2,2.0415959E-1,1.3082E-1,2.7153015E-3,4.367057E-1,8.0773834E-4,-4.651928E-4,-2.6710809E-3,-1.116314E-3,-5.7381648E-3,-1.0206403E-2,-2.5891224E-3,5.1489833E-4,4.386298E-3,5.759606E-4,2.2761822E-4,-3.140386E-3,1.0367823E-2,2.546501E-3,4.4264346E-3,9.776758E-3,3.8622858E-3,2.1985399E-2],"categories":[],"categories_nodes":[],"categories_segments":[],"categories_sizes":[],"default_left":[0,0,0,0,0,0,0,0,0,0,0,0,0,0,0,0,0,0,0,0,0,0,0,0,0,0,0,0,0,0,0,0,0,0,0,0,0,0,0,0,0,0,0,0,0,0,0,0,0],"id":17,"left_children":[1,3,5,7,9,11,13,-1,-1,-1,-1,15,17,-1,19,21,23,25,27,29,-1,31,33,35,37,39,41,43,45,-1,47,-1,-1,-1,-1,-1,-1,-1,-1,-1,-1,-1,-1,-1,-1,-1,-1,-1,-1],"loss_changes":[5.7848778E1,2.1959343E0,1.6238094E1,2.6651382E-1,2.857685E-2,3.2590017E0,1.3527489E-1,0E0,0E0,0E0,0E0,1.5176177E-1,3.5148787E-1,0E0,1.768074E-1,5.8011673E-3,1.6478717E-1,1.0101694E-1,1.0122204E-1,1.00624084E-1,0E0,9.2110876E-4,5.9640706E-3,7.3423505E-2,1.4272643E-2,5.6930065E-2,4.3911785E-3,5.6043863E-3,1.9616687E-1,0E0,6.855965E-2,0E0,0E0,0E0,0E0,0E0,0E0,0E0,0E0,0E0,0E0,0E0,0E0,0E0,0E0,0E0,0E0,0E0,0E0],"parents":[2147483647,0,0,1,1,2,2,3,3,4,4,5,5,6,6,11,11,12,12,14,14,15,15,16,16,17,17,18,18,19,19,21,21,22,22,23,23,24,24,25,25,26,26,27,27,28,28,30,30],"right_children":[2,4,6,8,10,12,14,-1,-1,-1,-1,16,18,-1,20,22,24,26,28,30,-1,32,34,36,38,40,42,44,46,-1,48,-1,-1,-1,-1,-1,-1,-1,-1,-1,-1,-1,-1,-1,-1,-1,-1,-1,-1],"split_conditions":[9.829626E0,8.7289505E0,1.012745E1,-4.5460943E-2,9.035064E0,9.995312E0,1.0299547E1,-3.945199E-2,-3.031378E-2,-1.8448344E-2,-6.6182935E-3,9.0990305E0,1.0114743E1,2.6978044E-2,3.7506066E-2,-1.1806968E-3,9.439287E0,9.80578E0,1.0193598E1,1.00231E1,1.0037212E-2,4.959186E3,5.617539E1,9.428795E0,-1.1594333E-2,6.677268E1,9.83093E0,9.75527E0,9.8618355E0,2.7153015E-3,1.0440568E1,8.0773834E-4,-4.651928E-4,-2.6710809E-3,-1.116314E-3,-5.7381648E-3,-1.0206403E-2,-2.5891224E-3,5.1489833E-4,4.386298E-3,5.759606E-4,2.2761822E-4,-3.140386E-3,1.0367823E-2,2.546501E-3,4.4264346E-3,9.776758E-3,3.8622858E-3,2.1985399E-2],"split_indices":[12,9,1,14,8,12,9,0,0,0,0,9,12,0,14,14,8,3,12,2,0,4,5,9,7,5,1,0,10,0,12,0,0,0,0,0,0,0,0,0,0,0,0,0,0,0,0,0,0],"split_type":[0,0,0,0,0,0,0,0,0,0,0,0,0,0,0,0,0,0,0,0,0,0,0,0,0,0,0,0,0,0,0,0,0,0,0,0,0,0,0,0,0,0,0,0,0,0,0,0,0],"sum_hessian":[5.74E2,1.32E2,4.42E2,9.7E1,3.5E1,3.1E2,1.32E2,3E1,6.7E1,3.3E1,2E0,1.21E2,1.89E2,3.1E1,1.01E2,3.4E1,8.7E1,8E1,1.09E2,9.5E1,6E0,5E0,2.9E1,7.3E1,1.4E1,7.4E1,6E0,3.2E1,7.7E1,1E0,9.4E1,1E0,4E0,1.5E1,1.4E1,6E1,1.3E1,5E0,9E0,6.2E1,1.2E1,1E0,5E0,3.1E1,1E0,4.8E1,2.9E1,1E0,9.3E1],"tree_param":{"num_deleted":"0","num_feature":"16","num_nodes":"49","size_leaf_vector":"1"}},{"base_weights":[-3.7494735E-3,-5.630295E-1,1.5780133E-1,-4.012844E-1,-6.769301E-1,4.7521867E-2,4.2609477E-1,-2.3222229E-2,-1.398456E-2,-7.2047E-1,-2.4830442E-2,-8.741367E-2,1.1508155E-1,4.3070185E-1,4.1443827E-3,-2.8539864E-2,-3.9129477E-2,-3.3923004E-2,-1.0920299E-1,7.063378E-2,1.4911355E-1,3.8443375E-1,4.8064876E-1,-1.6589165E-3,-3.96252E-2,-1.20823786E-1,-2.8494228E-2,8.882722E-2,1.2352307E-2,2.201329E-1,1.294748E-1,4.1540396E-1,2.2424473E-1,5.0780326E-1,1.7854746E-2,7.8754424E-4,-4.145527E-4,-1.0720969E-3,-2.5064778E-3,-5.3577325E-3,-9.401121E-3,-2.6501247E-3,5.7580945E-4,1.9527458E-3,5.4088263E-3,3.683567E-6,2.9498197E-3,1.1258352E-2,2.4828434E-3,8.988212E-3,4.4273827E-3,1.8293383E-2,2.6438102E-2,5.573142E-3,1.2243522E-2,1.0616032E-2,2.582044E-2],"categories":[],"categories_nodes":[],"categories_segments":[],"categories_sizes":[],"default_left":[0,0,0,0,0,0,0,0,0,0,0,0,0,0,0,0,0,0,0,0,0,0,0,0,0,0,0,0,0,0,0,0,0,0,0,0,0,0,0,0,0,0,0,0,0,0,0,0,0,0,0,0,0,0,0,0,0],"id":18,"left_children":[1,3,5,7,9,11,13,-1,-1,15,-1,17,19,21,-1,-1,-1,23,25,27,29,31,33,35,37,39,41,43,45,47,49,51,53,55,-1,-1,-1,-1,-1,-1,-1,-1,-1,-1,-1,-1,-1,-1,-1,-1,-1,-1,-1,-1,-1,-1,-1],"loss_changes":[5.3215908E1,2.1601791E0,1.3501128E1,3.0785084E-1,2.3889542E-1,2.9728253E0,1.7459679E-1,0E0,0E0,1.0186005E-1,0E0,1.23337746E-1,3.1771183E-1,1.1795807E-1,0E0,0E0,0E0,6.005477E-3,6.8775594E-2,1.0069552E-1,1.4165545E-1,2.6900673E-1,1.6613007E-2,8.233766E-4,4.273221E-3,4.1395128E-2,1.1396832E-2,6.6078484E-2,1.374107E-2,1.0273814E-2,1.8578637E-1,1.4346313E-1,5.272925E-3,7.3251724E-3,0E0,0E0,0E0,0E0,0E0,0E0,0E0,0E0,0E0,0E0,0E0,0E0,0E0,0E0,0E0,0E0,0E0,0E0,0E0,0E0,0E0,0E0,0E0],"parents":[2147483647,0,0,1,1,2,2,3,3,4,4,5,5,6,6,9,9,11,11,12,12,13,13,17,17,18,18,19,19,20,20,21,21,22,22,23,23,24,24,25,25,26,26,27,27,28,28,29,29,30,30,31,31,32,32,33,33],"right_children":[2,4,6,8,10,12,14,-1,-1,16,-1,18,20,22,-1,-1,-1,24,26,28,30,32,34,36,38,40,42,44,46,48,50,52,54,56,-1,-1,-1,-1,-1,-1,-1,-1,-1,-1,-1,-1,-1,-1,-1,-1,-1,-1,-1,-1,-1,-1,-1],"split_conditions":[9.835255E0,8.7977415E-3,1.019467E1,9.109198E0,8.618199E0,9.988652E0,8.214126E-3,-2.3222229E-2,-1.398456E-2,7.760643E0,-2.4830442E-2,9.0990305E0,1.0114743E1,1.0187014E1,4.1443827E-3,-2.8539864E-2,-3.9129477E-2,8.8109665E0,9.434061E0,9.63994E0,1.0156655E1,1.0775153E1,1.0428849E1,5.637531E1,9.048369E0,9.428795E0,9.469617E0,5.2338825E-3,1.0112011E1,9.618832E0,4.1121777E1,1.0720449E1,1.0414931E1,1.02355E1,1.7854746E-2,7.8754424E-4,-4.145527E-4,-1.0720969E-3,-2.5064778E-3,-5.3577325E-3,-9.401121E-3,-2.6501247E-3,5.7580945E-4,1.9527458E-3,5.4088263E-3,3.683567E-6,2.9498197E-3,1.1258352E-2,2.4828434E-3,8.988212E-3,4.4273827E-3,1.8293383E-2,2.6438102E-2,5.573142E-3,1.2243522E-2,1.0616032E-2,2.582044E-2],"split_indices":[12,15,1,10,10,12,15,0,0,9,0,9,12,11,0,0,0,11,8,1,12,10,11,5,9,9,8,15,12,9,5,10,8,2,0,0,0,0,0,0,0,0,0,0,0,0,0,0,0,0,0,0,0,0,0,0,0],"split_type":[0,0,0,0,0,0,0,0,0,0,0,0,0,0,0,0,0,0,0,0,0,0,0,0,0,0,0,0,0,0,0,0,0,0,0,0,0,0,0,0,0,0,0,0,0,0,0,0,0,0,0,0,0,0,0,0,0],"sum_hessian":[5.87E2,1.31E2,4.56E2,5.6E1,7.5E1,3.24E2,1.32E2,3.5E1,2.1E1,5.8E1,1.7E1,1.08E2,2.16E2,1.3E2,2E0,2E1,3.8E1,3.2E1,7.6E1,9.5E1,1.21E2,7.2E1,5.8E1,5E0,2.7E1,6.6E1,1E1,7.2E1,2.3E1,2.4E1,9.7E1,5.9E1,1.3E1,4.5E1,1.3E1,1E0,4E0,1.1E1,1.6E1,5.7E1,9E0,6E0,4E0,2.1E1,5.1E1,1.9E1,4E0,2.3E1,1E0,4.2E1,5.5E1,4.4E1,1.5E1,3E0,1E1,2E0,4.3E1],"tree_param":{"num_deleted":"0","num_feature":"16","num_nodes":"57","size_leaf_vector":"1"}},{"base_weights":[8.853003E-3,-5.6941146E-1,1.3389766E-1,-3.9683527E-1,-6.436956E-1,2.3375968E-2,4.1421124E-1,-2.1371456E-2,-1.1106982E-2,-6.914106E-1,-2.4086986E-2,-1.1576707E-1,1.0121361E-1,3.601804E-1,2.3846857E-2,-2.7124038E-2,-3.887894E-2,-1.5762313E-1,-7.339399E-2,3.6847405E-2,1.246085E-1,3.714819E-1,6.67088E-2,-1.48466E-2,-1.2028988E-1,-2.2973219E-2,-1.0254026E-1,-1.0151651E-2,4.441886E-2,1.348273E-1,-1.0955811E-2,3.94981E-1,1.1053558E-2,6.6154E-4,4.006227E-3,-3.4866363E-3,-7.134467E-3,-3.7574768E-4,-1.7737609E-3,-6.10896E-3,-2.4085522E-3,2.193451E-4,-2.034553E-3,8.4517116E-4,3.081274E-3,1.9272255E-3,7.1550133E-3,-2.9667378E-3,5.8816274E-4,1.716546E-2,2.542626E-2],"categories":[],"categories_nodes":[],"categories_segments":[],"categories_sizes":[],"default_left":[0,0,0,0,0,0,0,0,0,0,0,0,0,0,0,0,0,0,0,0,0,0,0,0,0,0,0,0,0,0,0,0,0,0,0,0,0,0,0,0,0,0,0,0,0,0,0,0,0,0,0],"id":19,"left_children":[1,3,5,7,9,11,13,-1,-1,15,-1,17,19,21,-1,-1,-1,23,25,27,29,31,33,-1,35,37,39,41,43,45,47,49,-1,-1,-1,-1,-1,-1,-1,-1,-1,-1,-1,-1,-1,-1,-1,-1,-1,-1,-1],"loss_changes":[4.1075386E1,1.039341E0,1.4458322E1,8.142328E-2,2.0013237E-1,3.6507874E0,2.7558327E-1,0E0,0E0,2.326622E-1,0E0,2.0303345E-1,3.2067037E-1,2.239685E-1,0E0,0E0,0E0,2.763332E-1,8.875814E-2,2.1446146E-2,2.2035503E-1,1.6716576E-1,1.8096734E-3,0E0,4.5540035E-2,4.3716254E-3,3.5756856E-2,4.174497E-3,2.3104154E-2,1.1157608E-1,1.3887462E-2,1.8330765E-1,0E0,0E0,0E0,0E0,0E0,0E0,0E0,0E0,0E0,0E0,0E0,0E0,0E0,0E0,0E0,0E0,0E0,0E0,0E0],"parents":[2147483647,0,0,1,1,2,2,3,3,4,4,5,5,6,6,9,9,11,11,12,12,13,13,17,17,18,18,19,19,20,20,21,21,22,22,24,24,25,25,26,26,27,27,28,28,29,29,30,30,31,31],"right_children":[2,4,6,8,10,12,14,-1,-1,16,-1,18,20,22,-1,-1,-1,24,26,28,30,32,34,-1,36,38,40,42,44,46,48,50,-1,-1,-1,-1,-1,-1,-1,-1,-1,-1,-1,-1,-1,-1,-1,-1,-1,-1,-1],"split_conditions":[8.9567E0,8.780519E-3,1.012745E1,8.70973E0,8.174338E0,9.4683485E0,1.0187014E1,-2.1371456E-2,-1.1106982E-2,7.8075686E0,-2.4086986E-2,-2.4071028E-2,9.510219E0,7.964694E-3,2.3846857E-2,-2.7124038E-2,-3.887894E-2,9.070865E0,9.08727E0,9.046793E0,3.513715E-2,1.0775153E1,5.2245073E3,-1.48466E-2,9.198162E0,8.863236E0,5.3893898E1,9.55233E0,9.37694E0,3.7448024E-3,5.298568E-3,1.0720449E1,1.1053558E-2,6.6154E-4,4.006227E-3,-3.4866363E-3,-7.134467E-3,-3.7574768E-4,-1.7737609E-3,-6.10896E-3,-2.4085522E-3,2.193451E-4,-2.034553E-3,8.4517116E-4,3.081274E-3,1.9272255E-3,7.1550133E-3,-2.9667378E-3,5.8816274E-4,1.716546E-2,2.542626E-2],"split_indices":[8,15,1,1,8,9,11,0,0,9,0,7,9,15,0,0,0,9,9,11,7,10,4,0,10,11,5,2,2,15,15,10,0,0,0,0,0,0,0,0,0,0,0,0,0,0,0,0,0,0,0],"split_type":[0,0,0,0,0,0,0,0,0,0,0,0,0,0,0,0,0,0,0,0,0,0,0,0,0,0,0,0,0,0,0,0,0,0,0,0,0,0,0,0,0,0,0,0,0,0,0,0,0,0,0],"sum_hessian":[5.66E2,1E2,4.66E2,3.2E1,6.8E1,3.35E2,1.31E2,2.6E1,6E0,5E1,1.8E1,1.2E2,2.15E2,7.4E1,5.7E1,2.1E1,2.9E1,5.9E1,6.1E1,5.8E1,1.57E2,7.1E1,3E0,1.1E1,4.8E1,2.3E1,3.8E1,8E0,5E1,1.46E2,1.1E1,6E1,1.1E1,1E0,2E0,1.6E1,3.2E1,1.1E1,1.2E1,2.7E1,1.1E1,6E0,2E0,2E1,3E1,1.2E1,1.34E2,3E0,8E0,4.4E1,1.6E1],"tree_param":{"num_deleted":"0","num_feature":"16","num_nodes":"51","size_leaf_vector":"1"}},{"base_weights":[-1.1827616E-3,-4.9718565E-1,1.4663528E-1,-5.762067E-1,-2.7231345E-1,4.1255545E-2,3.9455748E-1,-6.283534E-1,-2.3798097E-2,-1.4389242E-2,-8.244767E-3,-7.434563E-2,1.0161208E-1,3.3990458E-1,4.5342454E-1,-3.48718E-2,-2.3552349E-2,-1.00140914E-1,-4.3648187E-2,6.3620396E-2,1.3126685E-1,3.5740334E-1,1.2135887E-1,4.967952E-1,1.6456138E-2,-1.142403E-1,-4.1463044E-2,-7.665836E-2,-1.2615954E-2,1.09212905E-1,4.2623375E-2,9.484819E-3,1.07038125E-1,3.843095E-1,1.2703918E-2,3.6833526E-3,1.0187745E-2,9.467268E-3,2.5346374E-2,-4.6418165E-3,-8.4466105E-3,8.959771E-5,-2.260848E-3,-2.5934696E-3,-5.432744E-3,-9.750258E-4,5.411761E-4,1.937598E-3,6.4935423E-3,2.5922752E-3,-1.5358865E-3,7.746678E-3,2.7156717E-3,1.1641108E-2,2.0741729E-2],"categories":[],"categories_nodes":[],"categories_segments":[],"categories_sizes":[],"default_left":[0,0,0,0,0,0,0,0,0,0,0,0,0,0,0,0,0,0,0,0,0,0,0,0,0,0,0,0,0,0,0,0,0,0,0,0,0,0,0,0,0,0,0,0,0,0,0,0,0,0,0,0,0,0,0],"id":20,"left_children":[1,3,5,7,9,11,13,15,-1,-1,-1,17,19,21,23,-1,-1,25,27,29,31,33,35,37,-1,39,41,43,45,47,49,-1,51,53,-1,-1,-1,-1,-1,-1,-1,-1,-1,-1,-1,-1,-1,-1,-1,-1,-1,-1,-1,-1,-1],"loss_changes":[4.311067E1,2.2419968E0,1.1818789E1,2.1844101E-1,1.4036179E-2,2.233309E0,2.802105E-1,3.4523964E-1,0E0,0E0,0E0,8.273244E-2,2.2824192E-1,2.3962212E-1,1.7073917E-1,0E0,0E0,4.407525E-2,5.2300632E-2,8.53318E-2,1.4532876E-1,9.14011E-2,1.2497298E-2,4.1083336E-2,0E0,3.9336264E-2,2.1919068E-3,1.4193162E-2,4.72944E-3,3.7178993E-2,4.6232402E-2,0E0,2.062332E-1,1.4387369E-1,0E0,0E0,0E0,0E0,0E0,0E0,0E0,0E0,0E0,0E0,0E0,0E0,0E0,0E0,0E0,0E0,0E0,0E0,0E0,0E0,0E0],"parents":[2147483647,0,0,1,1,2,2,3,3,4,4,5,5,6,6,7,7,11,11,12,12,13,13,14,14,17,17,18,18,19,19,20,20,21,21,22,22,23,23,25,25,26,26,27,27,28,28,29,29,30,30,32,32,33,33],"right_children":[2,4,6,8,10,12,14,16,-1,-1,-1,18,20,22,24,-1,-1,26,28,30,32,34,36,38,-1,40,42,44,46,48,50,-1,52,54,-1,-1,-1,-1,-1,-1,-1,-1,-1,-1,-1,-1,-1,-1,-1,-1,-1,-1,-1,-1,-1],"split_conditions":[9.835255E0,8.620713E0,1.012745E1,-7.9347E-2,9.035064E0,9.995312E0,1.0187014E1,8.143987E0,-2.3798097E-2,-1.4389242E-2,-8.244767E-3,-1.6042937E-2,1.0114743E1,7.964694E-3,1.0410894E1,-3.48718E-2,-2.3552349E-2,-1.1806968E-3,9.86558E0,3.7248943E1,1.0193598E1,1.0414931E1,3.664404E1,-6.9369145E-2,1.6456138E-2,9.388593E0,-3.938648E-2,9.110665E0,9.38851E0,7.1505704E-3,9.80578E0,9.484819E-3,4.1376877E1,-5.6496475E-2,1.2703918E-2,3.6833526E-3,1.0187745E-2,9.467268E-3,2.5346374E-2,-4.6418165E-3,-8.4466105E-3,8.959771E-5,-2.260848E-3,-2.5934696E-3,-5.432744E-3,-9.750258E-4,5.411761E-4,1.937598E-3,6.4935423E-3,2.5922752E-3,-1.5358865E-3,7.746678E-3,2.7156717E-3,1.1641108E-2,2.0741729E-2],"split_indices":[12,8,1,7,8,12,11,8,0,0,0,7,12,15,11,0,0,14,12,5,12,8,5,6,0,8,7,11,3,15,3,0,5,7,0,0,0,0,0,0,0,0,0,0,0,0,0,0,0,0,0,0,0,0,0],"split_type":[0,0,0,0,0,0,0,0,0,0,0,0,0,0,0,0,0,0,0,0,0,0,0,0,0,0,0,0,0,0,0,0,0,0,0,0,0,0,0,0,0,0,0,0,0,0,0,0,0,0,0,0,0,0,0],"sum_hessian":[5.86E2,1.34E2,4.52E2,9.8E1,3.6E1,3.18E2,1.34E2,6.1E1,3.7E1,3E1,6E0,1.09E2,2.09E2,7.3E1,6.1E1,4E1,2.1E1,5.8E1,5.1E1,9.3E1,1.16E2,6.7E1,6E0,4.3E1,1.8E1,4.6E1,1.2E1,2.4E1,2.7E1,2.8E1,6.5E1,3.2E1,8.4E1,5.1E1,1.6E1,5E0,1E0,2E0,4.1E1,3.5E1,1.1E1,1E0,1.1E1,1.5E1,9E0,2.1E1,6E0,7E0,2.1E1,5.8E1,7E0,4.3E1,4.1E1,1E1,4.1E1],"tree_param":{"num_deleted":"0","num_feature":"16","num_nodes":"55","size_leaf_vector":"1"}},{"base_weights":[-6.287902E-3,-4.781188E-1,1.30874E-1,-5.518414E-1,-2.8438848E-1,3.472051E-2,3.8905677E-1,-6.130392E-1,-2.188435E-2,-1.0940357E-2,-1.7437203E-2,-7.465059E-2,1.0038596E-1,4.0637028E-1,2.4571037E-1,-6.5656006E-1,-2.3216793E-2,-9.8608606E-2,-4.349849E-2,6.0050502E-2,1.2875563E-1,3.5530645E-1,4.5458406E-1,1.5984659E-1,1.6663572E-2,-2.3650734E-2,-3.5170406E-2,-1.1247807E-1,-4.3902457E-2,-7.780511E-2,-1.002903E-2,8.207092E-2,-1.5161832E-2,1.9388397E-1,1.1100851E-1,3.9228207E-1,2.4305455E-1,2.3898588E-2,1.5310994E-2,7.8121185E-2,1.1297389E-2,-4.7399816E-3,-7.723958E-3,8.7356566E-5,-2.353112E-3,-4.213272E-3,-8.9883804E-4,-1.0321821E-3,6.6322804E-4,1.9783168E-3,4.516255E-3,-2.015481E-3,3.529072E-4,1.0147302E-2,2.989006E-3,4.370141E-3,8.869263E-3,2.368106E-2,1.39564E-2,1.4965459E-2,7.1177245E-3,5.5291655E-4,4.466105E-3],"categories":[],"categories_nodes":[],"categories_segments":[],"categories_sizes":[],"default_left":[0,0,0,0,0,0,0,0,0,0,0,0,0,0,0,0,0,0,0,0,0,0,0,0,0,0,0,0,0,0,0,0,0,0,0,0,0,0,0,0,0,0,0,0,0,0,0,0,0,0,0,0,0,0,0,0,0,0,0,0,0,0,0],"id":21,"left_children":[1,3,5,7,9,11,13,15,-1,-1,-1,17,19,21,23,25,-1,27,29,31,33,35,37,39,-1,-1,-1,41,43,45,47,49,51,53,55,57,59,-1,-1,61,-1,-1,-1,-1,-1,-1,-1,-1,-1,-1,-1,-1,-1,-1,-1,-1,-1,-1,-1,-1,-1,-1,-1],"loss_changes":[3.85046E1,1.7568893E0,1.1430896E1,4.0233803E-1,8.8293076E-2,2.427795E0,2.1037865E-1,8.343887E-2,0E0,0E0,0E0,9.049618E-2,2.3371601E-1,1.0930061E-1,6.702095E-2,4.5621872E-2,0E0,4.893279E-2,6.4668454E-2,1.4864674E-1,1.2064576E-1,1.4538765E-1,3.7539482E-2,3.637016E-2,0E0,0E0,0E0,2.6936233E-2,2.3901071E-3,9.307489E-3,7.691402E-3,2.0634204E-2,1.2018958E-2,1.8249273E-2,1.3961601E-1,2.5436115E-1,5.3694367E-2,0E0,0E0,3.5192333E-3,0E0,0E0,0E0,0E0,0E0,0E0,0E0,0E0,0E0,0E0,0E0,0E0,0E0,0E0,0E0,0E0,0E0,0E0,0E0,0E0,0E0,0E0,0E0],"parents":[2147483647,0,0,1,1,2,2,3,3,4,4,5,5,6,6,7,7,11,11,12,12,13,13,14,14,15,15,17,17,18,18,19,19,20,20,21,21,22,22,23,23,27,27,28,28,29,29,30,30,31,31,32,32,33,33,34,34,35,35,36,36,39,39],"right_children":[2,4,6,8,10,12,14,16,-1,-1,-1,18,20,22,24,26,-1,28,30,32,34,36,38,40,-1,-1,-1,42,44,46,48,50,52,54,56,58,60,-1,-1,62,-1,-1,-1,-1,-1,-1,-1,-1,-1,-1,-1,-1,-1,-1,-1,-1,-1,-1,-1,-1,-1,-1,-1],"split_conditions":[9.835255E0,9.7163725E0,1.012745E1,-7.9347E-2,6.581701E-3,9.995312E0,7.84257E-3,9.623345E0,-2.188435E-2,-1.0940357E-2,-1.7437203E-2,-1.6042937E-2,1.0112011E1,1.0184971E1,4.1121777E1,9.409297E0,-2.3216793E-2,-1.1806968E-3,9.867405E0,9.66079E0,1.0156655E1,1.047912E1,1.0442841E1,1.037775E1,1.6663572E-2,-2.3650734E-2,-3.5170406E-2,9.968054E0,-3.938648E-2,9.24959E0,9.38851E0,1.0004907E1,5.5408897E-3,9.75527E0,1.0378816E1,1.0089293E1,6.0175727E-3,2.3898588E-2,1.5310994E-2,1.031983E1,1.1297389E-2,-4.7399816E-3,-7.723958E-3,8.7356566E-5,-2.353112E-3,-4.213272E-3,-8.9883804E-4,-1.0321821E-3,6.6322804E-4,1.9783168E-3,4.516255E-3,-2.015481E-3,3.529072E-4,1.0147302E-2,2.989006E-3,4.370141E-3,8.869263E-3,2.368106E-2,1.39564E-2,1.4965459E-2,7.1177245E-3,5.5291655E-4,4.466105E-3],"split_indices":[12,12,1,7,15,12,15,12,0,0,0,7,12,11,5,12,0,14,12,1,12,3,11,0,0,0,0,12,7,0,3,12,15,0,12,11,15,0,0,1,0,0,0,0,0,0,0,0,0,0,0,0,0,0,0,0,0,0,0,0,0,0,0],"split_type":[0,0,0,0,0,0,0,0,0,0,0,0,0,0,0,0,0,0,0,0,0,0,0,0,0,0,0,0,0,0,0,0,0,0,0,0,0,0,0,0,0,0,0,0,0,0,0,0,0,0,0,0,0,0,0,0,0,0,0,0,0,0,0],"sum_hessian":[5.93E2,1.33E2,4.6E2,9.5E1,3.8E1,3.36E2,1.24E2,5.9E1,3.6E1,2.1E1,1.7E1,1.26E2,2.1E2,1.09E2,1.5E1,4.3E1,1.6E1,7E1,5.6E1,8.8E1,1.22E2,5.7E1,5.2E1,9E0,6E0,1.1E1,3.2E1,5.5E1,1.5E1,2.7E1,2.9E1,6.8E1,2E1,2.4E1,9.8E1,4.1E1,1.6E1,4.3E1,9E0,5E0,4E0,4.1E1,1.4E1,1E0,1.4E1,2.4E1,3E0,2E1,9E0,1.2E1,5.6E1,9E0,1.1E1,2.2E1,2E0,7.4E1,2.4E1,2.2E1,1.9E1,9E0,7E0,1E0,4E0],"tree_param":{"num_deleted":"0","num_feature":"16","num_nodes":"63","size_leaf_vector":"1"}},{"base_weights":[-3.7731188E-3,-4.5687622E-1,1.3196221E-1,-5.33735E-1,-2.579414E-1,2.3066962E-2,3.3485034E-1,-2.0347094E-2,-5.663721E-1,-1.027813E-2,-1.568169E-2,-7.635167E-2,7.7412985E-2,1.9590232E-1,3.626292E-1,-6.0536826E-1,-2.0679278E-2,-2.4371488E-2,-9.449764E-2,8.9957364E-2,1.344797E-2,1.1493101E-2,1.22522615E-1,3.8341743E-1,2.4503969E-1,-2.3992535E-2,-3.2842714E-2,-3.97319E-2,-1.2095227E-2,-1.0236273E-1,-2.4572797E-2,5.8788765E-2,1.2593712E-1,-5.7636943E-2,3.2068986E-2,2.5524457E-3,6.636678E-3,4.8314545E-1,3.437199E-1,1.21357724E-1,1.6066521E-2,-2.2791068E-3,-8.3179475E-4,-1.4399529E-4,-1.1051238E-3,-4.4294563E-3,-8.284075E-3,-1.9817988E-3,2.0825863E-4,2.043736E-3,5.4522213E-3,3.8743753E-3,7.5029763E-3,-5.964041E-4,-3.1633538E-3,2.3086497E-3,-2.7183295E-4,2.5130538E-2,7.6698936E-3,1.4307054E-2,1.970726E-2,4.0646913E-3,9.387112E-3],"categories":[],"categories_nodes":[],"categories_segments":[],"categories_sizes":[],"default_left":[0,0,0,0,0,0,0,0,0,0,0,0,0,0,0,0,0,0,0,0,0,0,0,0,0,0,0,0,0,0,0,0,0,0,0,0,0,0,0,0,0,0,0,0,0,0,0,0,0,0,0,0,0,0,0,0,0,0,0,0,0,0,0],"id":22,"left_children":[1,3,5,7,9,11,13,-1,15,-1,-1,17,19,21,23,25,-1,27,29,31,33,-1,35,37,39,-1,-1,41,43,45,47,49,51,53,55,-1,-1,57,59,61,-1,-1,-1,-1,-1,-1,-1,-1,-1,-1,-1,-1,-1,-1,-1,-1,-1,-1,-1,-1,-1,-1,-1],"loss_changes":[3.5485497E1,1.8958817E0,9.801813E0,1.6264343E-1,4.9295664E-2,1.5727828E0,5.272331E-1,0E0,1.845665E-1,0E0,0E0,9.4849706E-2,1.4964175E-1,4.1611433E-2,2.1894073E-1,4.670334E-2,0E0,4.7993492E-3,3.9281964E-2,1.6866207E-1,4.4205904E-2,0E0,1.2520403E-3,2.5754166E-1,1.6859138E-1,0E0,0E0,8.631032E-4,1.5040874E-3,4.462707E-2,4.0610577E-3,7.296714E-2,7.2520256E-2,1.046773E-3,1.400451E-2,0E0,0E0,1.0262251E-1,1.1949253E-1,1.1333957E-2,0E0,0E0,0E0,0E0,0E0,0E0,0E0,0E0,0E0,0E0,0E0,0E0,0E0,0E0,0E0,0E0,0E0,0E0,0E0,0E0,0E0,0E0,0E0],"parents":[2147483647,0,0,1,1,2,2,3,3,4,4,5,5,6,6,8,8,11,11,12,12,13,13,14,14,15,15,17,17,18,18,19,19,20,20,22,22,23,23,24,24,27,27,28,28,29,29,30,30,31,31,32,32,33,33,34,34,37,37,38,38,39,39],"right_children":[2,4,6,8,10,12,14,-1,16,-1,-1,18,20,22,24,26,-1,28,30,32,34,-1,36,38,40,-1,-1,42,44,46,48,50,52,54,56,-1,-1,58,60,62,-1,-1,-1,-1,-1,-1,-1,-1,-1,-1,-1,-1,-1,-1,-1,-1,-1,-1,-1,-1,-1,-1,-1],"split_conditions":[9.835255E0,8.267605E0,9.88463E0,8.9356275E-3,6.5090563E-3,9.988652E0,-6.9369145E-2,-2.0347094E-2,8.618199E0,-1.027813E-2,-1.568169E-2,9.08727E0,9.566625E0,7.2068786E-3,7.84257E-3,7.6869287E0,-2.0679278E-2,5.8553023E-3,9.434061E0,9.390976E0,9.726707E0,1.1493101E-2,1.0254454E1,4.33084E1,1.047693E1,-2.3992535E-2,-3.2842714E-2,1.0448649E4,8.863236E0,9.428795E0,-2.513703E-2,9.761431E0,1.0114743E1,9.59419E0,1.267643E4,2.5524457E-3,6.636678E-3,1.0775153E1,1.0124742E1,3.664404E1,1.6066521E-2,-2.2791068E-3,-8.3179475E-4,-1.4399529E-4,-1.1051238E-3,-4.4294563E-3,-8.284075E-3,-1.9817988E-3,2.0825863E-4,2.043736E-3,5.4522213E-3,3.8743753E-3,7.5029763E-3,-5.964041E-4,-3.1633538E-3,2.3086497E-3,-2.7183295E-4,2.5130538E-2,7.6698936E-3,1.4307054E-2,1.970726E-2,4.0646913E-3,9.387112E-3],"split_indices":[12,11,8,15,15,12,6,0,10,0,0,9,11,15,15,10,0,15,8,11,9,0,9,5,0,0,0,4,11,9,6,10,12,0,4,0,0,10,11,5,0,0,0,0,0,0,0,0,0,0,0,0,0,0,0,0,0,0,0,0,0,0,0],"split_type":[0,0,0,0,0,0,0,0,0,0,0,0,0,0,0,0,0,0,0,0,0,0,0,0,0,0,0,0,0,0,0,0,0,0,0,0,0,0,0,0,0,0,0,0,0,0,0,0,0,0,0,0,0,0,0,0,0,0,0,0,0,0,0],"sum_hessian":[5.75E2,1.32E2,4.43E2,9.4E1,3.8E1,2.89E2,1.54E2,2.2E1,7.2E1,2.2E1,1.6E1,1.02E2,1.87E2,2.7E1,1.27E2,5.5E1,1.7E1,2.7E1,7.5E1,1.56E2,3.1E1,1.7E1,1E1,1.06E2,2.1E1,1.9E1,3.6E1,1.1E1,1.6E1,6.7E1,8E0,8.5E1,7.1E1,6E0,2.5E1,2E0,8E0,2.7E1,7.9E1,9E0,1.2E1,8E0,3E0,9E0,7E0,5.7E1,1E1,5E0,3E0,6.4E1,2.1E1,2.5E1,4.6E1,1E0,5E0,1.8E1,7E0,2.5E1,2E0,4E1,3.9E1,7E0,2E0],"tree_param":{"num_deleted":"0","num_feature":"16","num_nodes":"63","size_leaf_vector":"1"}},{"base_weights":[4.5214845E-3,-4.3470734E-1,1.2688865E-1,-5.0250953E-1,-2.525368E-1,3.290015E-2,3.4573308E-1,-1.8421674E-2,-5.297753E-1,-1.4494902E-2,-8.522531E-3,-6.721486E-2,8.878798E-2,3.0005252E-1,3.9457667E-1,-5.5648184E-1,-1.929253E-2,-8.9667425E-2,-4.1156393E-2,5.427432E-2,1.1494449E-1,3.303868E-1,1.6564983E-1,4.2775536E-1,3.1179208E-1,-2.2172293E-2,-3.0661438E-2,-3.0768463E-2,-1.04665756E-1,-7.102536E-2,-8.750813E-3,6.802766E-2,-1.0403802E-2,1.7855076E-1,9.850815E-2,2.6072878E-1,3.8938716E-1,3.9255335E-3,9.407683E-3,5.373049E-3,2.164114E-2,1.591963E-2,4.3295384E-3,-2.0559262E-3,-1.9573211E-4,-5.581559E-3,-1.8070856E-3,-2.401721E-3,-5.214006E-3,-8.9895487E-4,6.364399E-4,4.881501E-3,2.4861852E-3,-1.6078048E-3,6.2522356E-4,9.174928E-3,1.7424822E-3,6.6852397E-3,3.1009715E-3,3.1256836E-3,1.3612158E-2,2.1229872E-2,8.59557E-3],"categories":[],"categories_nodes":[],"categories_segments":[],"categories_sizes":[],"default_left":[0,0,0,0,0,0,0,0,0,0,0,0,0,0,0,0,0,0,0,0,0,0,0,0,0,0,0,0,0,0,0,0,0,0,0,0,0,0,0,0,0,0,0,0,0,0,0,0,0,0,0,0,0,0,0,0,0,0,0,0,0,0,0],"id":23,"left_children":[1,3,5,7,9,11,13,-1,15,-1,-1,17,19,21,23,25,-1,27,29,31,33,35,37,39,41,-1,-1,43,45,47,49,51,53,55,57,59,61,-1,-1,-1,-1,-1,-1,-1,-1,-1,-1,-1,-1,-1,-1,-1,-1,-1,-1,-1,-1,-1,-1,-1,-1,-1,-1],"loss_changes":[3.1819746E1,1.4664497E0,9.512007E0,1.4479256E-1,6.405997E-2,1.8244113E0,1.9174385E-1,0E0,7.3560715E-2,0E0,0E0,6.47639E-2,1.8243766E-1,2.5512362E-1,4.2417526E-2,1.1934471E-1,0E0,5.1549554E-2,5.3582042E-2,8.25454E-2,1.0577488E-1,1.4917612E-1,1.660338E-2,2.328062E-2,5.1317215E-3,0E0,0E0,3.7301779E-3,1.9353092E-2,1.7163157E-2,5.779011E-3,3.6325365E-2,8.873323E-3,9.958327E-3,1.1499876E-1,5.373335E-2,1.643858E-1,0E0,0E0,0E0,0E0,0E0,0E0,0E0,0E0,0E0,0E0,0E0,0E0,0E0,0E0,0E0,0E0,0E0,0E0,0E0,0E0,0E0,0E0,0E0,0E0,0E0,0E0],"parents":[2147483647,0,0,1,1,2,2,3,3,4,4,5,5,6,6,8,8,11,11,12,12,13,13,14,14,15,15,17,17,18,18,19,19,20,20,21,21,22,22,23,23,24,24,27,27,28,28,29,29,30,30,31,31,32,32,33,33,34,34,35,35,36,36],"right_children":[2,4,6,8,10,12,14,-1,16,-1,-1,18,20,22,24,26,-1,28,30,32,34,36,38,40,42,-1,-1,44,46,48,50,52,54,56,58,60,62,-1,-1,-1,-1,-1,-1,-1,-1,-1,-1,-1,-1,-1,-1,-1,-1,-1,-1,-1,-1,-1,-1,-1,-1,-1,-1],"split_conditions":[9.835255E0,8.267605E0,1.012745E1,8.7977415E-3,9.064483E0,9.995312E0,1.0187014E1,-1.8421674E-2,8.13979E0,-1.4494902E-2,-8.522531E-3,-1.6042937E-2,1.0114743E1,1.0775153E1,1.0399568E1,7.6869287E0,-1.929253E-2,9.112267E0,9.867405E0,9.76729E0,1.0156655E1,1.0647315E1,2.7357548E-2,1.024476E1,6.376578E-3,-2.2172293E-2,-3.0661438E-2,4.9156854E-3,9.439287E0,9.15493E0,9.38851E0,3.7248943E1,5.5408897E-3,9.75527E0,4.1376877E1,1.014979E1,1.058041E1,3.9255335E-3,9.407683E-3,5.373049E-3,2.164114E-2,1.591963E-2,4.3295384E-3,-2.0559262E-3,-1.9573211E-4,-5.581559E-3,-1.8070856E-3,-2.401721E-3,-5.214006E-3,-8.9895487E-4,6.364399E-4,4.881501E-3,2.4861852E-3,-1.6078048E-3,6.2522356E-4,9.174928E-3,1.7424822E-3,6.6852397E-3,3.1009715E-3,3.1256836E-3,1.3612158E-2,2.1229872E-2,8.59557E-3],"split_indices":[12,11,1,15,9,12,11,0,0,0,0,7,12,10,11,10,0,9,12,3,12,10,7,3,13,0,0,15,8,9,3,5,15,0,5,0,0,0,0,0,0,0,0,0,0,0,0,0,0,0,0,0,0,0,0,0,0,0,0,0,0,0,0],"split_type":[0,0,0,0,0,0,0,0,0,0,0,0,0,0,0,0,0,0,0,0,0,0,0,0,0,0,0,0,0,0,0,0,0,0,0,0,0,0,0,0,0,0,0,0,0,0,0,0,0,0,0,0,0,0,0,0,0,0,0,0,0,0,0],"sum_hessian":[5.9E2,1.28E2,4.62E2,9.2E1,3.6E1,3.24E2,1.38E2,1.8E1,7.4E1,2.3E1,1.3E1,1.16E2,2.08E2,7.5E1,6.3E1,6E1,1.4E1,6.1E1,5.5E1,9.1E1,1.17E2,6E1,1.5E1,4.2E1,2.1E1,2.3E1,3.7E1,1.3E1,4.8E1,2.8E1,2.7E1,7.5E1,1.6E1,2.2E1,9.5E1,3E1,3E1,4E0,1.1E1,1E0,4.1E1,2E1,1E0,9E0,4E0,4.3E1,5E0,1.8E1,1E1,1.9E1,8E0,2.7E1,4.8E1,8E0,8E0,2.1E1,1E0,4.7E1,4.8E1,2E0,2.8E1,2.5E1,5E0],"tree_param":{"num_deleted":"0","num_feature":"16","num_nodes":"63","size_leaf_vector":"1"}},{"base_weights":[2.1217996E-3,-4.1608387E-1,1.19396605E-1,-2.9182887E-1,-5.103993E-1,3.505541E-2,3.243233E-1,-3.2715625E-1,-8.437332E-3,-5.4970837E-1,-1.9035514E-2,-6.2316652E-2,8.67627E-2,3.419156E-1,2.0695138E-1,-3.6194324E-3,-1.656988E-2,-2.1615162E-2,-3.0954141E-2,-2.1325704E-2,-7.541457E-2,5.545685E-2,1.08608805E-1,2.993645E-1,3.931198E-1,1.262651E-1,1.3750558E-2,9.292285E-3,-2.809163E-2,-8.728837E-2,5.0812564E-3,7.237375E-2,-1.2146343E-4,1.5535004E-1,9.0154335E-2,3.8110474E-1,2.5647283E-1,4.1583672E-1,2.4595165E-1,1.1292601E-2,7.904E-2,9.050369E-4,-2.7748744E-4,-5.64456E-4,-1.8710264E-3,-3.1034395E-3,-5.136106E-3,7.8968407E-4,-6.5374374E-4,1.4338887E-3,4.2511947E-3,7.083192E-4,-2.0291726E-3,6.7074695E-3,1.089799E-2,3.1508699E-3,7.3466995E-3,1.2925306E-2,2.2575578E-2,1.751745E-2,1.0301498E-2,2.1093816E-2,4.356337E-3,1.3061834E-2,3.0917884E-3,1.0747433E-3,4.6205386E-3],"categories":[],"categories_nodes":[],"categories_segments":[],"categories_sizes":[],"default_left":[0,0,0,0,0,0,0,0,0,0,0,0,0,0,0,0,0,0,0,0,0,0,0,0,0,0,0,0,0,0,0,0,0,0,0,0,0,0,0,0,0,0,0,0,0,0,0,0,0,0,0,0,0,0,0,0,0,0,0,0,0,0,0,0,0,0,0],"id":24,"left_children":[1,3,5,7,9,11,13,15,-1,17,-1,19,21,23,25,-1,-1,-1,-1,27,29,31,33,35,37,39,-1,41,43,45,47,49,51,53,55,57,59,61,63,-1,65,-1,-1,-1,-1,-1,-1,-1,-1,-1,-1,-1,-1,-1,-1,-1,-1,-1,-1,-1,-1,-1,-1,-1,-1,-1,-1],"loss_changes":[2.8888132E1,1.3628254E0,7.939161E0,1.9698715E-1,1.5777206E-1,1.6518011E0,2.0592976E-1,2.3555756E-2,0E0,1.6404915E-1,0E0,5.959791E-2,1.4033377E-1,1.3287544E-1,7.510543E-2,0E0,0E0,0E0,0E0,6.2686484E-3,8.26416E-2,8.462793E-2,9.381771E-2,1.3715696E-1,6.154108E-2,3.388168E-2,0E0,8.8486663E-4,3.339529E-3,2.2816598E-2,2.5404547E-3,3.57022E-2,1.3293443E-2,1.5891373E-2,1.3249648E-1,6.454897E-2,1.5038085E-1,4.4639587E-2,9.174168E-3,0E0,4.9384497E-3,0E0,0E0,0E0,0E0,0E0,0E0,0E0,0E0,0E0,0E0,0E0,0E0,0E0,0E0,0E0,0E0,0E0,0E0,0E0,0E0,0E0,0E0,0E0,0E0,0E0,0E0],"parents":[2147483647,0,0,1,1,2,2,3,3,4,4,5,5,6,6,7,7,9,9,11,11,12,12,13,13,14,14,19,19,20,20,21,21,22,22,23,23,24,24,25,25,27,27,28,28,29,29,30,30,31,31,32,32,33,33,34,34,35,35,36,36,37,37,38,38,40,40],"right_children":[2,4,6,8,10,12,14,16,-1,18,-1,20,22,24,26,-1,-1,-1,-1,28,30,32,34,36,38,40,-1,42,44,46,48,50,52,54,56,58,60,62,64,-1,66,-1,-1,-1,-1,-1,-1,-1,-1,-1,-1,-1,-1,-1,-1,-1,-1,-1,-1,-1,-1,-1,-1,-1,-1,-1,-1],"split_conditions":[9.835255E0,8.7977415E-3,1.019467E1,9.064483E0,8.143987E0,9.996468E0,7.84257E-3,1.4128212E3,-8.437332E-3,7.760643E0,-1.9035514E-2,9.0990305E0,1.0114743E1,1.0184971E1,1.047693E1,-3.6194324E-3,-1.656988E-2,-2.1615162E-2,-3.0954141E-2,8.82329E0,9.469617E0,9.61109E0,1.0193598E1,1.029034E1,1.0442841E1,-4.8025534E-2,1.3750558E-2,3.777738E-2,9.048369E0,9.15493E0,9.59597E0,5.2338825E-3,3.248192E-3,9.527949E0,9.796584E0,-2.2770174E-2,1.0202018E1,7.790016E-3,1.4138924E4,1.1292601E-2,1.031983E1,9.050369E-4,-2.7748744E-4,-5.64456E-4,-1.8710264E-3,-3.1034395E-3,-5.136106E-3,7.8968407E-4,-6.5374374E-4,1.4338887E-3,4.2511947E-3,7.083192E-4,-2.0291726E-3,6.7074695E-3,1.089799E-2,3.1508699E-3,7.3466995E-3,1.2925306E-2,2.2575578E-2,1.751745E-2,1.0301498E-2,2.1093816E-2,4.356337E-3,1.3061834E-2,3.0917884E-3,1.0747433E-3,4.6205386E-3],"split_indices":[12,15,1,9,8,12,15,4,0,9,0,9,12,11,0,0,0,0,0,11,8,0,12,1,11,7,0,6,9,9,1,15,13,11,8,14,9,15,4,0,1,0,0,0,0,0,0,0,0,0,0,0,0,0,0,0,0,0,0,0,0,0,0,0,0,0,0],"split_type":[0,0,0,0,0,0,0,0,0,0,0,0,0,0,0,0,0,0,0,0,0,0,0,0,0,0,0,0,0,0,0,0,0,0,0,0,0,0,0,0,0,0,0,0,0,0,0,0,0,0,0,0,0,0,0,0,0,0,0,0,0,0,0,0,0,0,0],"sum_hessian":[5.87E2,1.28E2,4.59E2,5.7E1,7.1E1,3.26E2,1.33E2,4.3E1,1.4E1,5.2E1,1.9E1,1.13E2,2.13E2,1.14E2,1.9E1,1E0,4.2E1,2.2E1,3E1,2.8E1,8.5E1,8.9E1,1.24E2,6.6E1,4.8E1,1E1,9E0,5E0,2.3E1,7.4E1,1.1E1,6.8E1,2.1E1,3.3E1,9.1E1,2E1,4.6E1,4E1,8E0,2E0,8E0,3E0,2E0,9E0,1.4E1,3E1,4.4E1,7E0,4E0,1.6E1,5.2E1,1.6E1,5E0,2.7E1,6E0,6.3E1,2.8E1,9E0,1.1E1,1.4E1,3.2E1,3.9E1,1E0,7E0,1E0,2E0,6E0],"tree_param":{"num_deleted":"0","num_feature":"16","num_nodes":"67","size_leaf_vector":"1"}},{"base_weights":[1.1410479E-3,-4.226259E-1,9.589403E-2,-3.04059E-1,-4.7299367E-1,1.3244659E-2,3.0453226E-1,-1.7154569E-2,-8.608446E-3,-5.0145274E-1,-1.8864488E-2,-7.92659E-2,7.6949775E-2,3.2303914E-1,2.039357E-1,-1.9822083E-2,-5.665757E-1,-8.734891E-2,4.9888507E-2,8.2293876E-2,-3.6023904E-2,1.420244E-1,3.3355388E-1,1.4340527E-1,1.3716889E-2,-2.8760195E-2,-7.693267E-3,-1.09844774E-1,-4.608374E-2,4.1694003E-3,-1.283288E-2,5.0836682E-2,1.03368565E-1,5.4306985E-4,-2.8834615E-3,7.6010837E-3,1.8010855E-3,4.045649E-1,2.949383E-1,7.272466E-2,1.0689694E-2,-7.7398242E-3,-3.946764E-3,-3.4071528E-3,-1.2792834E-3,-7.857005E-4,-1.04737286E-4,4.7271526E-3,2.0545356E-3,1.5640919E-3,5.5654566E-3,1.0592532E-2,2.1481112E-2,1.0566632E-2,1.6022077E-2,-1.2013912E-4,4.120797E-3],"categories":[],"categories_nodes":[],"categories_segments":[],"categories_sizes":[],"default_left":[0,0,0,0,0,0,0,0,0,0,0,0,0,0,0,0,0,0,0,0,0,0,0,0,0,0,0,0,0,0,0,0,0,0,0,0,0,0,0,0,0,0,0,0,0,0,0,0,0,0,0,0,0,0,0,0,0],"id":25,"left_children":[1,3,5,7,9,11,13,-1,-1,15,-1,17,19,21,23,-1,25,27,29,31,33,35,37,39,-1,-1,-1,41,43,-1,45,47,49,-1,-1,-1,-1,51,53,55,-1,-1,-1,-1,-1,-1,-1,-1,-1,-1,-1,-1,-1,-1,-1,-1,-1],"loss_changes":[2.3730902E1,5.0115395E-1,8.32473E0,1.21109486E-1,1.2355804E-2,2.051108E0,1.8917751E-1,0E0,0E0,1.4467335E-1,0E0,1.5259963E-1,1.2733543E-1,1.6960716E-1,6.293374E-2,0E0,2.1883965E-2,1.1932945E-1,1.9980328E-2,1.2534642E-1,1.0774848E-2,3.001839E-3,1.7408657E-1,5.9078604E-2,0E0,0E0,0E0,1.07272506E-1,2.0413011E-2,0E0,9.083492E-5,3.0617982E-2,6.3489795E-2,0E0,0E0,0E0,0E0,7.799578E-2,8.793211E-2,6.7507587E-3,0E0,0E0,0E0,0E0,0E0,0E0,0E0,0E0,0E0,0E0,0E0,0E0,0E0,0E0,0E0,0E0,0E0],"parents":[2147483647,0,0,1,1,2,2,3,3,4,4,5,5,6,6,9,9,11,11,12,12,13,13,14,14,16,16,17,17,18,18,19,19,20,20,21,21,22,22,23,23,27,27,28,28,30,30,31,31,32,32,37,37,38,38,39,39],"right_children":[2,4,6,8,10,12,14,-1,-1,16,-1,18,20,22,24,-1,26,28,30,32,34,36,38,40,-1,-1,-1,42,44,-1,46,48,50,-1,-1,-1,-1,52,54,56,-1,-1,-1,-1,-1,-1,-1,-1,-1,-1,-1,-1,-1,-1,-1,-1,-1],"split_conditions":[8.87068E0,8.7977415E-3,1.011077E1,8.57305E0,8.174338E0,9.440804E0,7.7647464E-3,-1.7154569E-2,-8.608446E-3,7.517227E0,-1.8864488E-2,9.632073E0,3.914771E-2,-3.9295513E-2,4.1121777E1,-1.9822083E-2,2.229811E-2,5.353729E-4,9.19886E0,9.540535E0,5.2913414E1,7.5328615E-3,4.33084E1,1.037775E1,1.3716889E-2,-2.8760195E-2,-7.693267E-3,9.260292E0,5.414863E1,4.1694003E-3,9.51001E0,9.604472E0,3.7448024E-3,5.4306985E-4,-2.8834615E-3,7.6010837E-3,1.8010855E-3,-6.9369145E-2,6.3575623E-3,1.0729149E1,1.0689694E-2,-7.7398242E-3,-3.946764E-3,-3.4071528E-3,-1.2792834E-3,-7.857005E-4,-1.04737286E-4,4.7271526E-3,2.0545356E-3,1.5640919E-3,5.5654566E-3,1.0592532E-2,2.1481112E-2,1.0566632E-2,1.6022077E-2,-1.2013912E-4,4.120797E-3],"split_indices":[1,15,1,1,8,8,15,0,0,8,0,10,7,14,5,0,13,14,0,8,5,15,5,0,0,0,0,10,5,0,2,10,15,0,0,0,0,6,7,10,0,0,0,0,0,0,0,0,0,0,0,0,0,0,0,0,0],"split_type":[0,0,0,0,0,0,0,0,0,0,0,0,0,0,0,0,0,0,0,0,0,0,0,0,0,0,0,0,0,0,0,0,0,0,0,0,0,0,0,0,0,0,0,0,0,0,0,0,0,0,0,0,0,0,0,0,0],"sum_hessian":[5.89E2,1.07E2,4.82E2,3.4E1,7.3E1,3.46E2,1.36E2,2.5E1,9E0,5.3E1,2E1,1.41E2,2.05E2,1.13E2,2.3E1,2.3E1,3E1,1.33E2,8E0,1.96E2,9E0,7E0,1.06E2,1.4E1,9E0,2.9E1,1E0,8.5E1,4.8E1,5E0,3E0,8E1,1.16E2,3E0,6E0,6E0,1E0,3.4E1,7.2E1,8E0,6E0,3.3E1,5.2E1,2.2E1,2.6E1,2E0,1E0,1.3E1,6.7E1,1.2E1,1.04E2,5E0,2.9E1,1.9E1,5.3E1,1E0,7E0],"tree_param":{"num_deleted":"0","num_feature":"16","num_nodes":"57","size_leaf_vector":"1"}},{"base_weights":[-2.0335151E-3,-3.8635144E-1,1.01080686E-1,-2.6939192E-1,-4.6492305E-1,2.6090387E-2,2.9430097E-1,-3.2569262E-1,-9.890576E-3,-5.0010484E-1,-1.786712E-2,-6.2710956E-2,7.812375E-2,1.8468302E-2,2.65918E-1,-6.781292E-3,-1.6773647E-2,-1.9873574E-2,-2.7934957E-2,-1.16744176E-1,-5.0855428E-2,4.4669453E-2,1.0220656E-1,2.7388218E-1,5.106775E-3,-6.2631406E-3,-1.1939049E-3,-7.210117E-2,-3.0253608E-2,6.471914E-2,-5.63053E-3,1.6442414E-1,8.949032E-2,2.762481E-1,1.582861E-3,-2.8425707E-3,-5.980691E-3,-2.5349434E-3,-8.163106E-4,2.3940748E-3,4.9263E-3,-7.8325486E-4,1.982384E-3,8.523263E-3,1.3921022E-3,5.7131588E-3,2.5225221E-3,1.3916847E-2,2.3107529E-3],"categories":[],"categories_nodes":[],"categories_segments":[],"categories_sizes":[],"default_left":[0,0,0,0,0,0,0,0,0,0,0,0,0,0,0,0,0,0,0,0,0,0,0,0,0,0,0,0,0,0,0,0,0,0,0,0,0,0,0,0,0,0,0,0,0,0,0,0,0],"id":26,"left_children":[1,3,5,7,9,11,13,15,-1,17,-1,19,21,-1,23,-1,-1,-1,-1,25,27,29,31,33,-1,-1,-1,35,37,39,41,43,45,47,-1,-1,-1,-1,-1,-1,-1,-1,-1,-1,-1,-1,-1,-1,-1],"loss_changes":[2.2667004E1,9.867077E-1,6.527151E0,1.4110565E-1,9.001827E-2,1.5112253E0,1.7023087E-1,4.6920776E-3,0E0,8.463287E-2,0E0,7.15746E-2,1.614033E-1,0E0,9.5944405E-2,0E0,0E0,0E0,0E0,1.3621926E-2,4.202643E-2,8.91123E-2,7.943535E-2,4.283285E-2,0E0,0E0,0E0,2.8703064E-2,1.4263995E-2,3.1143785E-2,1.2434112E-2,1.0930955E-2,9.191549E-2,2.9901028E-2,0E0,0E0,0E0,0E0,0E0,0E0,0E0,0E0,0E0,0E0,0E0,0E0,0E0,0E0,0E0],"parents":[2147483647,0,0,1,1,2,2,3,3,4,4,5,5,6,6,7,7,9,9,11,11,12,12,14,14,19,19,20,20,21,21,22,22,23,23,27,27,28,28,29,29,30,30,31,31,32,32,33,33],"right_children":[2,4,6,8,10,12,14,16,-1,18,-1,20,22,-1,24,-1,-1,-1,-1,26,28,30,32,34,-1,-1,-1,36,38,40,42,44,46,48,-1,-1,-1,-1,-1,-1,-1,-1,-1,-1,-1,-1,-1,-1,-1],"split_conditions":[9.822333E0,8.9356275E-3,1.01E1,8.57305E0,8.143987E0,9.995312E0,1.0299547E1,-1.4936316E-2,-9.890576E-3,7.517227E0,-1.786712E-2,9.856235E0,1.0114743E1,1.8468302E-2,3.7506066E-2,-6.781292E-3,-1.6773647E-2,-1.9873574E-2,-2.7934957E-2,9.324236E0,-2.2895705E-2,9.63994E0,1.0156655E1,1.4795336E-2,5.106775E-3,-6.2631406E-3,-1.1939049E-3,9.428795E0,9.867405E0,9.510219E0,1.0112011E1,9.618832E0,-1.4420317E-2,8.214126E-3,1.582861E-3,-2.8425707E-3,-5.980691E-3,-2.5349434E-3,-8.163106E-4,2.3940748E-3,4.9263E-3,-7.8325486E-4,1.982384E-3,8.523263E-3,1.3921022E-3,5.7131588E-3,2.5225221E-3,1.3916847E-2,2.3107529E-3],"split_indices":[12,15,2,1,8,12,9,13,0,8,0,12,12,0,14,0,0,0,0,10,7,1,12,13,0,0,0,9,12,9,12,9,14,15,0,0,0,0,0,0,0,0,0,0,0,0,0,0,0],"split_type":[0,0,0,0,0,0,0,0,0,0,0,0,0,0,0,0,0,0,0,0,0,0,0,0,0,0,0,0,0,0,0,0,0,0,0,0,0,0,0,0,0,0,0,0,0,0,0,0,0],"sum_hessian":[5.7E2,1.2E2,4.5E2,5E1,7E1,3.25E2,1.25E2,2.6E1,2.4E1,5E1,2E1,1.2E2,2.05E2,3.1E1,9.4E1,2E0,2.4E1,2.1E1,2.9E1,2E1,1E2,8.7E1,1.18E2,8.9E1,5E0,1.8E1,2E0,4.8E1,5.2E1,6.2E1,2.5E1,1.8E1,1E2,8.8E1,1E0,3.8E1,1E1,2E1,3.2E1,4.3E1,1.9E1,2.1E1,4E0,1.7E1,1E0,6E1,4E1,8.7E1,1E0],"tree_param":{"num_deleted":"0","num_feature":"16","num_nodes":"49","size_leaf_vector":"1"}},{"base_weights":[-1.1270769E-4,-3.749836E-1,9.7955026E-2,-4.428357E-1,-2.5832543E-1,2.5473228E-2,2.797762E-1,-3.6255285E-1,-2.5401676E-2,-1.48648545E-2,-1.8890023E-1,-5.573033E-2,7.600748E-2,2.3411112E-1,3.2824877E-1,-1.9800937E-2,-1.2852097E-2,-9.830613E-3,-3.9830687E-3,-8.186615E-2,-3.384343E-2,4.5561954E-2,9.439271E-2,2.5334677E-1,8.759184E-2,3.6340237E-1,2.3449846E-1,-8.936071E-2,1.6947174E-2,-5.0382376E-2,-1.7284343E-2,6.498644E-2,6.473235E-3,6.459316E-3,1.02466725E-1,2.8997234E-1,1.84612E-1,-4.6505927E-4,9.939119E-2,7.3792934E-3,1.850827E-2,1.2467193E-2,5.6390404E-3,-5.106838E-3,-2.7397212E-3,-2.257824E-4,1.6380468E-3,-2.806288E-3,-1.7741205E-4,-3.847909E-3,-6.795793E-4,8.8134094E-4,4.2231735E-3,2.4256282E-3,-6.3840626E-4,-9.853893E-4,3.1860233E-3,2.5340829E-3,5.855682E-3,1.7892083E-2,1.0908868E-2,1.1190176E-2,5.7193064E-3,5.4009794E-3,7.5910095E-4],"categories":[],"categories_nodes":[],"categories_segments":[],"categories_sizes":[],"default_left":[0,0,0,0,0,0,0,0,0,0,0,0,0,0,0,0,0,0,0,0,0,0,0,0,0,0,0,0,0,0,0,0,0,0,0,0,0,0,0,0,0,0,0,0,0,0,0,0,0,0,0,0,0,0,0,0,0,0,0,0,0,0,0,0,0],"id":27,"left_children":[1,3,5,7,9,11,13,15,-1,-1,17,19,21,23,25,-1,-1,-1,-1,27,29,31,33,35,37,39,41,43,45,47,49,51,53,55,57,59,61,-1,63,-1,-1,-1,-1,-1,-1,-1,-1,-1,-1,-1,-1,-1,-1,-1,-1,-1,-1,-1,-1,-1,-1,-1,-1,-1,-1],"loss_changes":[2.1984087E1,8.671284E-1,6.2395883E0,2.1884918E-1,7.3709965E-2,1.3994467E0,2.2197628E-1,3.2384872E-2,0E0,0E0,1.1866689E-3,7.216558E-2,1.1324632E-1,1.8355131E-1,1.2240887E-1,0E0,0E0,0E0,0E0,4.520753E-2,1.9121677E-2,6.1080873E-2,9.163499E-2,1.0758448E-1,1.2357213E-2,9.590149E-3,8.017778E-3,1.8692583E-2,1.844977E-3,9.484366E-3,7.3277345E-3,4.832211E-2,2.3268443E-2,1.923609E-2,8.4324956E-2,1.1683416E-1,4.3206394E-2,0E0,4.8993602E-3,0E0,0E0,0E0,0E0,0E0,0E0,0E0,0E0,0E0,0E0,0E0,0E0,0E0,0E0,0E0,0E0,0E0,0E0,0E0,0E0,0E0,0E0,0E0,0E0,0E0,0E0],"parents":[2147483647,0,0,1,1,2,2,3,3,4,4,5,5,6,6,7,7,10,10,11,11,12,12,13,13,14,14,19,19,20,20,21,21,22,22,23,23,24,24,25,25,26,26,27,27,28,28,29,29,30,30,31,31,32,32,33,33,34,34,35,35,36,36,38,38],"right_children":[2,4,6,8,10,12,14,16,-1,-1,18,20,22,24,26,-1,-1,-1,-1,28,30,32,34,36,38,40,42,44,46,48,50,52,54,56,58,60,62,-1,64,-1,-1,-1,-1,-1,-1,-1,-1,-1,-1,-1,-1,-1,-1,-1,-1,-1,-1,-1,-1,-1,-1,-1,-1,-1,-1],"split_conditions":[9.822333E0,8.347428E0,1.005855E1,7.760643E0,9.109198E0,9.995312E0,1.0187014E1,7.226778E0,-2.5401676E-2,-1.48648545E-2,6.376578E-3,-9.888699E-3,1.0112011E1,1.0145057E1,1.0410894E1,-1.9800937E-2,-1.2852097E-2,-9.830613E-3,-3.9830687E-3,9.469617E0,5.0579677E-3,9.56322E0,3.7448024E-3,1.040426E1,1.03722105E1,1.02925E1,1.7505594E4,6.8043047E-3,-2.0248948E-2,1.0950689E4,2.7883642E1,5.166523E-3,1.0030449E1,9.641145E0,9.3574E0,1.0073368E1,6.2527563E-3,-4.6505927E-4,8.200194E-3,7.3792934E-3,1.850827E-2,1.2467193E-2,5.6390404E-3,-5.106838E-3,-2.7397212E-3,-2.257824E-4,1.6380468E-3,-2.806288E-3,-1.7741205E-4,-3.847909E-3,-6.795793E-4,8.8134094E-4,4.2231735E-3,2.4256282E-3,-6.3840626E-4,-9.853893E-4,3.1860233E-3,2.5340829E-3,5.855682E-3,1.7892083E-2,1.0908868E-2,1.1190176E-2,5.7193064E-3,5.4009794E-3,7.5910095E-4],"split_indices":[12,8,2,9,10,12,11,11,0,0,13,14,12,11,11,0,0,0,0,8,15,0,15,2,8,0,4,15,14,4,5,15,12,11,11,11,15,0,13,0,0,0,0,0,0,0,0,0,0,0,0,0,0,0,0,0,0,0,0,0,0,0,0,0,0],"split_type":[0,0,0,0,0,0,0,0,0,0,0,0,0,0,0,0,0,0,0,0,0,0,0,0,0,0,0,0,0,0,0,0,0,0,0,0,0,0,0,0,0,0,0,0,0,0,0,0,0,0,0,0,0,0,0,0,0,0,0,0,0,0,0,0,0],"sum_hessian":[5.96E2,1.23E2,4.73E2,7.6E1,4.7E1,3.39E2,1.34E2,3.7E1,3.9E1,2.8E1,1.9E1,1.3E2,2.09E2,7.2E1,6.2E1,2.6E1,1.1E1,1.7E1,2E0,5.8E1,7.2E1,8E1,1.29E2,6.3E1,9E0,4.3E1,1.9E1,5.4E1,4E0,3.5E1,3.7E1,5.3E1,2.7E1,1.1E1,1.18E2,3.9E1,2.4E1,1E0,8E0,2E0,4.1E1,1.6E1,3E0,3.8E1,1.6E1,2E0,2E0,3.1E1,4E0,1E0,3.6E1,1.6E1,3.7E1,8E0,1.9E1,8E0,3E0,2.7E1,9.1E1,1.8E1,2.1E1,1.4E1,1E1,7E0,1E0],"tree_param":{"num_deleted":"0","num_feature":"16","num_nodes":"65","size_leaf_vector":"1"}},{"base_weights":[-2.7715361E-3,-3.762501E-1,8.858311E-2,-4.2184737E-1,-2.858878E-1,9.474543E-3,2.4986061E-1,-2.3156634E-2,-1.5254459E-2,-2.9949513E-1,-6.4008045E-3,-6.3685924E-2,6.307291E-2,1.533648E-1,2.704132E-1,-4.3871882E-3,-1.5146988E-2,-6.935133E-2,3.279686E-2,7.115239E-2,4.8281215E-3,8.899047E-3,9.69038E-2,2.154387E-2,2.5410834E-1,-8.7608896E-2,-3.374971E-2,3.0804921E-3,-5.709291E-4,5.103975E-2,9.387204E-2,3.174572E-3,-1.0863706E-2,1.0646979E-1,1.7952285E-3,2.9597235E-1,1.9167985E-1,-5.428148E-3,-2.0451916E-3,-1.0518469E-3,-3.743472E-3,3.5704025E-3,1.971208E-3,-5.958557E-4,5.0912956E-3,-1.5393085E-3,7.346524E-4,1.5360117E-3,5.604923E-3,7.5429636E-3,1.5794445E-2,7.854207E-3,1.4845597E-2],"categories":[],"categories_nodes":[],"categories_segments":[],"categories_sizes":[],"default_left":[0,0,0,0,0,0,0,0,0,0,0,0,0,0,0,0,0,0,0,0,0,0,0,0,0,0,0,0,0,0,0,0,0,0,0,0,0,0,0,0,0,0,0,0,0,0,0,0,0,0,0,0,0],"id":28,"left_children":[1,3,5,7,9,11,13,-1,-1,15,-1,17,19,21,23,-1,-1,25,27,29,31,-1,33,-1,35,37,39,-1,-1,41,43,-1,45,47,-1,49,51,-1,-1,-1,-1,-1,-1,-1,-1,-1,-1,-1,-1,-1,-1,-1,-1],"loss_changes":[1.9617634E1,3.4499073E-1,5.89203E0,2.1059132E-1,4.97365E-2,1.2235355E0,2.599802E-1,0E0,0E0,4.069805E-4,0E0,7.4427605E-2,8.436221E-2,2.3058593E-2,2.1493626E-1,0E0,0E0,7.8293085E-2,1.0895325E-2,6.740725E-2,2.1862049E-2,0E0,2.5959462E-3,0E0,2.4382162E-1,7.58096E-2,2.1425791E-2,0E0,0E0,1.7531514E-2,6.2638104E-2,0E0,1.0126258E-2,3.9362907E-4,0E0,1.4598513E-1,1.3174808E-1,0E0,0E0,0E0,0E0,0E0,0E0,0E0,0E0,0E0,0E0,0E0,0E0,0E0,0E0,0E0,0E0],"parents":[2147483647,0,0,1,1,2,2,3,3,4,4,5,5,6,6,9,9,11,11,12,12,13,13,14,14,17,17,18,18,19,19,20,20,22,22,24,24,25,25,26,26,29,29,30,30,32,32,33,33,35,35,36,36],"right_children":[2,4,6,8,10,12,14,-1,-1,16,-1,18,20,22,24,-1,-1,26,28,30,32,-1,34,-1,36,38,40,-1,-1,42,44,-1,46,48,-1,50,52,-1,-1,-1,-1,-1,-1,-1,-1,-1,-1,-1,-1,-1,-1,-1,-1],"split_conditions":[8.8512E0,8.174338E0,9.88463E0,-3.9399046E-2,-5.9736133E-2,9.440804E0,-6.9369145E-2,-2.3156634E-2,-1.5254459E-2,-2.0803772E-2,-6.4008045E-3,9.62801E0,9.7662E0,7.2068786E-3,1.024807E1,-4.3871882E-3,-1.5146988E-2,5.353729E-4,9.19886E0,9.56146E0,9.691594E0,8.899047E-3,7.586567E-3,2.154387E-2,6.898074E-3,6.6079707E-3,9.204197E0,3.0804921E-3,-5.709291E-4,4.086708E1,3.6477996E-3,3.174572E-3,9.764276E0,-8.136155E-2,1.7952285E-3,-3.603763E-2,1.0828776E1,-5.428148E-3,-2.0451916E-3,-1.0518469E-3,-3.743472E-3,3.5704025E-3,1.971208E-3,-5.958557E-4,5.0912956E-3,-1.5393085E-3,7.346524E-4,1.5360117E-3,5.604923E-3,7.5429636E-3,1.5794445E-2,7.854207E-3,1.4845597E-2],"split_indices":[1,8,8,6,7,8,6,0,0,13,0,10,0,15,1,0,0,14,0,8,8,0,15,0,15,15,8,0,0,5,15,0,8,7,0,7,10,0,0,0,0,0,0,0,0,0,0,0,0,0,0,0,0],"split_type":[0,0,0,0,0,0,0,0,0,0,0,0,0,0,0,0,0,0,0,0,0,0,0,0,0,0,0,0,0,0,0,0,0,0,0,0,0,0,0,0,0,0,0,0,0,0,0,0,0,0,0,0,0],"sum_hessian":[5.73E2,1.12E2,4.61E2,7.2E1,4E1,3.1E2,1.51E2,5.1E1,2.1E1,3.6E1,4E0,1.31E2,1.79E2,2.8E1,1.23E2,1E0,3.5E1,1.24E2,7E0,1.57E2,2.2E1,1.8E1,1E1,9E0,1.14E2,8.1E1,4.3E1,4E0,3E0,8.5E1,7.2E1,4E0,1.8E1,8E0,2E0,6.6E1,4.8E1,5.5E1,2.6E1,3.4E1,9E0,2.9E1,5.6E1,5E0,6.7E1,1E1,8E0,1E0,7E0,9E0,5.7E1,3.8E1,1E1],"tree_param":{"num_deleted":"0","num_feature":"16","num_nodes":"53","size_leaf_vector":"1"}},{"base_weights":[3.932142E-3,-3.2250345E-1,9.801794E-2,-3.7967375E-1,-1.9367816E-1,2.9195355E-2,2.5069386E-1,-3.9851207E-1,-1.1944362E-2,-2.2552156E-1,-1.3358364E-1,-4.5674745E-2,6.63116E-2,2.1389905E-1,2.910455E-1,-4.270691E-1,-3.0770728E-1,-4.3004197E-3,-1.1678199E-2,-7.0648827E-3,-2.5242807E-3,-3.1247593E-2,-6.622798E-2,3.9769076E-2,8.528658E-2,2.9766792E-1,1.7497934E-1,3.3215937E-1,2.1818063E-1,-1.7326418E-2,-2.404215E-2,-4.3237447E-3,-1.5706217E-2,-7.017994E-2,-2.2577718E-2,-9.269653E-2,-1.2404824E-2,5.275483E-2,-1.08497515E-2,2.818044E-2,9.249505E-2,1.0899067E-3,3.0921662E-1,1.415056E-1,1.3145103E-2,4.4969083E-3,1.6808342E-2,2.2878493E-1,5.133033E-3,-6.7355635E-4,-3.7251853E-3,-2.7031466E-4,-1.6838759E-3,-3.0616396E-3,-6.4772726E-3,4.2744362E-4,-1.3661914E-3,2.9928468E-3,-5.3281785E-4,1.5175343E-4,-2.0719687E-3,-2.5506975E-4,3.947671E-3,6.1795004E-3,4.049407E-3,1.1631741E-2,1.9699326E-2,3.4501075E-3,7.959415E-3,3.1242133E-3,1.1675193E-2],"categories":[],"categories_nodes":[],"categories_segments":[],"categories_sizes":[],"default_left":[0,0,0,0,0,0,0,0,0,0,0,0,0,0,0,0,0,0,0,0,0,0,0,0,0,0,0,0,0,0,0,0,0,0,0,0,0,0,0,0,0,0,0,0,0,0,0,0,0,0,0,0,0,0,0,0,0,0,0,0,0,0,0,0,0,0,0,0,0,0,0],"id":29,"left_children":[1,3,5,7,9,11,13,15,-1,17,19,21,23,25,27,29,31,-1,-1,-1,-1,33,35,37,39,41,43,45,47,-1,-1,-1,-1,49,51,53,55,57,59,61,63,-1,65,67,-1,-1,-1,69,-1,-1,-1,-1,-1,-1,-1,-1,-1,-1,-1,-1,-1,-1,-1,-1,-1,-1,-1,-1,-1,-1,-1],"loss_changes":[1.7845121E1,8.83914E-1,4.7315855E0,1.408453E-1,5.0245643E-2,8.700445E-1,1.4560795E-1,6.825733E-2,0E0,9.084225E-3,3.7638247E-3,2.876909E-2,1.0186982E-1,1.9895458E-1,1.1925745E-1,7.5909615E-2,4.0683746E-3,0E0,0E0,0E0,0E0,1.9680433E-2,5.86842E-2,5.907418E-2,4.7202766E-2,6.653619E-2,1.2466848E-1,7.6231956E-3,8.3630085E-3,0E0,0E0,0E0,0E0,1.6935058E-3,9.919694E-3,2.4530917E-2,4.9227127E-3,3.261292E-2,8.195668E-3,2.5750041E-2,2.8275967E-2,0E0,5.1165342E-2,4.2861998E-2,0E0,0E0,0E0,3.4592152E-3,0E0,0E0,0E0,0E0,0E0,0E0,0E0,0E0,0E0,0E0,0E0,0E0,0E0,0E0,0E0,0E0,0E0,0E0,0E0,0E0,0E0,0E0,0E0],"parents":[2147483647,0,0,1,1,2,2,3,3,4,4,5,5,6,6,7,7,9,9,10,10,11,11,12,12,13,13,14,14,15,15,16,16,21,21,22,22,23,23,24,24,25,25,26,26,27,27,28,28,33,33,34,34,35,35,36,36,37,37,38,38,39,39,40,40,42,42,43,43,47,47],"right_children":[2,4,6,8,10,12,14,16,-1,18,20,22,24,26,28,30,32,-1,-1,-1,-1,34,36,38,40,42,44,46,48,-1,-1,-1,-1,50,52,54,56,58,60,62,64,-1,66,68,-1,-1,-1,70,-1,-1,-1,-1,-1,-1,-1,-1,-1,-1,-1,-1,-1,-1,-1,-1,-1,-1,-1,-1,-1,-1,-1],"split_conditions":[9.843541E0,8.267605E0,1.019467E1,5.598728E-2,9.168438E0,9.995312E0,1.0187014E1,8.143987E0,-1.1944362E-2,1.6356377E3,9.11512E0,9.129137E0,1.0112011E1,1.030046E1,1.0399568E1,9.409297E0,1.7961348E1,-4.3004197E-3,-1.1678199E-2,-7.0648827E-3,-2.5242807E-3,-5.7223074E-2,9.439287E0,9.66079E0,9.664452E0,1.00231E1,9.950611E-2,-6.9369145E-2,1.7505594E4,-1.7326418E-2,-2.404215E-2,-4.3237447E-3,-1.5706217E-2,8.981961E0,8.875526E0,9.968054E0,9.6340475E0,6.677268E1,3.0027083E-3,9.390423E0,