{"learner":{"attributes":{"scikit_learn":"{\"_estimator_type\": \"regressor\"}"},"feature_names":["open","high","low","close","volume","rsi","macd","macd_signal","ema20","ema50","bb_upper","bb_lower","vwap","return_1h","return_24h","volatility_24h"],"feature_types":["float","float","float","float","float","float","float","float","float","float","float","float","float","float","float","float"],"gradient_booster":{"model":{"gbtree_model_param":{"num_parallel_tree":"1","num_trees":"200"},"iteration_indptr":[0,1,2,3,4,5,6,7,8,9,10,11,12,13,14,15,16,17,18,19,20,21,22,23,24,25,26,27,28,29,30,31,32,33,34,35,36,37,38,39,40,41,42,43,44,45,46,47,48,49,50,51,52,53,54,55,56,57,58,59,60,61,62,63,64,65,66,67,68,69,70,71,72,73,74,75,76,77,78,79,80,81,82,83,84,85,86,87,88,89,90,91,92,93,94,95,96,97,98,99,100,101,102,103,104,105,106,107,108,109,110,111,112,113,114,115,116,117,118,119,120,121,122,123,124,125,126,127,128,129,130,131,132,133,134,135,136,137,138,139,140,141,142,143,144,145,146,147,148,149,150,151,152,153,154,155,156,157,158,159,160,161,162,163,164,165,166,167,168,169,170,171,172,173,174,175,176,177,178,179,180,181,182,183,184,185,186,187,188,189,190,191,192,193,194,195,196,197,198,199,200],"tree_info":[0,0,0,0,0,0,0,0,0,0,0,0,0,0,0,0,0,0,0,0,0,0,0,0,0,0,0,0,0,0,0,0,0,0,0,0,0,0,0,0,0,0,0,0,0,0,0,0,0,0,0,0,0,0,0,0,0,0,0,0,0,0,0,0,0,0,0,0,0,0,0,0,0,0,0,0,0,0,0,0,0,0,0,0,0,0,0,0,0,0,0,0,0,0,0,0,0,0,0,0,0,0,0,0,0,0,0,0,0,0,0,0,0,0,0,0,0,0,0,0,0,0,0,0,0,0,0,0,0,0,0,0,0,0,0,0,0,0,0,0,0,0,0,0,0,0,0,0,0,0,0,0,0,0,0,0,0,0,0,0,0,0,0,0,0,0,0,0,0,0,0,0,0,0,0,0,0,0,0,0,0,0,0,0,0,0,0,0,0,0,0,0,0,0,0,0,0,0,0,0],"trees":[{"base_weights":[5.0125677E-2,-1.525239E1,3.9236703E0,-1.7183992E1,-4.4101983E-1,1.1568067E0,1.02699375E1,-9.146509E-1,-6.997876E-1,-1.2172666E0,2.4937508E0,3.852299E-1,5.8320254E-1,-2.6392217E0,-6.540423E-1,1.6018351E0,1.7568173E-1,-1.732688E-1,-1.0467179E-1,-1.0545166E0,-3.945848E-1,1.0626601E0,1.9668019E0,-5.461666E-2,-2.4890423E-2,-2.6782513E-2,-8.629799E-4,3.5753164E-2,6.489099E-2,8.3576955E-2,1.0779581E-1],"categories":[],"categories_nodes":[],"categories_segments":[],"categories_sizes":[],"default_left":[0,0,0,0,0,0,0,0,0,0,0,0,0,0,0,0,0,0,0,0,0,0,0,0,0,0,0,0,0,0,0],"id":0,"left_children":[1,3,5,7,-1,9,11,-1,-1,13,15,-1,-1,17,19,21,-1,-1,-1,23,25,27,29,-1,-1,-1,-1,-1,-1,-1,-1],"loss_changes":[3.550628E4,1.3517422E3,8.381443E3,6.927344E1,0E0,1.0631526E3,4.2870703E2,0E0,0E0,9.518028E1,1.8903699E2,0E0,0E0,8.076172E0,8.727638E0,2.0736542E1,0E0,0E0,0E0,1.7201996E-1,2.91827E0,3.0772743E0,1.9332886E-1,0E0,0E0,0E0,0E0,0E0,0E0,0E0,0E0],"parents":[2147483647,0,0,1,1,2,2,3,3,5,5,6,6,9,9,10,10,13,13,14,14,15,15,19,19,20,20,21,21,22,22],"right_children":[2,4,6,8,-1,10,12,-1,-1,14,16,-1,-1,18,20,22,-1,-1,-1,24,26,28,30,-1,-1,-1,-1,-1,-1,-1,-1],"split_conditions":[7.883E1,7.084E1,8.901E1,6.674E1,-4.4101983E-1,8.372E1,9.271E1,-9.146509E-1,-6.997876E-1,8.122E1,8.565E1,3.852299E-1,5.8320254E-1,8.083437E1,8.217E1,8.438E1,1.7568173E-1,-1.732688E-1,-1.0467179E-1,8.254E1,8.277E1,8.9800476E1,8.487E1,-5.461666E-2,-2.4890423E-2,-2.6782513E-2,-8.629799E-4,3.5753164E-2,6.489099E-2,8.3576955E-2,1.0779581E-1],"split_indices":[0,3,0,0,0,1,3,0,0,3,3,0,0,8,3,3,0,0,0,0,3,12,3,0,0,0,0,0,0,0,0],"split_type":[0,0,0,0,0,0,0,0,0,0,0,0,0,0,0,0,0,0,0,0,0,0,0,0,0,0,0,0,0,0,0],"sum_hessian":[5.97E2,1.2E2,4.77E2,9.1E1,2.9E1,3.33E2,1.44E2,6.4E1,2.7E1,1.2E2,2.13E2,5.3E1,9.1E1,3.3E1,8.7E1,1.15E2,9.8E1,1.1E1,2.2E1,3.3E1,5.4E1,4.8E1,6.7E1,3E1,3E0,3.9E1,1.5E1,2.1E1,2.7E1,3E1,3.7E1],"tree_param":{"num_deleted":"0","num_feature":"16","num_nodes":"31","size_leaf_vector":"1"}},{"base_weights":[1.6258007E-1,-1.4308963E1,3.7645893E0,-1.631288E1,-4.2694506E-1,1.175823E0,9.972825E0,-8.7802345E-1,-6.8488985E-1,-1.2168818E0,2.3614416E0,3.8957158E-1,5.5879223E-1,-2.3705316E0,-5.75087E-1,1.5242865E0,3.3057137E0,-1.6797127E-1,-1.9618825E0,-9.289585E-1,-3.5487798E-1,9.947071E-1,1.8561687E0,2.8674183E0,1.8251628E-1,-2.5644874E-2,-9.970807E-2,-1.4490383E-2,-4.842491E-2,2.1947099E-2,-2.0046832E-2,5.180983E-2,-2.3882484E-2,4.4395544E-2,9.426993E-2,1.4483584E-1,3.579483E-2],"categories":[],"categories_nodes":[],"categories_segments":[],"categories_sizes":[],"default_left":[0,0,0,0,0,0,0,0,0,0,0,0,0,0,0,0,0,0,0,0,0,0,0,0,0,0,0,0,0,0,0,0,0,0,0,0,0],"id":1,"left_children":[1,3,5,7,-1,9,11,-1,-1,13,15,-1,-1,17,19,21,23,-1,25,27,29,31,33,35,-1,-1,-1,-1,-1,-1,-1,-1,-1,-1,-1,-1,-1],"loss_changes":[3.033944E4,1.2019824E3,7.477674E3,3.6777344E1,0E0,9.390293E2,2.7244727E2,0E0,0E0,8.008145E1,1.6966211E2,0E0,0E0,9.169495E0,5.280985E0,1.9068878E1,5.090332E0,0E0,3.8035583E-1,4.0166283E-1,1.8578534E0,3.4271317E0,3.637085E-1,1.078064E0,0E0,0E0,0E0,0E0,0E0,0E0,0E0,0E0,0E0,0E0,0E0,0E0,0E0],"parents":[2147483647,0,0,1,1,2,2,3,3,5,5,6,6,9,9,10,10,13,13,14,14,15,15,16,16,18,18,19,19,20,20,21,21,22,22,23,23],"right_children":[2,4,6,8,-1,10,12,-1,-1,14,16,-1,-1,18,20,22,24,-1,26,28,30,32,34,36,-1,-1,-1,-1,-1,-1,-1,-1,-1,-1,-1,-1,-1],"split_conditions":[7.883E1,7.223346E1,8.925E1,6.701E1,-4.2694506E-1,8.372E1,9.344E1,-8.7802345E-1,-6.8488985E-1,8.178E1,8.567E1,3.8957158E-1,5.5879223E-1,8.083437E1,8.236E1,8.46E1,8.672E1,-1.6797127E-1,2.6648485E-3,8.215451E1,-8.807252E-1,1.5037656E4,8.9827736E1,4.5203996E4,1.8251628E-1,-2.5644874E-2,-9.970807E-2,-1.4490383E-2,-4.842491E-2,2.1947099E-2,-2.0046832E-2,5.180983E-2,-2.3882484E-2,4.4395544E-2,9.426993E-2,1.4483584E-1,3.579483E-2],"split_indices":[0,8,1,1,0,1,1,0,0,1,0,0,0,8,1,1,1,0,15,9,7,4,12,4,0,0,0,0,0,0,0,0,0,0,0,0,0],"split_type":[0,0,0,0,0,0,0,0,0,0,0,0,0,0,0,0,0,0,0,0,0,0,0,0,0,0,0,0,0,0,0,0,0,0,0,0,0],"sum_hessian":[5.8E2,1.15E2,4.65E2,8.4E1,3.1E1,3.29E2,1.36E2,5.3E1,3.1E1,1.09E2,2.2E2,5.1E1,8.5E1,3.8E1,7.1E1,1.18E2,1.02E2,9E0,2.9E1,2.6E1,4.5E1,4.7E1,7.1E1,4.9E1,5.3E1,1E0,2.8E1,2E0,2.4E1,2E0,4.3E1,4.6E1,1E0,3E0,6.8E1,4.8E1,1E0],"tree_param":{"num_deleted":"0","num_feature":"16","num_nodes":"37","size_leaf_vector":"1"}},{"base_weights":[-2.1545596E-1,-1.3829419E1,3.38277E0,-8.099815E-1,-9.255718E0,9.923978E-1,9.360203E0,-5.39771E-1,-3.3956608E-1,-1.2329538E0,2.170772E0,3.2494676E-1,1.0414112E1,-2.3697722E0,-6.417426E-1,1.3879174E0,3.0949059E0,4.5724678E-1,5.71212E-1,-1.5897742E-1,-9.764881E-2,-1.0231193E0,-3.6031327E-1,9.572296E-1,1.7632715E0,1.2845322E-1,1.6674179E-1,-5.182121E-2,-1.4934159E-2,-2.2472618E-2,-1.3862957E-3,3.4399297E-2,5.67484E-2,7.000496E-2,9.482647E-2],"categories":[],"categories_nodes":[],"categories_segments":[],"categories_sizes":[],"default_left":[0,0,0,0,0,0,0,0,0,0,0,0,0,0,0,0,0,0,0,0,0,0,0,0,0,0,0,0,0,0,0,0,0,0,0],"id":2,"left_children":[1,3,5,-1,7,9,11,-1,-1,13,15,-1,17,19,21,23,25,-1,-1,-1,-1,27,29,31,33,-1,-1,-1,-1,-1,-1,-1,-1,-1,-1],"loss_changes":[2.9291494E4,1.2051406E3,6.749072E3,0E0,9.743457E1,8.9163513E2,3.3941406E2,0E0,0E0,7.7787E1,1.5631323E2,0E0,1.9881836E1,7.290863E0,8.110477E0,1.8034698E1,4.175293E0,0E0,0E0,0E0,0E0,8.506775E-3,1.3809257E0,2.0426025E0,4.4200134E-1,0E0,0E0,0E0,0E0,0E0,0E0,0E0,0E0,0E0,0E0],"parents":[2147483647,0,0,1,1,2,2,4,4,5,5,6,6,9,9,10,10,12,12,13,13,14,14,15,15,16,16,21,21,22,22,23,23,24,24],"right_children":[2,4,6,-1,8,10,12,-1,-1,14,16,-1,18,20,22,24,26,-1,-1,-1,-1,28,30,32,34,-1,-1,-1,-1,-1,-1,-1,-1,-1,-1],"split_conditions":[7.883E1,7.009101E1,8.888E1,-8.099815E-1,7.529677E1,8.312E1,9.21E1,-5.39771E-1,-3.3956608E-1,8.122E1,8.555E1,3.2494676E-1,9.453E1,7.973E1,8.217E1,8.438E1,8.616E1,4.5724678E-1,5.71212E-1,-1.5897742E-1,-9.764881E-2,7.311272E-2,8.277E1,8.9800476E1,8.474E1,1.2845322E-1,1.6674179E-1,-5.182121E-2,-1.4934159E-2,-2.2472618E-2,-1.3862957E-3,3.4399297E-2,5.67484E-2,7.000496E-2,9.482647E-2],"split_indices":[0,8,0,0,8,3,3,0,0,3,3,0,3,3,3,3,3,0,0,0,0,6,3,12,3,0,0,0,0,0,0,0,0,0,0],"split_type":[0,0,0,0,0,0,0,0,0,0,0,0,0,0,0,0,0,0,0,0,0,0,0,0,0,0,0,0,0,0,0,0,0,0,0],"sum_hessian":[5.96E2,1.24E2,4.72E2,8E1,4.4E1,3.38E2,1.34E2,2.5E1,1.9E1,1.17E2,2.21E2,3.8E1,9.6E1,3.9E1,7.8E1,1.21E2,1E2,4.7E1,4.9E1,1.1E1,2.8E1,3.2E1,4.6E1,5.8E1,6.3E1,3.5E1,6.5E1,3.1E1,1E0,3.6E1,1E1,2.5E1,3.3E1,2E1,4.3E1],"tree_param":{"num_deleted":"0","num_feature":"16","num_nodes":"35","size_leaf_vector":"1"}},{"base_weights":[-1.21903956E-1,-1.3019327E1,3.444581E0,-1.5086779E1,-7.835334E0,1.0517229E0,8.982158E0,-7.999981E-1,-6.3026613E-1,-4.8206997E-1,-6.3660383E0,-1.0527283E0,2.1466086E0,6.650912E0,1.0032337E1,-3.2408494E-1,-8.975487E-2,-2.1176004E0,-6.2185323E-1,1.4003398E0,3.0267885E0,2.436833E-1,3.5539737E-1,4.3316656E-1,5.3952193E-1,-1.24633364E-1,-8.5502125E-2,-9.468275E-1,-3.58397E-1,9.442575E-1,8.628272E-2,1.3220535E-1,1.6971235E-1,-1.8887585E-2,-4.842766E-2,-2.3075214E-2,-3.7514549E-3,-2.3596382E-2,4.9028367E-2],"categories":[],"categories_nodes":[],"categories_segments":[],"categories_sizes":[],"default_left":[0,0,0,0,0,0,0,0,0,0,0,0,0,0,0,0,0,0,0,0,0,0,0,0,0,0,0,0,0,0,0,0,0,0,0,0,0,0,0],"id":3,"left_children":[1,3,5,7,9,11,13,-1,-1,-1,15,17,19,21,23,-1,-1,25,27,29,31,-1,-1,-1,-1,-1,-1,33,35,37,-1,-1,-1,-1,-1,-1,-1,-1,-1],"loss_changes":[2.8241906E4,1.3072363E3,6.364109E3,1.1322266E1,4.476831E1,7.787527E2,2.8826855E2,0E0,0E0,0E0,1.581604E0,5.190709E1,1.4158246E2,4.346924E0,8.227539E0,0E0,0E0,7.818451E-1,6.8524437E0,1.647171E1,5.227783E0,0E0,0E0,0E0,0E0,0E0,0E0,9.157944E-2,1.3678036E0,3.188095E0,0E0,0E0,0E0,0E0,0E0,0E0,0E0,0E0,0E0],"parents":[2147483647,0,0,1,1,2,2,3,3,4,4,5,5,6,6,10,10,11,11,12,12,13,13,14,14,17,17,18,18,19,19,20,20,27,27,28,28,29,29],"right_children":[2,4,6,8,10,12,14,-1,-1,-1,16,18,20,22,24,-1,-1,26,28,30,32,-1,-1,-1,-1,-1,-1,34,36,38,-1,-1,-1,-1,-1,-1,-1,-1,-1],"split_conditions":[7.9E1,6.999E1,8.925E1,6.635E1,7.529677E1,8.312E1,9.248E1,-7.999981E-1,-6.3026613E-1,-4.8206997E-1,7.887E1,8.122E1,8.565E1,9.039E1,9.404E1,-3.2408494E-1,-8.975487E-2,8.092E1,8.217E1,8.438E1,8.646E1,2.436833E-1,3.5539737E-1,4.3316656E-1,5.3952193E-1,-1.24633364E-1,-8.5502125E-2,-1.2442332E-2,1.0753223E-1,2.1357616E1,8.628272E-2,1.3220535E-1,1.6971235E-1,-1.8887585E-2,-4.842766E-2,-2.3075214E-2,-3.7514549E-3,-2.3596382E-2,4.9028367E-2],"split_indices":[0,3,1,3,8,3,3,0,0,0,3,3,3,3,3,0,0,1,3,3,3,0,0,0,0,0,0,13,7,5,0,0,0,0,0,0,0,0,0],"split_type":[0,0,0,0,0,0,0,0,0,0,0,0,0,0,0,0,0,0,0,0,0,0,0,0,0,0,0,0,0,0,0,0,0,0,0,0,0,0,0],"sum_hessian":[6.12E2,1.32E2,4.8E2,9.3E1,3.9E1,3.36E2,1.44E2,6.4E1,2.9E1,1.5E1,2.4E1,1.15E2,2.21E2,4.7E1,9.7E1,2.3E1,1E0,3.2E1,8.3E1,1.21E2,1E2,1.2E1,3.5E1,3.9E1,5.8E1,1.4E1,1.8E1,3.6E1,4.7E1,5.2E1,6.9E1,5.3E1,4.7E1,2E0,3.4E1,3.4E1,1.3E1,1E0,5.1E1],"tree_param":{"num_deleted":"0","num_feature":"16","num_nodes":"39","size_leaf_vector":"1"}},{"base_weights":[3.6258835E-1,-1.2532115E1,3.2361264E0,-1.4158628E1,-3.66059E-1,9.828946E-1,8.421053E0,-7.460115E-1,-5.617935E-1,-1.0470519E0,1.9891435E0,6.3024793E0,9.536653E0,-2.045272E0,-5.7891285E-1,1.2680498E0,2.7713747E0,2.2929005E-1,3.3674717E-1,4.2174527E-1,5.2866864E-1,-1.4698215E-1,-8.423752E-2,-8.763406E-1,-3.2240573E-1,5.449756E-1,1.4506737E0,1.2323119E-1,1.5549289E-1,-4.879291E-2,-3.3597946E-2,-2.1237478E-2,-3.6379134E-3,3.1771936E-2,-5.5715563E-3,6.107104E-2,8.416755E-2],"categories":[],"categories_nodes":[],"categories_segments":[],"categories_sizes":[],"default_left":[0,0,0,0,0,0,0,0,0,0,0,0,0,0,0,0,0,0,0,0,0,0,0,0,0,0,0,0,0,0,0,0,0,0,0,0,0],"id":4,"left_children":[1,3,5,7,-1,9,11,-1,-1,13,15,17,19,21,23,25,27,-1,-1,-1,-1,-1,-1,29,31,33,35,-1,-1,-1,-1,-1,-1,-1,-1,-1,-1],"loss_changes":[2.2161447E4,8.201875E2,5.7046323E3,1.4888672E1,0E0,7.006628E2,2.896914E2,0E0,0E0,5.2088837E1,1.2565588E2,9.204834E0,1.9323242E1,6.6552887E0,5.7445583E0,1.51875305E1,3.652832E0,0E0,0E0,0E0,0E0,0E0,0E0,7.648659E-2,1.0932903E0,1.6147027E0,3.064743E0,0E0,0E0,0E0,0E0,0E0,0E0,0E0,0E0,0E0,0E0],"parents":[2147483647,0,0,1,1,2,2,3,3,5,5,6,6,9,9,10,10,11,11,12,12,13,13,14,14,15,15,16,16,23,23,24,24,25,25,26,26],"right_children":[2,4,6,8,-1,10,12,-1,-1,14,16,18,20,22,24,26,28,-1,-1,-1,-1,-1,-1,30,32,34,36,-1,-1,-1,-1,-1,-1,-1,-1,-1,-1],"split_conditions":[7.731E1,7.598668E1,8.88E1,6.703E1,-3.66059E-1,8.312E1,9.271E1,-7.460115E-1,-5.617935E-1,8.122E1,8.555E1,8.978E1,9.478E1,7.973E1,8.217E1,8.9800476E1,8.646E1,2.2929005E-1,3.3674717E-1,4.2174527E-1,5.2866864E-1,-1.4698215E-1,-8.423752E-2,-1.177995E-3,1.0753223E-1,-1.2262761E-1,8.474E1,1.2323119E-1,1.5549289E-1,-4.879291E-2,-3.3597946E-2,-2.1237478E-2,-3.6379134E-3,3.1771936E-2,-5.5715563E-3,6.107104E-2,8.416755E-2],"split_indices":[3,10,3,3,0,3,3,0,0,3,3,3,3,3,3,12,3,0,0,0,0,0,0,13,7,6,3,0,0,0,0,0,0,0,0,0,0],"split_type":[0,0,0,0,0,0,0,0,0,0,0,0,0,0,0,0,0,0,0,0,0,0,0,0,0,0,0,0,0,0,0,0,0,0,0,0,0],"sum_hessian":[5.96E2,1.08E2,4.88E2,8.1E1,2.7E1,3.41E2,1.47E2,6.1E1,2E1,1.13E2,2.28E2,5.3E1,9.4E1,3.5E1,7.8E1,1.2E2,1.08E2,1.3E1,4E1,5E1,4.4E1,8E0,2.7E1,3.5E1,4.3E1,2.5E1,9.5E1,6.1E1,4.7E1,2.1E1,1.4E1,3E1,1.3E1,2.2E1,3E0,5.1E1,4.4E1],"tree_param":{"num_deleted":"0","num_feature":"16","num_nodes":"37","size_leaf_vector":"1"}},{"base_weights":[1.0700079E-1,-1.1820583E1,3.2054927E0,-1.3685191E1,-6.9655747E0,9.398011E-1,7.9777536E0,-7.3480254E-1,-5.746913E-1,-4.120156E-1,-2.581112E-1,-9.4135076E-1,1.89756E0,2.8018048E-1,8.860421E0,-1.9286134E0,-5.3969944E-1,1.2339747E0,2.7349248E0,3.8693368E-1,4.9035215E-1,-1.22763984E-1,-8.078877E-2,-8.312577E-1,-2.9979077E-1,8.4661305E-1,7.9194896E-2,1.1527995E-1,1.4665873E-1,-4.3288052E-2,-1.6939545E-2,-1.9299153E-2,-1.1706989E-3,2.6684126E-2,5.1098704E-2],"categories":[],"categories_nodes":[],"categories_segments":[],"categories_sizes":[],"default_left":[0,0,0,0,0,0,0,0,0,0,0,0,0,0,0,0,0,0,0,0,0,0,0,0,0,0,0,0,0,0,0,0,0,0,0],"id":5,"left_children":[1,3,5,7,9,11,13,-1,-1,-1,-1,15,17,-1,19,21,23,25,27,-1,-1,-1,-1,29,31,33,-1,-1,-1,-1,-1,-1,-1,-1,-1],"loss_changes":[2.258198E4,1.0453125E3,5.236552E3,3.0451172E1,4.2517334E1,5.9634393E2,2.7725977E2,0E0,0E0,0E0,0E0,4.3371086E1,1.1831531E2,0E0,4.3036133E1,1.3051834E0,5.4165344E0,1.5466858E1,1.4082031E0,0E0,0E0,0E0,0E0,3.183918E-1,1.0867538E0,2.8020134E0,0E0,0E0,0E0,0E0,0E0,0E0,0E0,0E0,0E0],"parents":[2147483647,0,0,1,1,2,2,3,3,4,4,5,5,6,6,11,11,12,12,14,14,15,15,16,16,17,17,18,18,23,23,24,24,25,25],"right_children":[2,4,6,8,10,12,14,-1,-1,-1,-1,16,18,-1,20,22,24,26,28,-1,-1,-1,-1,30,32,34,-1,-1,-1,-1,-1,-1,-1,-1,-1],"split_conditions":[7.9E1,6.999E1,8.888E1,6.631E1,7.466E1,8.312E1,9.175E1,-7.3480254E-1,-5.746913E-1,-4.120156E-1,-2.581112E-1,8.122E1,8.567E1,2.8018048E-1,9.404E1,8.033E1,8.217E1,8.462E1,8.595E1,3.8693368E-1,4.9035215E-1,-1.22763984E-1,-8.078877E-2,8.198E1,8.277E1,8.335202E1,7.9194896E-2,1.1527995E-1,1.4665873E-1,-4.3288052E-2,-1.6939545E-2,-1.9299153E-2,-1.1706989E-3,2.6684126E-2,5.1098704E-2],"split_indices":[0,3,0,3,3,3,3,0,0,0,0,3,3,0,3,3,3,3,2,0,0,0,0,2,3,11,0,0,0,0,0,0,0,0,0],"split_type":[0,0,0,0,0,0,0,0,0,0,0,0,0,0,0,0,0,0,0,0,0,0,0,0,0,0,0,0,0,0,0,0,0,0,0],"sum_hessian":[6.09E2,1.25E2,4.84E2,8.9E1,3.6E1,3.29E2,1.55E2,5.7E1,3.2E1,1.9E1,1.7E1,1.11E2,2.18E2,4.4E1,1.11E2,3.1E1,8E1,1.23E2,9.5E1,5.5E1,5.6E1,9E0,2.2E1,3.5E1,4.5E1,6E1,6.3E1,3.4E1,6.1E1,3.2E1,3E0,3.4E1,1.1E1,2.3E1,3.7E1],"tree_param":{"num_deleted":"0","num_feature":"16","num_nodes":"35","size_leaf_vector":"1"}},{"base_weights":[2.4557749E-2,-1.122522E1,2.860388E0,-6.535992E-1,-7.4403067E0,8.2260907E-1,7.6094933E0,-4.450615E-1,-5.7075934E0,-8.96618E-1,1.7774656E0,2.66752E-1,8.493729E0,-2.9145536E-1,-7.889538E-2,-1.7023233E0,-4.6241492E-1,1.1270134E0,2.513361E0,3.7125453E-1,4.6530634E-1,-1.1355486E-1,-1.4272392E0,-7.3028785E-1,-2.870854E-1,6.340565E-1,1.3213084E0,1.1468377E-1,1.4231513E-1,-3.2236099E-3,-7.352579E-2,-3.8097452E-2,-1.6304398E-2,-2.0772059E-2,-6.5361657E-3,3.550855E-2,-6.668663E-3,5.5267345E-2,7.354936E-2],"categories":[],"categories_nodes":[],"categories_segments":[],"categories_sizes":[],"default_left":[0,0,0,0,0,0,0,0,0,0,0,0,0,0,0,0,0,0,0,0,0,0,0,0,0,0,0,0,0,0,0,0,0,0,0,0,0,0,0],"id":6,"left_children":[1,3,5,-1,7,9,11,-1,13,15,17,-1,19,-1,-1,21,23,25,27,-1,-1,-1,29,31,33,35,37,-1,-1,-1,-1,-1,-1,-1,-1,-1,-1,-1,-1],"loss_changes":[1.9173586E4,7.485117E2,4.639001E3,0E0,5.5512695E1,5.54818E2,2.4429199E2,0E0,1.842102E0,4.1543427E1,1.0103772E2,0E0,1.9453125E1,0E0,0E0,3.3299408E0,3.5476284E0,1.0368347E1,8.588257E-1,0E0,0E0,0E0,1.7334442E0,1.482563E-1,9.491911E-1,2.1391563E0,1.0570221E0,0E0,0E0,0E0,0E0,0E0,0E0,0E0,0E0,0E0,0E0,0E0,0E0],"parents":[2147483647,0,0,1,1,2,2,4,4,5,5,6,6,8,8,9,9,10,10,12,12,15,15,16,16,17,17,18,18,22,22,23,23,24,24,25,25,26,26],"right_children":[2,4,6,-1,8,10,12,-1,14,16,18,-1,20,-1,-1,22,24,26,28,-1,-1,-1,30,32,34,36,38,-1,-1,-1,-1,-1,-1,-1,-1,-1,-1,-1,-1],"split_conditions":[7.887E1,6.958E1,8.888E1,-6.535992E-1,7.4E1,8.312E1,9.21E1,-4.450615E-1,7.9E1,8.148E1,8.555E1,2.66752E-1,9.453E1,-2.9145536E-1,-7.889538E-2,8.033E1,8.217E1,8.412E1,8.658E1,3.7125453E-1,4.6530634E-1,-1.1355486E-1,4.3980866E-3,8.198E1,8.2268715E1,-1.2262761E-1,8.474E1,1.1468377E-1,1.4231513E-1,-3.2236099E-3,-7.352579E-2,-3.8097452E-2,-1.6304398E-2,-2.0772059E-2,-6.5361657E-3,3.550855E-2,-6.668663E-3,5.5267345E-2,7.354936E-2],"split_indices":[3,1,0,0,1,3,3,0,0,3,3,0,3,0,0,3,3,3,3,0,0,0,15,2,8,6,3,0,0,0,0,0,0,0,0,0,0,0,0],"split_type":[0,0,0,0,0,0,0,0,0,0,0,0,0,0,0,0,0,0,0,0,0,0,0,0,0,0,0,0,0,0,0,0,0,0,0,0,0,0,0],"sum_hessian":[5.99E2,1.2E2,4.79E2,7.9E1,4.1E1,3.36E2,1.43E2,2E1,2.1E1,1.2E2,2.16E2,4.2E1,1.01E2,2E1,1E0,4.1E1,7.9E1,1.16E2,1E2,4.8E1,5.3E1,1.1E1,3E1,3E1,4.9E1,3.4E1,8.2E1,6.5E1,3.5E1,1E0,2.9E1,2.7E1,3E0,2.6E1,2.3E1,3.1E1,3E0,3.7E1,4.5E1],"tree_param":{"num_deleted":"0","num_feature":"16","num_nodes":"39","size_leaf_vector":"1"}},{"base_weights":[1.0061518E-1,-1.0940534E1,2.639646E0,-6.226622E-1,-7.103929E0,7.8908336E-1,7.1301746E0,-4.2840233E-1,-2.8253224E-1,-1.0112013E0,1.749461E0,5.1250863E0,7.949303E0,-1.9020549E0,-4.9570426E-1,1.0791892E0,2.4220665E0,1.9798219E-1,2.7956814E-1,3.470922E-1,4.3301496E-1,-1.4340064E-1,-7.022297E-2,-7.4529636E-1,-3.058729E-1,7.6471156E-1,1.37506E0,1.0891606E-1,1.3812672E-1,-2.8620591E-2,-4.466052E-2,-1.871301E-2,-5.1742555E-3,2.5185127E-2,4.805204E-2,6.928926E-2,1.9093132E-2],"categories":[],"categories_nodes":[],"categories_segments":[],"categories_sizes":[],"default_left":[0,0,0,0,0,0,0,0,0,0,0,0,0,0,0,0,0,0,0,0,0,0,0,0,0,0,0,0,0,0,0,0,0,0,0,0,0],"id":7,"left_children":[1,3,5,-1,7,9,11,-1,-1,13,15,17,19,21,23,25,27,-1,-1,-1,-1,-1,-1,29,31,33,35,-1,-1,-1,-1,-1,-1,-1,-1,-1,-1],"loss_changes":[1.6793102E4,5.6154297E2,4.0413467E3,0E0,2.3929565E1,5.999869E2,1.9248291E2,0E0,0E0,5.4624252E1,9.927338E1,1.7705078E0,1.079541E1,1.7120865E1,3.4677086E0,9.648621E0,3.2768555E0,0E0,0E0,0E0,0E0,0E0,0E0,3.3259392E-1,5.9794426E-1,2.48806E0,8.8653564E-2,0E0,0E0,0E0,0E0,0E0,0E0,0E0,0E0,0E0,0E0],"parents":[2147483647,0,0,1,1,2,2,4,4,5,5,6,6,9,9,10,10,11,11,12,12,13,13,14,14,15,15,16,16,23,23,24,24,25,25,26,26],"right_children":[2,4,6,-1,8,10,12,-1,-1,14,16,18,20,22,24,26,28,-1,-1,-1,-1,-1,-1,30,32,34,36,-1,-1,-1,-1,-1,-1,-1,-1,-1,-1],"split_conditions":[7.707E1,6.958E1,8.888E1,-6.226622E-1,7.4242874E1,8.312E1,9.21E1,-4.2840233E-1,-2.8253224E-1,8.148E1,8.555E1,9.218107E1,9.378E1,8.083437E1,8.217E1,8.487E1,8.663E1,1.9798219E-1,2.7956814E-1,3.470922E-1,4.3301496E-1,-1.4340064E-1,-7.022297E-2,8.1160614E1,1.0753223E-1,8.335202E1,8.831174E1,1.0891606E-1,1.3812672E-1,-2.8620591E-2,-4.466052E-2,-1.871301E-2,-5.1742555E-3,2.5185127E-2,4.805204E-2,6.928926E-2,1.9093132E-2],"split_indices":[1,1,0,0,8,3,3,0,0,3,3,9,3,8,3,1,3,0,0,0,0,0,0,11,7,11,10,0,0,0,0,0,0,0,0,0,0],"split_type":[0,0,0,0,0,0,0,0,0,0,0,0,0,0,0,0,0,0,0,0,0,0,0,0,0,0,0,0,0,0,0,0,0,0,0,0,0],"sum_hessian":[5.97E2,1.11E2,4.86E2,7.8E1,3.3E1,3.45E2,1.41E2,1.4E1,1.9E1,1.2E2,2.25E2,4.3E1,9.8E1,4.3E1,7.7E1,1.14E2,1.11E2,1.5E1,2.8E1,4.5E1,5.3E1,1.3E1,3E1,3.2E1,4.5E1,5.7E1,5.7E1,6.9E1,4.2E1,1.7E1,1.5E1,3.3E1,1.2E1,2.6E1,3.1E1,5.6E1,1E0],"tree_param":{"num_deleted":"0","num_feature":"16","num_nodes":"37","size_leaf_vector":"1"}},{"base_weights":[1.0040409E-1,-1.0381891E1,2.63414E0,-6.0681164E-1,-7.195456E0,9.0918076E-1,7.1328454E0,-4.092744E-1,-2.3678477E-1,-6.3137513E-1,1.8519574E0,2.9767928E-1,4.146541E-1,-1.4676715E0,-2.0621169E-1,1.18352E0,2.451378E0,-1.0680485E-1,-1.1885899E0,-4.1893464E-1,4.3167412E-1,9.035724E-1,1.4311821E0,1.1136898E-1,3.090656E0,-2.350998E-2,-6.214719E-2,-2.7678028E-2,-1.2019767E-2,2.733624E-2,-4.592667E-3,2.4279615E-2,4.8426628E-2,7.22068E-2,1.8615723E-2,4.5558166E-2,1.5697192E-1],"categories":[],"categories_nodes":[],"categories_segments":[],"categories_sizes":[],"default_left":[0,0,0,0,0,0,0,0,0,0,0,0,0,0,0,0,0,0,0,0,0,0,0,0,0,0,0,0,0,0,0,0,0,0,0,0,0],"id":8,"left_children":[1,3,5,-1,7,9,11,-1,-1,13,15,-1,-1,17,19,21,23,-1,25,27,29,31,33,-1,35,-1,-1,-1,-1,-1,-1,-1,-1,-1,-1,-1,-1],"loss_changes":[1.5962968E4,5.6671484E2,3.7493953E3,0E0,6.838672E1,5.1096176E2,1.3396826E2,0E0,0E0,4.7342754E1,8.4445984E1,0E0,0E0,5.855591E0,1.2393211E1,5.986725E0,9.440369E0,0E0,7.431793E-1,1.5013752E0,1.4355593E0,9.41597E-1,2.0301819E-1,0E0,1.0070801E-2,0E0,0E0,0E0,0E0,0E0,0E0,0E0,0E0,0E0,0E0,0E0,0E0],"parents":[2147483647,0,0,1,1,2,2,4,4,5,5,6,6,9,9,10,10,13,13,14,14,15,15,16,16,18,18,19,19,20,20,21,21,22,22,24,24],"right_children":[2,4,6,-1,8,10,12,-1,-1,14,16,-1,-1,18,20,22,24,-1,26,28,30,32,34,-1,36,-1,-1,-1,-1,-1,-1,-1,-1,-1,-1,-1,-1],"split_conditions":[7.883E1,6.936041E1,8.929E1,-6.0681164E-1,7.529677E1,8.383E1,9.372E1,-4.092744E-1,-2.3678477E-1,8.167E1,8.567E1,2.9767928E-1,4.146541E-1,8.198251E1,8.293E1,8.474E1,8.695E1,-1.0680485E-1,4.3980866E-3,6.0244355E-2,-1.2262761E-1,8.9827736E1,8.831174E1,1.1136898E-1,-7.9868037E-1,-2.350998E-2,-6.214719E-2,-2.7678028E-2,-1.2019767E-2,2.733624E-2,-4.592667E-3,2.4279615E-2,4.8426628E-2,7.22068E-2,1.8615723E-2,4.5558166E-2,1.5697192E-1],"split_indices":[0,8,3,0,8,3,3,0,0,3,3,0,0,10,3,3,3,0,15,6,6,12,10,0,6,0,0,0,0,0,0,0,0,0,0,0,0],"split_type":[0,0,0,0,0,0,0,0,0,0,0,0,0,0,0,0,0,0,0,0,0,0,0,0,0,0,0,0,0,0,0,0,0,0,0,0,0],"sum_hessian":[5.99E2,1.16E2,4.83E2,7.3E1,4.3E1,3.5E2,1.33E2,2.9E1,1.4E1,1.33E2,2.17E2,6.9E1,6.4E1,4.4E1,8.9E1,1.04E2,1.13E2,1.1E1,3.3E1,6.7E1,2.2E1,5.1E1,5.3E1,8.7E1,2.6E1,3E0,3E1,3.7E1,3E1,1.8E1,4E0,8E0,4.3E1,5.2E1,1E0,1E0,2.5E1],"tree_param":{"num_deleted":"0","num_feature":"16","num_nodes":"37","size_leaf_vector":"1"}},{"base_weights":[1.9443221E-1,-9.718243E0,2.6618252E0,-1.1087941E1,-5.4723887E0,9.0704244E-1,6.8494473E0,-6.227704E-1,-4.8004705E-1,-2.937376E-1,-1.790626E-1,-4.5723185E-1,1.8622755E0,5.8311453E0,3.9591292E-1,-1.2351035E0,3.0840555E-2,1.2266283E0,2.3865094E0,2.414546E-1,3.142372E-1,-8.2845494E-2,-8.424281E-1,-2.758165E-1,4.335251E-1,4.267971E-2,1.3606478E0,1.0617377E-1,1.5310985E-1,-9.44252E-3,-4.411838E-2,-2.17377E-2,-5.619181E-3,2.3798442E-2,-2.8422356E-2,4.645952E-2,7.150225E-2],"categories":[],"categories_nodes":[],"categories_segments":[],"categories_sizes":[],"default_left":[0,0,0,0,0,0,0,0,0,0,0,0,0,0,0,0,0,0,0,0,0,0,0,0,0,0,0,0,0,0,0,0,0,0,0,0,0],"id":9,"left_children":[1,3,5,7,9,11,13,-1,-1,-1,-1,15,17,19,-1,21,23,25,27,-1,-1,-1,29,31,33,-1,35,-1,-1,-1,-1,-1,-1,-1,-1,-1,-1],"loss_changes":[1.4603111E4,6.313721E2,3.506307E3,6.1390625E1,2.5496826E0,4.41333E2,1.072876E2,0E0,0E0,0E0,0E0,5.3190163E1,6.338501E1,4.194824E0,0E0,7.548355E0,1.086286E1,3.4379883E0,1.26922E1,0E0,0E0,0E0,6.1647034E-1,1.2499216E0,1.8866062E0,0E0,6.47377E-1,0E0,0E0,0E0,0E0,0E0,0E0,0E0,0E0,0E0,0E0],"parents":[2147483647,0,0,1,1,2,2,3,3,4,4,5,5,6,6,11,11,12,12,13,13,15,15,16,16,17,17,18,18,22,22,23,23,24,24,26,26],"right_children":[2,4,6,8,10,12,14,-1,-1,-1,-1,16,18,20,-1,22,24,26,28,-1,-1,-1,30,32,34,-1,36,-1,-1,-1,-1,-1,-1,-1,-1,-1,-1],"split_conditions":[7.934E1,7.464516E1,8.929E1,6.3595455E1,7.957095E1,8.415E1,9.383E1,-6.227704E-1,-4.8004705E-1,-2.937376E-1,-1.790626E-1,8.202E1,8.58E1,9.229E1,3.9591292E-1,8.12E1,8.293E1,8.462E1,8.698E1,2.414546E-1,3.142372E-1,-8.2845494E-2,-3.8205102E-2,8.237E1,8.402E1,4.267971E-2,3.4545456E1,1.0617377E-1,1.5310985E-1,-9.44252E-3,-4.411838E-2,-2.17377E-2,-5.619181E-3,2.3798442E-2,-2.8422356E-2,4.645952E-2,7.150225E-2],"split_indices":[1,9,3,11,9,3,3,0,0,0,0,3,3,1,0,1,3,3,3,0,0,0,14,3,2,0,5,0,0,0,0,0,0,0,0,0,0],"split_type":[0,0,0,0,0,0,0,0,0,0,0,0,0,0,0,0,0,0,0,0,0,0,0,0,0,0,0,0,0,0,0,0,0,0,0,0,0],"sum_hessian":[5.95E2,1.18E2,4.77E2,8.8E1,3E1,3.37E2,1.4E2,4.2E1,4.6E1,2.3E1,7E0,1.39E2,1.98E2,7.5E1,6.5E1,5.3E1,8.6E1,9.1E1,1.07E2,2.7E1,4.8E1,2.4E1,2.9E1,4.9E1,3.7E1,2.6E1,6.5E1,8E1,2.7E1,2E0,2.7E1,2.4E1,2.5E1,3.6E1,1E0,1.1E1,5.4E1],"tree_param":{"num_deleted":"0","num_feature":"16","num_nodes":"37","size_leaf_vector":"1"}},{"base_weights":[8.702228E-3,-9.195791E0,2.464466E0,-1.0292457E1,-2.397021E-1,7.6302814E-1,6.4025073E0,-5.758489E-1,-4.3698177E-1,-7.0309895E-1,1.5316392E0,5.218082E0,3.685477E-1,-1.598287E0,-4.2300805E-1,9.912428E-1,2.1340573E0,1.6758491E-1,2.702423E-1,-5.5462915E-2,-1.7715502E0,-5.6294006E-1,-6.528501E-2,6.8946075E-1,1.2406327E0,1.9183666E0,1.2864469E-1,-1.0001739E-1,-6.034551E-2,-3.6014E-2,-2.0590782E-2,-9.727533E-3,1.6591918E-2,2.2249041E-2,4.047928E-2,2.1467082E-2,6.297865E-2,2.6912881E-2,9.648714E-2],"categories":[],"categories_nodes":[],"categories_segments":[],"categories_sizes":[],"default_left":[0,0,0,0,0,0,0,0,0,0,0,0,0,0,0,0,0,0,0,0,0,0,0,0,0,0,0,0,0,0,0,0,0,0,0,0,0,0,0],"id":10,"left_children":[1,3,5,7,-1,9,11,-1,-1,13,15,17,-1,19,21,23,25,-1,-1,-1,27,29,31,33,35,37,-1,-1,-1,-1,-1,-1,-1,-1,-1,-1,-1,-1,-1],"loss_changes":[1.4059785E4,5.8302637E2,3.284978E3,9.709863E1,0E0,3.8872418E2,1.3130176E2,0E0,0E0,2.916127E1,7.145764E1,6.28479E0,0E0,4.0734863E-1,4.5684834E0,8.251259E0,5.097473E0,0E0,0E0,0E0,4.033661E-2,1.2727203E0,1.4505881E0,1.3137302E0,4.5801544E-1,1.3885498E-1,0E0,0E0,0E0,0E0,0E0,0E0,0E0,0E0,0E0,0E0,0E0,0E0,0E0],"parents":[2147483647,0,0,1,1,2,2,3,3,5,5,6,6,9,9,10,10,11,11,13,13,14,14,15,15,16,16,20,20,21,21,22,22,23,23,24,24,25,25],"right_children":[2,4,6,8,-1,10,12,-1,-1,14,16,18,-1,20,22,24,26,-1,-1,-1,28,30,32,34,36,38,-1,-1,-1,-1,-1,-1,-1,-1,-1,-1,-1,-1,-1],"split_conditions":[7.9E1,7.184E1,8.939E1,6.642E1,-2.397021E-1,8.303E1,9.311E1,-5.758489E-1,-4.3698177E-1,8.12E1,8.529E1,8.983E1,3.685477E-1,-4.65908E-1,8.236E1,8.494E1,8.659E1,1.6758491E-1,2.702423E-1,-5.5462915E-2,8.035E1,8.233E1,8.321E1,8.335202E1,8.9827736E1,8.541E1,1.2864469E-1,-1.0001739E-1,-6.034551E-2,-3.6014E-2,-2.0590782E-2,-9.727533E-3,1.6591918E-2,2.2249041E-2,4.047928E-2,2.1467082E-2,6.297865E-2,2.6912881E-2,9.648714E-2],"split_indices":[0,2,1,1,0,2,2,0,0,1,2,2,0,7,2,1,2,0,0,0,2,1,1,11,12,0,0,0,0,0,0,0,0,0,0,0,0,0,0],"split_type":[0,0,0,0,0,0,0,0,0,0,0,0,0,0,0,0,0,0,0,0,0,0,0,0,0,0,0,0,0,0,0,0,0,0,0,0,0,0,0],"sum_hessian":[6.2E2,1.3E2,4.9E2,1.03E2,2.7E1,3.43E2,1.47E2,5.4E1,4.9E1,1.18E2,2.25E2,6.9E1,7.8E1,2.7E1,9.1E1,1.2E2,1.05E2,8E0,6.1E1,9E0,1.8E1,6.5E1,2.6E1,5.6E1,6.4E1,7.4E1,3.1E1,1.1E1,7E0,3E1,3.5E1,2E1,6E0,2E1,3.6E1,2E0,6.2E1,1E0,7.3E1],"tree_param":{"num_deleted":"0","num_feature":"16","num_nodes":"39","size_leaf_vector":"1"}},{"base_weights":[-9.443927E-2,-8.723798E0,2.3303902E0,-5.202698E-1,-6.013859E0,7.0963067E-1,5.900224E0,-3.5945052E-1,-4.5041404E0,-7.273252E-1,1.4110441E0,4.116402E0,6.541917E0,-2.2908261E-1,-6.6096306E-2,-1.3590344E0,-3.8219497E-1,9.012398E-1,1.9420012E0,1.5509161E-1,2.245008E-1,2.9324672E-1,3.7638792E-1,-9.854221E-2,-1.143396E0,-4.7776046E-1,-4.1747093E-2,5.427025E-1,1.0779506E0,8.1681505E-2,1.1091703E-1,1.203537E-3,-5.929755E-2,-3.0491183E-2,-1.6903374E-2,-5.1163067E-3,3.8136167E-3,2.939651E-2,-2.8268052E-2,4.585217E-2,6.305906E-2],"categories":[],"categories_nodes":[],"categories_segments":[],"categories_sizes":[],"default_left":[0,0,0,0,0,0,0,0,0,0,0,0,0,0,0,0,0,0,0,0,0,0,0,0,0,0,0,0,0,0,0,0,0,0,0,0,0,0,0,0,0],"id":11,"left_children":[1,3,5,-1,7,9,11,-1,13,15,17,19,21,-1,-1,23,25,27,29,-1,-1,-1,-1,-1,31,33,35,37,39,-1,-1,-1,-1,-1,-1,-1,-1,-1,-1,-1,-1],"loss_changes":[1.2114818E4,5.16166E2,2.611014E3,0E0,5.8101196E1,3.1549115E2,1.3446875E2,0E0,1.0986328E-1,2.1936836E1,5.5093506E1,1.2350464E0,2.3924316E1,0E0,0E0,2.4960175E0,2.19244E0,6.3209457E0,5.0679626E0,0E0,0E0,0E0,0E0,0E0,1.4693108E0,7.715988E-1,1.221967E-1,2.2367687E0,9.662247E-1,0E0,0E0,0E0,0E0,0E0,0E0,0E0,0E0,0E0,0E0,0E0,0E0],"parents":[2147483647,0,0,1,1,2,2,4,4,5,5,6,6,8,8,9,9,10,10,11,11,12,12,15,15,16,16,17,17,18,18,24,24,25,25,26,26,27,27,28,28],"right_children":[2,4,6,-1,8,10,12,-1,14,16,18,20,22,-1,-1,24,26,28,30,-1,-1,-1,-1,-1,32,34,36,38,40,-1,-1,-1,-1,-1,-1,-1,-1,-1,-1,-1,-1],"split_conditions":[7.887E1,7.127771E1,8.742E1,-5.202698E-1,7.4806595E1,8.312E1,9.175E1,-3.5945052E-1,7.9E1,8.148E1,8.542E1,9.391743E1,9.482E1,-2.2908261E-1,-6.6096306E-2,8.033E1,1.0753223E-1,8.415E1,8.639E1,1.5509161E-1,2.245008E-1,2.9324672E-1,3.7638792E-1,-9.854221E-2,4.3980866E-3,8.217E1,6.519174E1,8.402E1,8.486E1,8.1681505E-2,1.1091703E-1,1.203537E-3,-5.929755E-2,-3.0491183E-2,-1.6903374E-2,-5.1163067E-3,3.8136167E-3,2.939651E-2,-2.8268052E-2,4.585217E-2,6.305906E-2],"split_indices":[3,10,2,0,8,3,3,0,0,3,3,12,3,0,0,3,7,3,3,0,0,0,0,0,15,3,5,2,3,0,0,0,0,0,0,0,0,0,0,0,0],"split_type":[0,0,0,0,0,0,0,0,0,0,0,0,0,0,0,0,0,0,0,0,0,0,0,0,0,0,0,0,0,0,0,0,0,0,0,0,0,0,0,0,0],"sum_hessian":[5.77E2,1.26E2,4.51E2,7.6E1,5E1,3.11E2,1.4E2,2.6E1,2.4E1,1.02E2,2.09E2,3.9E1,1.01E2,2.3E1,1E0,3.5E1,6.7E1,1.08E2,1.01E2,1.3E1,2.6E1,6.4E1,3.7E1,7E0,2.8E1,5.2E1,1.5E1,3.7E1,7.1E1,5.1E1,5E1,1E0,2.7E1,2.5E1,2.7E1,1E1,5E0,3.6E1,1E0,4.1E1,3E1],"tree_param":{"num_deleted":"0","num_feature":"16","num_nodes":"41","size_leaf_vector":"1"}},{"base_weights":[-1.0881654E-1,-8.628002E0,2.1268144E0,-9.910755E0,-5.8916774E0,5.8803374E-1,5.5825424E0,-5.6891257E-1,-4.4951305E-1,-3.4591633E-1,-2.1825574E-1,-7.7674353E-1,1.3207082E0,4.1619377E0,6.3694715E0,-1.7856835E0,-4.5776483E-1,8.506552E-1,1.903139E0,1.6673885E-1,2.2644196E-1,2.8511718E-1,3.621546E-1,-1.093319E-1,-6.4620696E-2,-7.009017E-1,-2.0467658E-1,4.3730828E-1,1.0303009E0,8.0398574E-2,1.02917984E-1,-4.3689214E-2,-2.5300918E-2,-1.3854091E-2,-9.693691E-4,2.389142E-2,-2.756138E-2,4.2760216E-2,5.986753E-2],"categories":[],"categories_nodes":[],"categories_segments":[],"categories_sizes":[],"default_left":[0,0,0,0,0,0,0,0,0,0,0,0,0,0,0,0,0,0,0,0,0,0,0,0,0,0,0,0,0,0,0,0,0,0,0,0,0,0,0],"id":12,"left_children":[1,3,5,7,9,11,13,-1,-1,-1,-1,15,17,19,21,23,25,27,29,-1,-1,-1,-1,-1,-1,31,33,35,37,-1,-1,-1,-1,-1,-1,-1,-1,-1,-1],"loss_changes":[1.1636262E4,3.8738184E2,2.570439E3,1.2526367E1,3.719226E1,3.370048E2,1.4006006E2,0E0,0E0,0E0,0E0,3.715856E1,5.8337433E1,1.8926392E0,1.3482422E1,2.7117538E0,5.456236E0,8.68293E0,1.1343689E0,0E0,0E0,0E0,0E0,0E0,0E0,1.1076775E0,6.117598E-1,1.8255601E0,1.4622574E0,0E0,0E0,0E0,0E0,0E0,0E0,0E0,0E0,0E0,0E0],"parents":[2147483647,0,0,1,1,2,2,3,3,4,4,5,5,6,6,11,11,12,12,13,13,14,14,15,15,16,16,17,17,18,18,25,25,26,26,27,27,28,28],"right_children":[2,4,6,8,10,12,14,-1,-1,-1,-1,16,18,20,22,24,26,28,30,-1,-1,-1,-1,-1,-1,32,34,36,38,-1,-1,-1,-1,-1,-1,-1,-1,-1,-1],"split_conditions":[7.627E1,6.936041E1,8.825E1,6.393E1,7.23E1,8.312E1,9.248E1,-5.6891257E-1,-4.4951305E-1,-3.4591633E-1,-2.1825574E-1,8.210845E1,8.565E1,9.076E1,9.494E1,7.973E1,8.217E1,8.415E1,8.595E1,1.6673885E-1,2.2644196E-1,2.8511718E-1,3.621546E-1,-1.093319E-1,-6.4620696E-2,8.167E1,8.277E1,8.402E1,8.487E1,8.0398574E-2,1.02917984E-1,-4.3689214E-2,-2.5300918E-2,-1.3854091E-2,-9.693691E-4,2.389142E-2,-2.756138E-2,4.2760216E-2,5.986753E-2],"split_indices":[3,8,2,3,2,3,3,0,0,0,0,9,3,3,3,3,3,3,2,0,0,0,0,0,0,3,3,2,3,0,0,0,0,0,0,0,0,0,0],"split_type":[0,0,0,0,0,0,0,0,0,0,0,0,0,0,0,0,0,0,0,0,0,0,0,0,0,0,0,0,0,0,0,0,0,0,0,0,0,0,0],"sum_hessian":[6.09E2,1.26E2,4.83E2,8.4E1,4.2E1,3.35E2,1.48E2,2.8E1,5.6E1,2.3E1,1.9E1,1.17E2,2.18E2,5.5E1,9.3E1,2.7E1,9E1,1.22E2,9.6E1,2E1,3.5E1,5.7E1,3.6E1,1.3E1,1.4E1,4.5E1,4.5E1,3.8E1,8.4E1,3.7E1,5.9E1,2.2E1,2.3E1,3.2E1,1.3E1,3.7E1,1E0,4.4E1,4E1],"tree_param":{"num_deleted":"0","num_feature":"16","num_nodes":"39","size_leaf_vector":"1"}},{"base_weights":[2.5323926E-2,-7.7534475E0,2.0487456E0,-8.812256E0,-4.361068E0,5.668392E-1,5.3233275E0,-4.8817143E-1,-3.776358E-1,-2.2764432E-1,-1.2265175E-1,-6.512326E-1,1.2770919E0,3.633979E0,5.9265347E0,-1.2811111E0,-3.3214155E-1,8.1501853E-1,1.7932478E0,1.4479288E-1,2.0180772E-1,2.6576278E-1,3.333541E-1,-8.840783E-2,-1.0598241E0,-5.599749E-1,-1.8714201E-1,3.371464E-1,9.2398673E-1,7.850357E-2,1.0056453E-1,2.2655488E-3,-5.4974735E-2,-2.114508E-2,-3.4810692E-2,-1.4108414E-2,1.9181728E-3,1.979283E-2,-2.239418E-2,3.937764E-2,5.2581202E-2],"categories":[],"categories_nodes":[],"categories_segments":[],"categories_sizes":[],"default_left":[0,0,0,0,0,0,0,0,0,0,0,0,0,0,0,0,0,0,0,0,0,0,0,0,0,0,0,0,0,0,0,0,0,0,0,0,0,0,0,0,0],"id":13,"left_children":[1,3,5,7,9,11,13,-1,-1,-1,-1,15,17,19,21,23,25,27,29,-1,-1,-1,-1,-1,31,33,35,37,39,-1,-1,-1,-1,-1,-1,-1,-1,-1,-1,-1,-1],"loss_changes":[9.302329E3,3.9977783E2,2.2728635E3,3.6479492E1,1.7749023E-1,2.811366E2,1.2724072E2,0E0,0E0,0E0,0E0,2.369312E1,4.7431335E1,4.8284912E-1,1.2547119E1,2.4371414E0,2.5710993E0,5.4164963E0,1.5136719E0,0E0,0E0,0E0,0E0,0E0,1.3650551E0,2.8448677E-1,1.103701E0,1.1912613E0,7.2164154E-1,0E0,0E0,0E0,0E0,0E0,0E0,0E0,0E0,0E0,0E0,0E0,0E0],"parents":[2147483647,0,0,1,1,2,2,3,3,4,4,5,5,6,6,11,11,12,12,13,13,14,14,15,15,16,16,17,17,18,18,24,24,25,25,26,26,27,27,28,28],"right_children":[2,4,6,8,10,12,14,-1,-1,-1,-1,16,18,20,22,24,26,28,30,-1,-1,-1,-1,-1,32,34,36,38,40,-1,-1,-1,-1,-1,-1,-1,-1,-1,-1,-1,-1],"split_conditions":[7.887E1,7.233E1,8.742E1,6.642E1,8.213699E1,8.303E1,9.175E1,-4.8817143E-1,-3.776358E-1,-2.2764432E-1,-1.2265175E-1,8.148E1,8.565E1,9.391743E1,9.478E1,8.033E1,8.217E1,8.9827736E1,8.646E1,1.4479288E-1,2.0180772E-1,2.6576278E-1,3.333541E-1,-8.840783E-2,4.3980866E-3,8.127403E1,8.277E1,-1.5184388E-1,8.474E1,7.850357E-2,1.0056453E-1,2.2655488E-3,-5.4974735E-2,-2.114508E-2,-3.4810692E-2,-1.4108414E-2,1.9181728E-3,1.979283E-2,-2.239418E-2,3.937764E-2,5.2581202E-2],"split_indices":[3,1,2,1,10,2,3,0,0,0,0,3,3,12,3,3,3,12,3,0,0,0,0,0,15,11,3,7,3,0,0,0,0,0,0,0,0,0,0,0,0],"split_type":[0,0,0,0,0,0,0,0,0,0,0,0,0,0,0,0,0,0,0,0,0,0,0,0,0,0,0,0,0,0,0,0,0,0,0,0,0,0,0,0,0],"sum_hessian":[5.89E2,1.21E2,4.68E2,9.1E1,3E1,3.23E2,1.45E2,4.8E1,4.3E1,2.6E1,4E0,1.19E2,2.04E2,4E1,1.05E2,3.9E1,8E1,1.09E2,9.5E1,1.7E1,2.3E1,6.2E1,4.3E1,1E1,2.9E1,3E1,5E1,2.1E1,8.8E1,5.1E1,4.4E1,1E0,2.8E1,1.7E1,1.3E1,3.5E1,1.5E1,2E1,1E0,4.6E1,4.2E1],"tree_param":{"num_deleted":"0","num_feature":"16","num_nodes":"41","size_leaf_vector":"1"}},{"base_weights":[9.227545E-3,-7.3314595E0,1.9667243E0,-8.402935E0,-3.9883769E0,5.557139E-1,5.2383146E0,-4.773418E-1,-3.6141214E-1,-2.1787603E-1,-1.3702542E-1,-5.940171E-1,1.21954E0,3.5827017E0,5.7769623E0,-1.3014034E0,-3.6457992E-1,7.753095E-1,1.6780857E0,1.342477E-1,1.9531111E-1,2.4689905E-1,3.13283E-1,-1.54281E0,-4.6627644E-2,-7.039694E-1,-2.5428203E-1,3.3540726E-1,8.9176595E-1,1.381655E0,9.071749E-2,-8.712015E-2,-3.776123E-2,-6.1380006E-3,-4.1315354E-2,-1.7923193E-2,-5.805421E-3,-9.006246E-3,1.9523067E-2,3.7674632E-2,6.0302686E-2,7.01046E-2,1.6658975E-2],"categories":[],"categories_nodes":[],"categories_segments":[],"categories_sizes":[],"default_left":[0,0,0,0,0,0,0,0,0,0,0,0,0,0,0,0,0,0,0,0,0,0,0,0,0,0,0,0,0,0,0,0,0,0,0,0,0,0,0,0,0,0,0],"id":14,"left_children":[1,3,5,7,9,11,13,-1,-1,-1,-1,15,17,19,21,23,25,27,29,-1,-1,-1,-1,31,-1,33,35,37,39,41,-1,-1,-1,-1,-1,-1,-1,-1,-1,-1,-1,-1,-1],"loss_changes":[8.463609E3,4.106577E2,2.143644E3,5.595996E1,2.798767E0,2.495346E2,1.0415405E2,0E0,0E0,0E0,0E0,1.9001625E1,4.086487E1,2.5827026E-1,1.1700928E1,1.1434898E0,3.2649164E0,5.1824417E0,1.5728455E0,0E0,0E0,0E0,0E0,1.1992416E0,0E0,1.4628458E0,9.804373E-1,7.5150275E-1,2.741684E0,3.0425262E-1,0E0,0E0,0E0,0E0,0E0,0E0,0E0,0E0,0E0,0E0,0E0,0E0,0E0],"parents":[2147483647,0,0,1,1,2,2,3,3,4,4,5,5,6,6,11,11,12,12,13,13,14,14,15,15,16,16,17,17,18,18,23,23,25,25,26,26,27,27,28,28,29,29],"right_children":[2,4,6,8,10,12,14,-1,-1,-1,-1,16,18,20,22,24,26,28,30,-1,-1,-1,-1,32,-1,34,36,38,40,42,-1,-1,-1,-1,-1,-1,-1,-1,-1,-1,-1,-1,-1],"split_conditions":[7.9E1,7.577219E1,8.888E1,6.492E1,7.957095E1,8.314E1,9.14E1,-4.773418E-1,-3.6141214E-1,-2.1787603E-1,-1.3702542E-1,8.858302E1,8.517E1,9.391743E1,9.265487E1,8.035E1,3.2946793E1,8.9827736E1,8.591E1,1.342477E-1,1.9531111E-1,2.4689905E-1,3.13283E-1,4.244482E-3,-4.6627644E-2,-9.15927E-1,8.24E1,8.421804E1,5.0153374E1,2.7178258E-2,9.071749E-2,-8.712015E-2,-3.776123E-2,-6.1380006E-3,-4.1315354E-2,-1.7923193E-2,-5.805421E-3,-9.006246E-3,1.9523067E-2,3.7674632E-2,6.0302686E-2,7.01046E-2,1.6658975E-2],"split_indices":[0,9,0,2,9,0,2,0,0,0,0,12,2,12,9,2,5,12,2,0,0,0,0,13,0,6,0,9,5,14,0,0,0,0,0,0,0,0,0,0,0,0,0],"split_type":[0,0,0,0,0,0,0,0,0,0,0,0,0,0,0,0,0,0,0,0,0,0,0,0,0,0,0,0,0,0,0,0,0,0,0,0,0,0,0,0,0,0,0],"sum_hessian":[5.87E2,1.23E2,4.64E2,9.2E1,3.1E1,3.25E2,1.39E2,4.3E1,4.9E1,2.2E1,9E0,1.19E2,2.06E2,3.6E1,1.03E2,2.8E1,9.1E1,1.06E2,1E2,1.2E1,2.4E1,4.2E1,6.1E1,1.5E1,1.3E1,2.1E1,7E1,2.3E1,8.3E1,3.5E1,6.5E1,1.1E1,4E0,4E0,1.7E1,3.9E1,3.1E1,2E0,2.1E1,6E1,2.3E1,3.4E1,1E0],"tree_param":{"num_deleted":"0","num_feature":"16","num_nodes":"43","size_leaf_vector":"1"}},{"base_weights":[7.71515E-2,-6.9649E0,1.8485751E0,-7.9977555E0,-3.741614E0,5.4934794E-1,4.8195686E0,-4.636816E-1,-3.4435228E-1,-1.9897656E-1,-1.17869735E-1,-4.4331115E-1,1.2116828E0,3.7490175E0,5.531146E0,-1.0335091E0,-1.6263913E-1,8.012899E-1,1.6306499E0,1.314925E-1,1.9847144E-1,2.4139743E-1,3.0111897E-1,-7.8376316E-2,-8.46048E-1,-2.9325432E-1,2.9292914E-1,6.0053945E-1,1.0102692E0,1.4565334E0,9.28355E-2,-1.1539555E-2,-4.490721E-2,-2.255102E-2,-9.71387E-3,1.890617E-2,-8.183861E-3,5.9633637E-3,3.1797387E-2,3.3662707E-2,5.506876E-2,7.387437E-2,2.8295645E-2],"categories":[],"categories_nodes":[],"categories_segments":[],"categories_sizes":[],"default_left":[0,0,0,0,0,0,0,0,0,0,0,0,0,0,0,0,0,0,0,0,0,0,0,0,0,0,0,0,0,0,0,0,0,0,0,0,0,0,0,0,0,0,0],"id":15,"left_children":[1,3,5,7,9,11,13,-1,-1,-1,-1,15,17,19,21,23,25,27,29,-1,-1,-1,-1,-1,31,33,35,37,39,41,-1,-1,-1,-1,-1,-1,-1,-1,-1,-1,-1,-1,-1],"loss_changes":[7.4476514E3,3.6957812E2,1.8385706E3,6.367334E1,8.2788086E-1,2.1947556E2,8.972168E1,0E0,0E0,0E0,0E0,2.202929E1,3.3081604E1,4.6083374E0,2.861328E-1,2.9784203E0,5.5602837E0,3.7144241E0,1.1529846E0,0E0,0E0,0E0,0E0,0E0,8.825016E-1,1.0366716E0,8.78795E-1,8.614063E-1,7.630005E-1,2.835846E-1,0E0,0E0,0E0,0E0,0E0,0E0,0E0,0E0,0E0,0E0,0E0,0E0,0E0],"parents":[2147483647,0,0,1,1,2,2,3,3,4,4,5,5,6,6,11,11,12,12,13,13,14,14,15,15,16,16,17,17,18,18,24,24,25,25,26,26,27,27,28,28,29,29],"right_children":[2,4,6,8,10,12,14,-1,-1,-1,-1,16,18,20,22,24,26,28,30,-1,-1,-1,-1,-1,32,34,36,38,40,42,-1,-1,-1,-1,-1,-1,-1,-1,-1,-1,-1,-1,-1],"split_conditions":[7.887E1,7.233E1,8.825E1,6.3595455E1,7.707E1,8.383E1,9.316E1,-4.636816E-1,-3.4435228E-1,-1.9897656E-1,-1.17869735E-1,8.176E1,8.567E1,8.983E1,9.499E1,7.973E1,8.293E1,8.474E1,8.663E1,1.314925E-1,1.9847144E-1,2.4139743E-1,3.0111897E-1,-7.8376316E-2,4.3980866E-3,8.217E1,-1.2262761E-1,-6.3470393E-1,4.0447237E-3,8.641E1,9.28355E-2,-1.1539555E-2,-4.490721E-2,-2.255102E-2,-9.71387E-3,1.890617E-2,-8.183861E-3,5.9633637E-3,3.1797387E-2,3.3662707E-2,5.506876E-2,7.387437E-2,2.8295645E-2],"split_indices":[3,1,2,11,1,3,3,0,0,0,0,3,3,2,1,3,3,3,3,0,0,0,0,0,15,3,6,6,15,2,0,0,0,0,0,0,0,0,0,0,0,0,0],"split_type":[0,0,0,0,0,0,0,0,0,0,0,0,0,0,0,0,0,0,0,0,0,0,0,0,0,0,0,0,0,0,0,0,0,0,0,0,0,0,0,0,0,0,0],"sum_hessian":[5.95E2,1.19E2,4.76E2,8.9E1,3E1,3.32E2,1.44E2,3.8E1,5.1E1,2.4E1,6E0,1.33E2,1.99E2,6E1,8.4E1,4.2E1,9.1E1,1.02E2,9.7E1,1.2E1,4.8E1,3.9E1,4.5E1,9E0,3.3E1,7.1E1,2E1,5.4E1,4.8E1,5.9E1,3.8E1,3E0,3E1,2.6E1,4.5E1,1.7E1,3E0,4E0,5E1,1.2E1,3.6E1,5.7E1,2E0],"tree_param":{"num_deleted":"0","num_feature":"16","num_nodes":"43","size_leaf_vector":"1"}},{"base_weights":[-1.2274619E-1,-6.7453136E0,1.7219661E0,-8.079703E0,-4.7297554E0,4.8386788E-1,4.6315804E0,-4.6427208E-1,-3.6455628E-1,-2.8289825E-1,-1.7319216E-1,-5.7914627E-1,1.0882034E0,3.921043E0,2.8519836E-1,-1.0631585E0,-3.0404553E-1,6.8507653E-1,1.5299832E0,1.6022363E-1,2.1792765E-1,-1.2213465E0,-6.9699705E-1,-4.9181825E-1,-1.7772155E-1,2.603928E-1,7.956269E-1,1.2321396E0,1.6162881E0,-6.629904E-2,-3.590088E-2,2.9455186E-3,-3.775992E-2,-2.7037585E-2,-1.9281388E-3,-1.3388738E-2,-1.5263277E-4,1.6125401E-2,-1.4095815E-2,3.2002535E-2,4.6479244E-2,6.31478E-2,1.1543274E-2,2.2699738E-2,8.131321E-2],"categories":[],"categories_nodes":[],"categories_segments":[],"categories_sizes":[],"default_left":[0,0,0,0,0,0,0,0,0,0,0,0,0,0,0,0,0,0,0,0,0,0,0,0,0,0,0,0,0,0,0,0,0,0,0,0,0,0,0,0,0,0,0,0,0],"id":16,"left_children":[1,3,5,7,9,11,13,-1,-1,-1,-1,15,17,19,-1,21,23,25,27,-1,-1,29,31,33,35,37,39,41,43,-1,-1,-1,-1,-1,-1,-1,-1,-1,-1,-1,-1,-1,-1,-1,-1],"loss_changes":[7.121753E3,3.0335645E2,1.6404478E3,3.6103516E0,4.2678467E1,2.0684619E2,8.1262695E1,0E0,0E0,0E0,0E0,1.5255547E1,3.5460983E1,1.2681152E1,0E0,1.5814629E0,1.7153277E0,4.9102592E0,5.019226E-1,0E0,0E0,5.225601E-1,7.0441055E-1,6.445284E-1,7.3846877E-1,8.9937603E-1,1.197319E0,5.106735E-1,9.65271E-2,0E0,0E0,0E0,0E0,0E0,0E0,0E0,0E0,0E0,0E0,0E0,0E0,0E0,0E0,0E0,0E0],"parents":[2147483647,0,0,1,1,2,2,3,3,4,4,5,5,6,6,11,11,12,12,13,13,15,15,16,16,17,17,18,18,21,21,22,22,23,23,24,24,25,25,26,26,27,27,28,28],"right_children":[2,4,6,8,10,12,14,-1,-1,-1,-1,16,18,20,-1,22,24,26,28,-1,-1,30,32,34,36,38,40,42,44,-1,-1,-1,-1,-1,-1,-1,-1,-1,-1,-1,-1,-1,-1,-1,-1],"split_conditions":[7.9E1,6.936041E1,8.888E1,6.393E1,7.4806595E1,8.312E1,9.383E1,-4.6427208E-1,-3.6455628E-1,-2.8289825E-1,-1.7319216E-1,8.148E1,8.565E1,9.175E1,2.8519836E-1,8.858302E1,-7.164179E-4,8.9827736E1,9.095318E1,1.6022363E-1,2.1792765E-1,2.1715527E-3,8.217362E1,1.0753223E-1,8.24E1,-1.5184388E-1,8.474E1,8.653473E1,8.330415E1,-6.629904E-2,-3.590088E-2,2.9455186E-3,-3.775992E-2,-2.7037585E-2,-1.9281388E-3,-1.3388738E-2,-1.5263277E-4,1.6125401E-2,-1.4095815E-2,3.2002535E-2,4.6479244E-2,6.31478E-2,1.1543274E-2,2.2699738E-2,8.131321E-2],"split_indices":[0,8,0,3,8,3,3,0,0,0,0,3,3,3,0,12,13,12,12,0,0,13,9,7,0,7,3,9,11,0,0,0,0,0,0,0,0,0,0,0,0,0,0,0,0],"split_type":[0,0,0,0,0,0,0,0,0,0,0,0,0,0,0,0,0,0,0,0,0,0,0,0,0,0,0,0,0,0,0,0,0,0,0,0,0,0,0,0,0,0,0,0,0],"sum_hessian":[5.81E2,1.26E2,4.55E2,7.4E1,5.2E1,3.2E2,1.35E2,2.5E1,4.9E1,2.8E1,2.4E1,1.16E2,2.04E2,8.4E1,5.1E1,4.1E1,7.5E1,1.08E2,9.6E1,3.5E1,4.9E1,2.7E1,1.4E1,2.9E1,4.6E1,2.3E1,8.5E1,2.5E1,7.1E1,2.1E1,6E0,1E0,1.3E1,2.6E1,3E0,3E1,1.6E1,2.1E1,2E0,4.2E1,4.3E1,2.4E1,1E0,1E0,7E1],"tree_param":{"num_deleted":"0","num_feature":"16","num_nodes":"45","size_leaf_vector":"1"}},{"base_weights":[-9.066451E-2,-6.5383472E0,1.688202E0,-7.8120704E0,-4.3950987E0,4.7261956E-1,4.3862143E0,-4.4991803E-1,-3.492168E-1,-2.634748E-1,-1.5697622E-1,-5.112102E-1,1.0243266E0,3.3867855E0,5.0208664E0,-1.2083173E0,-2.9639798E-1,6.7267597E-1,1.4975879E0,1.1861751E-1,1.7976575E-1,2.3167562E-1,3.0337292E-1,-8.0316085E-1,-1.3662753E0,-4.832455E-1,-1.372551E-1,3.6923733E-1,7.983254E-1,1.1566054E0,8.08213E-2,-4.244211E-2,-9.80072E-3,-3.3343315E-2,-7.308497E-2,2.0511628E-3,-2.4868889E-2,-9.785706E-3,3.2087327E-3,-2.8387452E-2,2.1950042E-2,3.1656746E-2,4.4899613E-2,5.92431E-2,1.1254692E-2],"categories":[],"categories_nodes":[],"categories_segments":[],"categories_sizes":[],"default_left":[0,0,0,0,0,0,0,0,0,0,0,0,0,0,0,0,0,0,0,0,0,0,0,0,0,0,0,0,0,0,0,0,0,0,0,0,0,0,0,0,0,0,0,0,0],"id":17,"left_children":[1,3,5,7,9,11,13,-1,-1,-1,-1,15,17,19,21,23,25,27,29,-1,-1,-1,-1,31,33,35,37,39,41,43,-1,-1,-1,-1,-1,-1,-1,-1,-1,-1,-1,-1,-1,-1,-1],"loss_changes":[6.7895527E3,3.1509326E2,1.5196874E3,1.4724609E1,3.834973E1,1.7475787E2,7.433325E1,0E0,0E0,0E0,0E0,1.7012522E1,3.3275665E1,3.951538E0,6.7507324E0,6.306E-1,2.6098619E0,4.2804565E0,1.655838E0,0E0,0E0,0E0,0E0,1.1096716E-1,2.2656631E-1,3.241787E-1,6.0132915E-1,2.6678367E0,8.1443024E-1,4.1765213E-1,0E0,0E0,0E0,0E0,0E0,0E0,0E0,0E0,0E0,0E0,0E0,0E0,0E0,0E0,0E0],"parents":[2147483647,0,0,1,1,2,2,3,3,4,4,5,5,6,6,11,11,12,12,13,13,14,14,15,15,16,16,17,17,18,18,23,23,24,24,25,25,26,26,27,27,28,28,29,29],"right_children":[2,4,6,8,10,12,14,-1,-1,-1,-1,16,18,20,22,24,26,28,30,-1,-1,-1,-1,32,34,36,38,40,42,44,-1,-1,-1,-1,-1,-1,-1,-1,-1,-1,-1,-1,-1,-1,-1],"split_conditions":[7.887E1,6.936041E1,9.097961E1,6.393E1,7.529677E1,8.428408E1,9.316E1,-4.4991803E-1,-3.492168E-1,-2.634748E-1,-1.5697622E-1,8.103E1,8.58E1,8.945E1,9.626E1,-4.2798385E-1,8.217E1,8.415E1,9.095318E1,1.1861751E-1,1.7976575E-1,2.3167562E-1,3.0337292E-1,3.75E1,3.83429E3,-3.8205102E-2,8.308E1,2.1357616E1,8.505E1,8.653473E1,8.08213E-2,-4.244211E-2,-9.80072E-3,-3.3343315E-2,-7.308497E-2,2.0511628E-3,-2.4868889E-2,-9.785706E-3,3.2087327E-3,-2.8387452E-2,2.1950042E-2,3.1656746E-2,4.4899613E-2,5.92431E-2,1.1254692E-2],"split_indices":[3,8,10,3,8,9,3,0,0,0,0,3,3,2,1,7,3,3,12,0,0,0,0,5,4,14,1,5,1,9,0,0,0,0,0,0,0,0,0,0,0,0,0,0,0],"split_type":[0,0,0,0,0,0,0,0,0,0,0,0,0,0,0,0,0,0,0,0,0,0,0,0,0,0,0,0,0,0,0,0,0,0,0,0,0,0,0,0,0,0,0,0,0],"sum_hessian":[5.9E2,1.27E2,4.63E2,7.8E1,4.9E1,3.2E2,1.43E2,2.8E1,5E1,2.7E1,2.2E1,1.15E2,2.05E2,5.8E1,8.5E1,2.6E1,8.9E1,1.19E2,8.6E1,1.2E1,4.6E1,6.6E1,1.9E1,9E0,1.7E1,4E1,4.9E1,3.6E1,8.3E1,2.5E1,6.1E1,8E0,1E0,3E0,1.4E1,1E0,3.9E1,3.8E1,1.1E1,2E0,3.4E1,3.4E1,4.9E1,2.4E1,1E0],"tree_param":{"num_deleted":"0","num_feature":"16","num_nodes":"45","size_leaf_vector":"1"}},{"base_weights":[1.1580915E-2,-5.9861317E0,1.6210057E0,-6.82754E0,-3.2485447E0,5.010191E-1,4.1567216E0,-3.8717696E-1,-2.9058155E-1,-1.7805041E-1,-1.102512E-1,-3.2603064E-1,1.0765538E0,3.2655466E0,4.812449E0,-8.2185024E-1,-8.261223E-2,7.139963E-1,1.3839704E0,1.1495451E-1,1.742884E-1,2.2160505E-1,2.8531086E-1,-1.0835519E0,-5.477133E-1,-2.641643E-1,2.2579302E-1,5.30683E-1,8.4480107E-1,1.2321556E0,8.389323E-2,-5.8937814E-2,-3.1660717E-2,-1.3271262E-2,-3.6519434E-2,-2.1475045E-2,-7.3300996E-3,-2.7445222E-3,1.6253194E-2,7.415924E-3,2.8400555E-2,1.2877846E-2,4.50897E-2,4.435245E-2,6.6054E-2],"categories":[],"categories_nodes":[],"categories_segments":[],"categories_sizes":[],"default_left":[0,0,0,0,0,0,0,0,0,0,0,0,0,0,0,0,0,0,0,0,0,0,0,0,0,0,0,0,0,0,0,0,0,0,0,0,0,0,0,0,0,0,0,0,0],"id":18,"left_children":[1,3,5,7,9,11,13,-1,-1,-1,-1,15,17,19,21,23,25,27,29,-1,-1,-1,-1,31,33,35,37,39,41,43,-1,-1,-1,-1,-1,-1,-1,-1,-1,-1,-1,-1,-1,-1,-1],"loss_changes":[5.840035E3,2.7265918E2,1.3525819E3,4.5262695E1,2.5819092E0,1.5838159E2,6.960254E1,0E0,0E0,0E0,0E0,1.6466858E1,2.085727E1,5.8201904E0,2.5845947E0,2.6349182E0,5.266866E0,1.757679E0,2.6174316E0,0E0,0E0,0E0,0E0,1.9682312E-1,1.0437465E0,1.0838385E0,9.930718E-1,5.0094414E-1,1.50811E0,1.0683975E0,0E0,0E0,0E0,0E0,0E0,0E0,0E0,0E0,0E0,0E0,0E0,0E0,0E0,0E0,0E0],"parents":[2147483647,0,0,1,1,2,2,3,3,4,4,5,5,6,6,11,11,12,12,13,13,14,14,15,15,16,16,17,17,18,18,23,23,24,24,25,25,26,26,27,27,28,28,29,29],"right_children":[2,4,6,8,10,12,14,-1,-1,-1,-1,16,18,20,22,24,26,28,30,-1,-1,-1,-1,32,34,36,38,40,42,44,-1,-1,-1,-1,-1,-1,-1,-1,-1,-1,-1,-1,-1,-1,-1],"split_conditions":[7.934E1,7.233E1,8.902E1,6.492E1,7.795903E1,8.376E1,9.276E1,-3.8717696E-1,-2.9058155E-1,-1.7805041E-1,-1.102512E-1,8.22E1,8.529E1,9.074E1,9.626E1,8.858302E1,8.267E1,8.495E1,8.643E1,1.1495451E-1,1.742884E-1,2.2160505E-1,2.8531086E-1,2.1715527E-3,8.31806E1,-7.164179E-4,8.421804E1,8.304823E1,-7.633588E-3,-3.123141E-3,8.389323E-2,-5.8937814E-2,-3.1660717E-2,-1.3271262E-2,-3.6519434E-2,-2.1475045E-2,-7.3300996E-3,-2.7445222E-3,1.6253194E-2,7.415924E-3,2.8400555E-2,1.2877846E-2,4.50897E-2,4.435245E-2,6.6054E-2],"split_indices":[1,1,1,2,8,2,2,0,0,0,0,1,2,1,1,12,2,1,2,0,0,0,0,13,10,13,9,11,13,13,0,0,0,0,0,0,0,0,0,0,0,0,0,0,0],"split_type":[0,0,0,0,0,0,0,0,0,0,0,0,0,0,0,0,0,0,0,0,0,0,0,0,0,0,0,0,0,0,0,0,0,0,0,0,0,0,0,0,0,0,0,0,0],"sum_hessian":[6.03E2,1.27E2,4.76E2,9.6E1,3.1E1,3.31E2,1.45E2,4.7E1,4.9E1,2.2E1,9E0,1.36E2,1.95E2,6.4E1,8.1E1,4.4E1,9.2E1,9.1E1,1.04E2,1.4E1,5E1,6.1E1,2E1,2.1E1,2.3E1,5.8E1,3.4E1,4E1,5.1E1,7.2E1,3.2E1,1.6E1,5E0,1E1,1.3E1,2.3E1,3.5E1,9E0,2.5E1,4E0,3.6E1,5E0,4.6E1,1.7E1,5.5E1],"tree_param":{"num_deleted":"0","num_feature":"16","num_nodes":"45","size_leaf_vector":"1"}},{"base_weights":[5.2674763E-2,-5.7930717E0,1.504691E0,-6.5241647E0,-1.5572298E-1,4.575494E-1,3.9275928E0,-3.8033628E-1,-2.8558648E-1,-3.8246033E-1,9.9856293E-1,3.191027E0,2.3096073E-1,-9.5021904E-1,-1.549121E-1,6.619806E-1,1.3318912E0,1.1094131E-1,1.6937202E-1,-7.329674E-2,-7.810209E-1,-2.4984121E-1,2.0881768E-1,4.8401013E-1,7.939923E-1,1.0454016E0,1.457395E0,-9.888331E-3,-4.0780943E-2,-1.76912E-2,-4.5419508E-3,-4.500262E-3,1.5721282E-2,-1.1586762E-2,2.5253264E-2,6.2128257E-2,3.7303057E-2,5.321247E-2,1.0585594E-2,7.341443E-2,1.8460466E-2],"categories":[],"categories_nodes":[],"categories_segments":[],"categories_sizes":[],"default_left":[0,0,0,0,0,0,0,0,0,0,0,0,0,0,0,0,0,0,0,0,0,0,0,0,0,0,0,0,0,0,0,0,0,0,0,0,0,0,0,0,0],"id":19,"left_children":[1,3,5,7,-1,9,11,-1,-1,13,15,17,-1,19,21,23,25,-1,-1,-1,27,29,31,33,35,37,39,-1,-1,-1,-1,-1,-1,-1,-1,-1,-1,-1,-1,-1,-1],"loss_changes":[4.991242E3,2.0880322E2,1.1931871E3,3.658789E1,0E0,1.503526E2,5.75979E1,0E0,0E0,1.6647823E1,2.1668976E1,6.232483E0,0E0,2.0836258E0,3.2978544E0,2.012104E0,2.071991E0,0E0,0E0,0E0,4.4408035E-1,1.207871E0,6.594616E-1,8.102665E-1,2.9850388E-1,3.0893707E-1,2.521057E-1,0E0,0E0,0E0,0E0,0E0,0E0,0E0,0E0,0E0,0E0,0E0,0E0,0E0,0E0],"parents":[2147483647,0,0,1,1,2,2,3,3,5,5,6,6,9,9,10,10,11,11,13,13,14,14,15,15,16,16,20,20,21,21,22,22,23,23,24,24,25,25,26,26],"right_children":[2,4,6,8,-1,10,12,-1,-1,14,16,18,-1,20,22,24,26,-1,-1,-1,28,30,32,34,36,38,40,-1,-1,-1,-1,-1,-1,-1,-1,-1,-1,-1,-1,-1,-1],"split_conditions":[7.9E1,7.233E1,8.825E1,6.3595455E1,-1.5572298E-1,8.407E1,9.311E1,-3.8033628E-1,-2.8558648E-1,8.178E1,8.538E1,8.983E1,2.3096073E-1,8.08E1,8.321E1,8.495E1,8.595E1,1.1094131E-1,1.6937202E-1,-7.329674E-2,4.3980866E-3,4.7873516E-2,8.421804E1,8.138E1,-5.1503986E-1,3.9954627E-1,7.772436E1,-9.888331E-3,-4.0780943E-2,-1.76912E-2,-4.5419508E-3,-4.500262E-3,1.5721282E-2,-1.1586762E-2,2.5253264E-2,6.2128257E-2,3.7303057E-2,5.321247E-2,1.0585594E-2,7.341443E-2,1.8460466E-2],"split_indices":[0,1,2,11,0,1,2,0,0,1,2,2,0,1,1,1,2,0,0,0,15,6,9,2,7,7,5,0,0,0,0,0,0,0,0,0,0,0,0,0,0],"split_type":[0,0,0,0,0,0,0,0,0,0,0,0,0,0,0,0,0,0,0,0,0,0,0,0,0,0,0,0,0,0,0,0,0,0,0,0,0,0,0,0,0],"sum_hessian":[5.86E2,1.16E2,4.7E2,9E1,2.6E1,3.29E2,1.41E2,3.5E1,5.5E1,1.29E2,2E2,7.1E1,7E1,3.6E1,9.3E1,1.01E2,9.9E1,1.4E1,5.7E1,7E0,2.9E1,7.4E1,1.9E1,4.5E1,5.6E1,3.3E1,6.6E1,2E0,2.7E1,4.4E1,3E1,5E0,1.4E1,1E0,4.4E1,3E0,5.3E1,3.2E1,1E0,6.5E1,1E0],"tree_param":{"num_deleted":"0","num_feature":"16","num_nodes":"41","size_leaf_vector":"1"}},{"base_weights":[-3.5565604E-2,-5.565252E0,1.4537144E0,-6.5977964E0,-3.8018758E0,4.1750568E-1,3.7458713E0,-3.9593607E-1,-3.0127546E-1,-2.2442435E-1,-1.3619928E-1,-3.5160556E-1,9.2303157E-1,3.2403493E0,2.4392931E-1,-8.114139E-1,-1.1248077E-1,5.9666663E-1,1.2185544E0,2.1858523E0,1.753112E-1,-9.6137154E-1,-5.5561024E-1,-2.485442E-1,1.5886001E-1,4.35172E-1,7.1720546E-1,1.055189E0,1.3738852E0,1.11674E-1,2.7260398E-2,-5.2206676E-2,-2.8787343E-2,3.3510209E-3,-2.9696211E-2,-1.8692208E-2,-8.473075E-3,3.0818654E-2,4.25983E-3,2.2795105E-3,2.3649521E-2,2.1833707E-2,3.8940705E-2,5.3714853E-2,1.8294144E-2,1.6940499E-2,6.9404736E-2],"categories":[],"categories_nodes":[],"categories_segments":[],"categories_sizes":[],"default_left":[0,0,0,0,0,0,0,0,0,0,0,0,0,0,0,0,0,0,0,0,0,0,0,0,0,0,0,0,0,0,0,0,0,0,0,0,0,0,0,0,0,0,0,0,0,0,0],"id":20,"left_children":[1,3,5,7,9,11,13,-1,-1,-1,-1,15,17,19,-1,21,23,25,27,29,-1,31,33,35,37,39,41,43,45,-1,-1,-1,-1,-1,-1,-1,-1,-1,-1,-1,-1,-1,-1,-1,-1,-1,-1],"loss_changes":[5.006888E3,2.0979468E2,1.1361344E3,1.2761475E1,2.4777893E1,1.2901921E2,6.951074E1,0E0,0E0,0E0,0E0,1.44223385E1,1.8562592E1,2.2054443E1,0E0,1.1920376E0,3.2884052E0,1.5761337E0,1.1893616E0,6.576538E-1,0E0,2.6055145E-1,4.930582E-1,5.212822E-1,9.585462E-1,6.267042E-1,5.932026E-1,3.3135605E-1,2.6509094E-1,0E0,0E0,0E0,0E0,0E0,0E0,0E0,0E0,0E0,0E0,0E0,0E0,0E0,0E0,0E0,0E0,0E0,0E0],"parents":[2147483647,0,0,1,1,2,2,3,3,4,4,5,5,6,6,11,11,12,12,13,13,15,15,16,16,17,17,18,18,19,19,21,21,22,22,23,23,24,24,25,25,26,26,27,27,28,28],"right_children":[2,4,6,8,10,12,14,-1,-1,-1,-1,16,18,20,-1,22,24,26,28,30,-1,32,34,36,38,40,42,44,46,-1,-1,-1,-1,-1,-1,-1,-1,-1,-1,-1,-1,-1,-1,-1,-1,-1,-1],"split_conditions":[7.887E1,6.936041E1,8.798E1,6.411E1,7.529677E1,8.383E1,9.482E1,-3.9593607E-1,-3.0127546E-1,-2.2442435E-1,-1.3619928E-1,8.167E1,8.555E1,9.076E1,2.4392931E-1,8.858302E1,8.277E1,8.495E1,8.646E1,-7.3387874E-3,1.753112E-1,2.1715527E-3,8.153256E1,-8.4450544E-4,-3.9108118E-1,-6.3470393E-1,-6.5505435E-3,8.593406E1,1.4102564E1,1.11674E-1,2.7260398E-2,-5.2206676E-2,-2.8787343E-2,3.3510209E-3,-2.9696211E-2,-1.8692208E-2,-8.473075E-3,3.0818654E-2,4.25983E-3,2.2795105E-3,2.3649521E-2,2.1833707E-2,3.8940705E-2,5.3714853E-2,1.8294144E-2,1.6940499E-2,6.9404736E-2],"split_indices":[3,8,1,1,8,3,3,0,0,0,0,3,3,3,0,12,3,1,3,14,0,13,8,13,6,6,13,11,5,0,0,0,0,0,0,0,0,0,0,0,0,0,0,0,0,0,0],"split_type":[0,0,0,0,0,0,0,0,0,0,0,0,0,0,0,0,0,0,0,0,0,0,0,0,0,0,0,0,0,0,0,0,0,0,0,0,0,0,0,0,0,0,0,0,0,0,0],"sum_hessian":[6.06E2,1.28E2,4.78E2,7.9E1,4.9E1,3.3E2,1.48E2,2E1,5.9E1,2.8E1,2.1E1,1.31E2,1.99E2,1.05E2,4.3E1,4.4E1,8.7E1,9.6E1,1.03E2,2.3E1,8.2E1,2.6E1,1.8E1,5.8E1,2.9E1,4.3E1,5.3E1,5.4E1,4.9E1,2.2E1,1E0,2E1,6E0,1E0,1.7E1,2.1E1,3.7E1,3E0,2.6E1,4E0,3.9E1,1.1E1,4.2E1,5.2E1,2E0,1E0,4.8E1],"tree_param":{"num_deleted":"0","num_feature":"16","num_nodes":"47","size_leaf_vector":"1"}},{"base_weights":[-6.1508577E-2,-5.382897E0,1.2798691E0,-3.12497E-1,-3.897936E0,3.732208E-1,3.6000173E0,-2.2018401E-1,-1.4051901E-1,-4.847254E-1,8.361558E-1,1.20421946E-1,4.0008926E0,-1.4856217E0,-3.4383294E-1,5.2926373E-1,1.226754E0,1.838828E-1,2.5285718E-1,-7.661117E-2,-2.0829964E-2,-5.340328E-1,-1.439234E-1,3.0726156E-1,6.9311315E-1,9.4697464E-1,1.3172617E0,-3.5546478E-2,-1.9459892E-2,-9.762039E-3,-3.3173562E-4,1.7155245E-2,-1.26719475E-2,3.0919865E-2,4.8457637E-2,5.0564148E-2,1.5415192E-2,1.6655922E-2,6.631519E-2],"categories":[],"categories_nodes":[],"categories_segments":[],"categories_sizes":[],"default_left":[0,0,0,0,0,0,0,0,0,0,0,0,0,0,0,0,0,0,0,0,0,0,0,0,0,0,0,0,0,0,0,0,0,0,0,0,0,0,0],"id":21,"left_children":[1,3,5,-1,7,9,11,-1,-1,13,15,-1,17,19,21,23,25,-1,-1,-1,-1,27,29,31,33,35,37,-1,-1,-1,-1,-1,-1,-1,-1,-1,-1,-1,-1],"loss_changes":[4.3610645E3,1.3400366E2,1.0251929E3,0E0,1.40251465E1,1.402103E2,5.580542E1,0E0,0E0,1.6975517E1,2.6801315E1,0E0,1.588501E1,1.0895157E-1,4.1056433E0,4.5157776E0,1.2848053E0,0E0,0E0,0E0,0E0,1.1580763E0,3.8619602E-1,1.2325068E0,9.268913E-1,8.3823204E-1,2.0777893E-1,0E0,0E0,0E0,0E0,0E0,0E0,0E0,0E0,0E0,0E0,0E0,0E0],"parents":[2147483647,0,0,1,1,2,2,4,4,5,5,6,6,9,9,10,10,12,12,13,13,14,14,15,15,16,16,21,21,22,22,23,23,24,24,25,25,26,26],"right_children":[2,4,6,-1,8,10,12,-1,-1,14,16,-1,18,20,22,24,26,-1,-1,-1,-1,28,30,32,34,36,38,-1,-1,-1,-1,-1,-1,-1,-1,-1,-1,-1,-1],"split_conditions":[7.707E1,8.4985565E1,8.888E1,-3.12497E-1,7.4E1,8.312E1,9.229E1,-2.2018401E-1,-1.4051901E-1,8.818606E1,8.567E1,1.20421946E-1,9.626E1,8.056E1,8.236E1,8.471E1,9.095318E1,1.838828E-1,2.5285718E-1,-7.661117E-2,-2.0829964E-2,-3.5606936E-1,1.0753223E-1,-1.2262761E-1,4.755277E-3,8.454826E1,8.330415E1,-3.5546478E-2,-1.9459892E-2,-9.762039E-3,-3.3173562E-4,1.7155245E-2,-1.26719475E-2,3.0919865E-2,4.8457637E-2,5.0564148E-2,1.5415192E-2,1.6655922E-2,6.631519E-2],"split_indices":[1,12,0,0,1,3,1,0,0,12,3,0,1,0,1,1,12,0,0,0,0,6,7,6,14,11,11,0,0,0,0,0,0,0,0,0,0,0,0],"split_type":[0,0,0,0,0,0,0,0,0,0,0,0,0,0,0,0,0,0,0,0,0,0,0,0,0,0,0,0,0,0,0,0,0,0,0,0,0,0,0],"sum_hessian":[6.09E2,1.22E2,4.87E2,7.5E1,4.7E1,3.51E2,1.36E2,3E1,1.7E1,1.23E2,2.28E2,3.6E1,1E2,1.4E1,1.09E2,1.29E2,9.9E1,8E1,2E1,1.3E1,1E0,5.5E1,5.4E1,5.6E1,7.3E1,2.7E1,7.2E1,2.3E1,3.2E1,3.9E1,1.5E1,5.3E1,3E0,6E1,1.3E1,2.4E1,3E0,1E0,7.1E1],"tree_param":{"num_deleted":"0","num_feature":"16","num_nodes":"39","size_leaf_vector":"1"}},{"base_weights":[2.6893223E-2,-4.9879556E0,1.3555564E0,-6.0877814E0,-3.449519E0,4.078066E-1,3.4019897E0,-3.6503968E-1,-2.7853537E-1,-1.975184E-1,-1.1594945E-1,-3.1024823E-1,8.9186555E-1,2.667478E0,3.9929812E0,-9.141145E-1,-1.5049209E-1,6.1767745E-1,1.1540325E0,9.498057E-2,1.4141983E-1,1.8610166E-1,2.5022238E-1,-1.190728E0,-7.096562E-1,-2.477679E-1,2.233436E-1,-1.1490822E-1,6.425448E-1,8.430536E-1,1.2447234E0,-1.3216972E-2,-6.321445E-2,-5.270958E-3,-3.694992E-2,-3.0407205E-2,-9.213199E-3,1.4351018E-2,3.8015842E-3,-6.5555573E-3,-1.657486E-3,2.8338457E-2,4.2426217E-2,5.9087756E-3,4.3416645E-2,7.359805E-2,5.623238E-2],"categories":[],"categories_nodes":[],"categories_segments":[],"categories_sizes":[],"default_left":[0,0,0,0,0,0,0,0,0,0,0,0,0,0,0,0,0,0,0,0,0,0,0,0,0,0,0,0,0,0,0,0,0,0,0,0,0,0,0,0,0,0,0,0,0,0,0],"id":22,"left_children":[1,3,5,7,9,11,13,-1,-1,-1,-1,15,17,19,21,23,25,27,29,-1,-1,-1,-1,31,33,35,37,39,41,43,45,-1,-1,-1,-1,-1,-1,-1,-1,-1,-1,-1,-1,-1,-1,-1,-1],"loss_changes":[3.944621E3,1.8880957E2,9.063018E2,3.8618164E0,2.1415283E1,1.1185016E2,5.359424E1,0E0,0E0,0E0,0E0,1.24037075E1,1.308873E1,3.1530457E0,3.2976074E0,6.82003E-1,3.8373156E0,1.8227081E0,1.6863251E0,0E0,0E0,0E0,0E0,3.4725952E-1,2.4123001E-1,1.7874207E0,1.8454492E-1,9.526089E-4,9.706497E-1,3.5549355E-1,3.3641052E-1,0E0,0E0,0E0,0E0,0E0,0E0,0E0,0E0,0E0,0E0,0E0,0E0,0E0,0E0,0E0,0E0],"parents":[2147483647,0,0,1,1,2,2,3,3,4,4,5,5,6,6,11,11,12,12,13,13,14,14,15,15,16,16,17,17,18,18,23,23,24,24,25,25,26,26,27,27,28,28,29,29,30,30],"right_children":[2,4,6,8,10,12,14,-1,-1,-1,-1,16,18,20,22,24,26,28,30,-1,-1,-1,-1,32,34,36,38,40,42,44,46,-1,-1,-1,-1,-1,-1,-1,-1,-1,-1,-1,-1,-1,-1,-1,-1],"split_conditions":[7.9E1,6.888556E1,8.888E1,6.261E1,7.466E1,8.9827736E1,9.304E1,-3.6503968E-1,-2.7853537E-1,-1.975184E-1,-1.1594945E-1,8.858302E1,8.538E1,8.983E1,9.598E1,8.147501E1,8.428408E1,8.218E1,9.095318E1,9.498057E-2,1.4141983E-1,1.8610166E-1,2.5022238E-1,3.6994216E3,8.092364E1,2.9159801E1,8.43327E1,1.8906607E1,5.0153374E1,4.4623657E1,9.116403E1,-1.3216972E-2,-6.321445E-2,-5.270958E-3,-3.694992E-2,-3.0407205E-2,-9.213199E-3,1.4351018E-2,3.8015842E-3,-6.5555573E-3,-1.657486E-3,2.8338457E-2,4.2426217E-2,5.9087756E-3,4.3416645E-2,7.359805E-2,5.623238E-2],"split_indices":[0,8,0,2,0,12,2,0,0,0,0,12,2,2,2,9,9,0,12,0,0,0,0,4,8,5,8,5,5,5,12,0,0,0,0,0,0,0,0,0,0,0,0,0,0,0,0],"split_type":[0,0,0,0,0,0,0,0,0,0,0,0,0,0,0,0,0,0,0,0,0,0,0,0,0,0,0,0,0,0,0,0,0,0,0,0,0,0,0,0,0,0,0,0,0,0,0],"sum_hessian":[5.9E2,1.23E2,4.67E2,7E1,5.3E1,3.2E2,1.47E2,1.7E1,5.3E1,3.5E1,1.8E1,1.29E2,1.91E2,6.8E1,7.9E1,2.6E1,1.03E2,9.5E1,9.6E1,1.4E1,5.4E1,6.6E1,1.3E1,9E0,1.7E1,8.2E1,2.1E1,3E0,9.2E1,2.4E1,7.2E1,1E0,8E0,1E0,1.6E1,1.1E1,7.1E1,1.4E1,7E0,2E0,1E0,7E1,2.2E1,1E0,2.3E1,2.1E1,5.1E1],"tree_param":{"num_deleted":"0","num_feature":"16","num_nodes":"47","size_leaf_vector":"1"}},{"base_weights":[3.254821E-2,-4.799277E0,1.2752346E0,-5.4212003E0,-2.3411388E0,3.923386E-1,3.250306E0,-3.4604034E-1,-2.4105261E-1,-1.19052686E-1,-3.258381E-2,-2.787019E-1,8.477625E-1,2.4884148E0,3.7734175E0,-6.7547995E-1,-7.07099E-2,5.799419E-1,1.1178409E0,9.2221685E-2,1.3410506E-1,1.7509459E-1,2.309858E-1,-5.5152297E-2,-5.5949086E-1,-2.0860031E-1,1.4575046E-1,4.0499845E-1,7.0354384E-1,8.6576754E-1,1.1913013E0,-2.9046923E-2,6.3879015E-3,-7.606073E-3,-1.9185668E-2,1.46216145E-2,-8.588791E-4,2.1880789E-2,2.8268432E-3,1.9527173E-2,3.875747E-2,4.455902E-2,5.7611465E-3,1.4833832E-2,5.997462E-2],"categories":[],"categories_nodes":[],"categories_segments":[],"categories_sizes":[],"default_left":[0,0,0,0,0,0,0,0,0,0,0,0,0,0,0,0,0,0,0,0,0,0,0,0,0,0,0,0,0,0,0,0,0,0,0,0,0,0,0,0,0,0,0,0,0],"id":23,"left_children":[1,3,5,7,9,11,13,-1,-1,-1,-1,15,17,19,21,23,25,27,29,-1,-1,-1,-1,-1,31,33,35,37,39,41,43,-1,-1,-1,-1,-1,-1,-1,-1,-1,-1,-1,-1,-1,-1],"loss_changes":[3.6688303E3,1.7840479E2,8.46203E2,5.5733154E1,2.6905823E-1,1.03226135E2,5.039331E1,0E0,0E0,0E0,0E0,1.1258389E1,1.3890564E1,3.0357666E0,3.814209E0,1.713726E0,2.7465544E0,1.9422684E0,8.018341E-1,0E0,0E0,0E0,0E0,0E0,6.4907265E-1,4.9547935E-1,8.6537224E-1,4.8672295E-1,1.0196133E0,3.9322662E-1,1.8640137E-1,0E0,0E0,0E0,0E0,0E0,0E0,0E0,0E0,0E0,0E0,0E0,0E0,0E0,0E0],"parents":[2147483647,0,0,1,1,2,2,3,3,4,4,5,5,6,6,11,11,12,12,13,13,14,14,15,15,16,16,17,17,18,18,24,24,25,25,26,26,27,27,28,28,29,29,30,30],"right_children":[2,4,6,8,10,12,14,-1,-1,-1,-1,16,18,20,22,24,26,28,30,-1,-1,-1,-1,-1,32,34,36,38,40,42,44,-1,-1,-1,-1,-1,-1,-1,-1,-1,-1,-1,-1,-1,-1],"split_conditions":[7.887E1,7.233E1,9.097961E1,6.393E1,8.22458E1,8.383E1,9.301E1,-3.4604034E-1,-2.4105261E-1,-1.19052686E-1,-3.258381E-2,8.19E1,8.567E1,9.057E1,9.608E1,8.033E1,8.277E1,8.495E1,9.095318E1,9.2221685E-2,1.3410506E-1,1.7509459E-1,2.309858E-1,-5.5152297E-2,8.267E1,8.285E1,-1.7248216E-1,8.753401E1,-4.914737E-3,8.674E1,8.330415E1,-2.9046923E-2,6.3879015E-3,-7.606073E-3,-1.9185668E-2,1.46216145E-2,-8.588791E-4,2.1880789E-2,2.8268432E-3,1.9527173E-2,3.875747E-2,4.455902E-2,5.7611465E-3,1.4833832E-2,5.997462E-2],"split_indices":[3,1,10,3,10,3,3,0,0,0,0,3,3,3,3,3,3,1,12,0,0,0,0,0,0,1,7,10,13,0,11,0,0,0,0,0,0,0,0,0,0,0,0,0,0],"split_type":[0,0,0,0,0,0,0,0,0,0,0,0,0,0,0,0,0,0,0,0,0,0,0,0,0,0,0,0,0,0,0,0,0,0,0,0,0,0,0,0,0,0,0,0,0],"sum_hessian":[6.09E2,1.24E2,4.85E2,9.8E1,2.6E1,3.36E2,1.49E2,2.5E1,7.3E1,2.5E1,1E0,1.36E2,2E2,6.3E1,8.6E1,4.6E1,9E1,1.02E2,9.8E1,1.7E1,4.6E1,6.9E1,1.7E1,8E0,3.8E1,5.5E1,3.5E1,4.4E1,5.8E1,2.5E1,7.3E1,3.7E1,1E0,4.3E1,1.2E1,1.8E1,1.7E1,4E1,4E0,1.2E1,4.6E1,2.4E1,1E0,1E0,7.2E1],"tree_param":{"num_deleted":"0","num_feature":"16","num_nodes":"45","size_leaf_vector":"1"}},{"base_weights":[4.8712596E-2,-4.6465163E0,1.1836157E0,-5.5778356E0,-3.19154E0,3.4479594E-1,3.0311797E0,-3.3954325E-1,-2.4963842E-1,-1.8678498E-1,-1.1893189E-1,-3.1034052E-1,7.331162E-1,2.0748024E0,3.430404E0,-8.2095575E-1,-1.5448298E-1,4.5787048E-1,9.608857E-1,1.6508614E0,1.1517586E-1,3.0913036E0,2.038292E-1,-5.649465E-1,-1.0222346E0,-2.2434568E-1,1.6460037E-1,-7.419077E-2,4.8759326E-1,6.628323E-1,1.0330018E0,8.5131615E-2,1.6680336E-2,3.7154198E-2,1.5567985E-1,-2.9634556E-2,-4.4130324E-3,-1.9092305E-2,-5.4569155E-2,-1.8579496E-2,-6.6666245E-3,1.6156808E-2,-1.4919705E-3,-1.6518403E-2,1.4605458E-2,4.728241E-2,2.1937292E-2,1.3528538E-2,3.5201196E-2,3.86422E-2,5.553874E-2],"categories":[],"categories_nodes":[],"categories_segments":[],"categories_sizes":[],"default_left":[0,0,0,0,0,0,0,0,0,0,0,0,0,0,0,0,0,0,0,0,0,0,0,0,0,0,0,0,0,0,0,0,0,0,0,0,0,0,0,0,0,0,0,0,0,0,0,0,0,0,0],"id":24,"left_children":[1,3,5,7,9,11,13,-1,-1,-1,-1,15,17,19,21,23,25,27,29,31,-1,33,-1,35,37,39,41,43,45,47,49,-1,-1,-1,-1,-1,-1,-1,-1,-1,-1,-1,-1,-1,-1,-1,-1,-1,-1,-1,-1],"loss_changes":[3.2026772E3,1.4073877E2,7.490449E2,1.5773926E1,1.2346863E1,8.519804E1,5.0535767E1,0E0,0E0,0E0,0E0,9.821081E0,1.2725479E1,7.544098E-1,1.040564E1,9.168396E-1,2.199254E0,1.5701675E0,1.7656631E0,7.9590225E-1,0E0,1.5079346E0,0E0,1.4607048E-1,2.4748802E-1,1.0225482E0,5.64504E-1,6.5952986E-1,1.6435833E0,2.1345806E-1,9.6253204E-1,0E0,0E0,0E0,0E0,0E0,0E0,0E0,0E0,0E0,0E0,0E0,0E0,0E0,0E0,0E0,0E0,0E0,0E0,0E0,0E0],"parents":[2147483647,0,0,1,1,2,2,3,3,4,4,5,5,6,6,11,11,12,12,13,13,14,14,15,15,16,16,17,17,18,18,19,19,21,21,23,23,24,24,25,25,26,26,27,27,28,28,29,29,30,30],"right_children":[2,4,6,8,10,12,14,-1,-1,-1,-1,16,18,20,22,24,26,28,30,32,-1,34,-1,36,38,40,42,44,46,48,50,-1,-1,-1,-1,-1,-1,-1,-1,-1,-1,-1,-1,-1,-1,-1,-1,-1,-1,-1,-1],"split_conditions":[7.9E1,6.888556E1,8.762E1,6.358E1,7.4E1,8.401E1,9.229E1,-3.3954325E-1,-2.4963842E-1,-1.8678498E-1,-1.1893189E-1,8.12E1,8.556E1,9.391743E1,9.556E1,-4.2798385E-1,8.421804E1,-6.3470393E-1,-2.560273E-3,9.082E1,1.1517586E-1,-5.8468693E-1,2.038292E-1,-3.641195E-1,3.6994216E3,-7.0323487E-4,8.4058754E1,8.441E1,-5.0603735E-1,3.9185663E-3,8.606E1,8.5131615E-2,1.6680336E-2,3.7154198E-2,1.5567985E-1,-2.9634556E-2,-4.4130324E-3,-1.9092305E-2,-5.4569155E-2,-1.8579496E-2,-6.6666245E-3,1.6156808E-2,-1.4919705E-3,-1.6518403E-2,1.4605458E-2,4.728241E-2,2.1937292E-2,1.3528538E-2,3.5201196E-2,3.86422E-2,5.553874E-2],"split_indices":[0,8,0,1,1,1,1,0,0,0,0,1,1,12,1,7,9,6,13,0,0,6,0,6,4,13,8,1,7,15,1,0,0,0,0,0,0,0,0,0,0,0,0,0,0,0,0,0,0,0,0],"split_type":[0,0,0,0,0,0,0,0,0,0,0,0,0,0,0,0,0,0,0,0,0,0,0,0,0,0,0,0,0,0,0,0,0,0,0,0,0,0,0,0,0,0,0,0,0,0,0,0,0,0,0],"sum_hessian":[5.99E2,1.16E2,4.83E2,6.9E1,4.7E1,3.33E2,1.5E2,1.9E1,5E1,2.6E1,2.1E1,1.24E2,2.09E2,4.6E1,1.04E2,2.8E1,9.6E1,9.6E1,1.13E2,1.9E1,2.7E1,7.2E1,3.2E1,1.4E1,1.4E1,7.9E1,1.7E1,5E0,9.1E1,2.4E1,8.9E1,1.8E1,1E0,1E0,7.1E1,1.3E1,1E0,2E0,1.2E1,2.9E1,5E1,9E0,8E0,3E0,2E0,7E0,8.4E1,3E0,2.1E1,2.3E1,6.6E1],"tree_param":{"num_deleted":"0","num_feature":"16","num_nodes":"51","size_leaf_vector":"1"}},{"base_weights":[-4.1342564E-3,-4.3953605E0,1.1139688E0,-5.2505918E0,-3.150606E0,3.401865E-1,2.9188976E0,-3.1659806E-1,-2.3240753E-1,-1.8175237E-1,-1.0033444E-1,-2.0416187E-1,7.924761E-1,2.4425678E0,3.6625965E0,-5.7904726E-1,1.7530192E-2,5.8651656E-1,9.815991E-1,9.5624775E-2,2.734498E0,1.6207334E-1,2.2066355E-1,-7.3593855E-1,-3.716558E-1,-1.4232962E-1,2.2058973E-1,5.098982E-1,7.520831E-1,3.1217384E-1,9.9983674E-1,4.981817E-2,1.3897936E-1,-1.4127514E-2,-4.1484963E-2,6.692696E-3,-1.9812336E-2,-9.876211E-3,-1.22247E-3,1.2714217E-2,-3.0706977E-2,1.5256119E-2,2.771846E-2,4.6608355E-2,2.7293576E-2,-2.675438E-3,2.2595216E-2,3.676146E-2,5.311302E-2],"categories":[],"categories_nodes":[],"categories_segments":[],"categories_sizes":[],"default_left":[0,0,0,0,0,0,0,0,0,0,0,0,0,0,0,0,0,0,0,0,0,0,0,0,0,0,0,0,0,0,0,0,0,0,0,0,0,0,0,0,0,0,0,0,0,0,0,0,0],"id":25,"left_children":[1,3,5,7,9,11,13,-1,-1,-1,-1,15,17,19,21,23,25,27,29,-1,31,-1,-1,33,35,37,39,41,43,45,47,-1,-1,-1,-1,-1,-1,-1,-1,-1,-1,-1,-1,-1,-1,-1,-1,-1,-1],"loss_changes":[2.999901E3,1.154624E2,6.791619E2,1.7473389E1,2.207611E1,8.4363266E1,4.2773926E1,0E0,0E0,0E0,0E0,1.2975171E1,6.7082367E0,9.006714E0,3.081726E0,1.6136837E0,3.2450411E0,7.8357506E-1,8.599167E-1,0E0,1.6976929E0,0E0,0E0,1.1258888E0,3.886745E-1,3.5952628E-1,1.3937054E0,4.3188286E-1,4.938116E-1,2.2856885E-1,7.551422E-1,0E0,0E0,0E0,0E0,0E0,0E0,0E0,0E0,0E0,0E0,0E0,0E0,0E0,0E0,0E0,0E0,0E0,0E0],"parents":[2147483647,0,0,1,1,2,2,3,3,4,4,5,5,6,6,11,11,12,12,13,13,14,14,15,15,16,16,17,17,18,18,20,20,23,23,24,24,25,25,26,26,27,27,28,28,29,29,30,30],"right_children":[2,4,6,8,10,12,14,-1,-1,-1,-1,16,18,20,22,24,26,28,30,-1,32,-1,-1,34,36,38,40,42,44,46,48,-1,-1,-1,-1,-1,-1,-1,-1,-1,-1,-1,-1,-1,-1,-1,-1,-1,-1],"split_conditions":[7.887E1,6.723E1,8.825E1,6.35E1,7.529677E1,8.415E1,9.378E1,-3.1659806E-1,-2.3240753E-1,-1.8175237E-1,-1.0033444E-1,8.202E1,8.58E1,-2.0937921E-2,9.608E1,-1.6794961E-2,8.293E1,5.254777E1,-8.039956E-3,9.5624775E-2,9.076E1,1.6207334E-1,2.2066355E-1,-3.521297E-2,-1.2442332E-2,8.699584E-2,8.392E1,-4.707327E-3,5.6573704E1,8.692E1,8.681309E1,4.981817E-2,1.3897936E-1,-1.4127514E-2,-4.1484963E-2,6.692696E-3,-1.9812336E-2,-9.876211E-3,-1.22247E-3,1.2714217E-2,-3.0706977E-2,1.5256119E-2,2.771846E-2,4.6608355E-2,2.7293576E-2,-2.675438E-3,2.2595216E-2,3.676146E-2,5.311302E-2],"split_indices":[3,0,2,3,8,3,3,0,0,0,0,3,3,14,3,14,3,5,13,0,3,0,0,14,13,6,2,13,5,0,10,0,0,0,0,0,0,0,0,0,0,0,0,0,0,0,0,0,0],"split_type":[0,0,0,0,0,0,0,0,0,0,0,0,0,0,0,0,0,0,0,0,0,0,0,0,0,0,0,0,0,0,0,0,0,0,0,0,0,0,0,0,0,0,0,0,0,0,0,0,0],"sum_hessian":[6.09E2,1.23E2,4.86E2,7.1E1,5.2E1,3.41E2,1.45E2,2.2E1,4.9E1,3.5E1,1.7E1,1.55E2,1.86E2,9.1E1,5.4E1,5.7E1,9.8E1,9.1E1,9.5E1,3.5E1,5.6E1,3.8E1,1.6E1,3.1E1,2.6E1,5.5E1,4.3E1,6.5E1,2.6E1,3E0,9.2E1,2E0,5.4E1,6E0,2.5E1,1E0,2.5E1,3.7E1,1.8E1,4.2E1,1E0,1.3E1,5.2E1,1.2E1,1.4E1,1E0,2E0,2E1,7.2E1],"tree_param":{"num_deleted":"0","num_feature":"16","num_nodes":"49","size_leaf_vector":"1"}},{"base_weights":[-1.2795461E-2,-4.25002E0,1.0263817E0,-4.910235E0,-2.9225478E0,2.773593E-1,2.7703893E0,-2.9813772E-1,-2.2273926E-1,-1.6008018E-1,-9.9068135E-2,-3.7592942E-1,6.5377575E-1,1.9478767E0,3.1828113E0,-7.700934E-1,-1.5163644E-1,3.902924E-1,9.211067E-1,7.5820744E-2,1.05315864E-1,1.4333025E-1,2.0652214E-1,-5.8765646E-2,-5.8140755E-1,-3.170995E-1,-4.932587E-2,2.8999668E-1,5.2958626E-1,7.023055E-1,1.0129114E0,-5.0118766E-3,-3.0507216E-2,-2.7426338E-2,-9.589804E-3,3.718658E-3,-6.713549E-3,-7.5389864E-3,1.5687827E-2,5.2554857E-2,2.2557888E-2,1.8984713E-2,3.78938E-2,6.106062E-2,4.438293E-2],"categories":[],"categories_nodes":[],"categories_segments":[],"categories_sizes":[],"default_left":[0,0,0,0,0,0,0,0,0,0,0,0,0,0,0,0,0,0,0,0,0,0,0,0,0,0,0,0,0,0,0,0,0,0,0,0,0,0,0,0,0,0,0,0,0],"id":26,"left_children":[1,3,5,7,9,11,13,-1,-1,-1,-1,15,17,19,21,23,25,27,29,-1,-1,-1,-1,-1,31,33,35,37,39,41,43,-1,-1,-1,-1,-1,-1,-1,-1,-1,-1,-1,-1,-1,-1],"loss_changes":[2.5934597E3,8.7313965E1,6.171118E2,9.869263E0,4.4248047E0,8.188742E1,4.196985E1,0E0,0E0,0E0,0E0,1.0669029E1,1.4502762E1,2.2398376E-1,1.6026855E1,2.6808662E0,1.32172E0,1.3552437E0,1.3776703E0,0E0,0E0,0E0,0E0,0E0,3.8131332E-1,7.647538E-1,5.3536755E-1,7.2803783E-1,1.325448E0,3.2178116E-1,7.683945E-1,0E0,0E0,0E0,0E0,0E0,0E0,0E0,0E0,0E0,0E0,0E0,0E0,0E0,0E0],"parents":[2147483647,0,0,1,1,2,2,3,3,4,4,5,5,6,6,11,11,12,12,13,13,14,14,15,15,16,16,17,17,18,18,24,24,25,25,26,26,27,27,28,28,29,29,30,30],"right_children":[2,4,6,8,10,12,14,-1,-1,-1,-1,16,18,20,22,24,26,28,30,-1,-1,-1,-1,-1,32,34,36,38,40,42,44,-1,-1,-1,-1,-1,-1,-1,-1,-1,-1,-1,-1,-1,-1],"split_conditions":[7.707E1,7.127771E1,8.798E1,6.411E1,7.504E1,8.428408E1,9.225E1,-2.9813772E-1,-2.2273926E-1,-1.6008018E-1,-9.9068135E-2,8.178E1,8.506E1,9.074E1,9.626E1,8.083437E1,-7.0323487E-4,8.495E1,9.095318E1,7.5820744E-2,1.05315864E-1,1.4333025E-1,2.0652214E-1,-5.8765646E-2,4.3980866E-3,8.245E1,4.5064925E-3,8.241E1,8.484579E1,4.8467894E-3,9.116403E1,-5.0118766E-3,-3.0507216E-2,-2.7426338E-2,-9.589804E-3,3.718658E-3,-6.713549E-3,-7.5389864E-3,1.5687827E-2,5.2554857E-2,2.2557888E-2,1.8984713E-2,3.78938E-2,6.106062E-2,4.438293E-2],"split_indices":[1,10,1,1,1,9,2,0,0,0,0,1,2,1,1,8,13,1,12,0,0,0,0,0,15,1,15,1,9,15,12,0,0,0,0,0,0,0,0,0,0,0,0,0,0],"split_type":[0,0,0,0,0,0,0,0,0,0,0,0,0,0,0,0,0,0,0,0,0,0,0,0,0,0,0,0,0,0,0,0,0,0,0,0,0,0,0,0,0,0,0,0,0],"sum_hessian":[5.87E2,1.15E2,4.72E2,7.5E1,4E1,3.31E2,1.41E2,1.9E1,5.6E1,2.9E1,1.1E1,1.21E2,2.1E2,4.9E1,9.2E1,4.3E1,7.8E1,1.07E2,1.03E2,1.6E1,3.3E1,7.2E1,2E1,1.2E1,3.1E1,2.9E1,4.9E1,6.4E1,4.3E1,3.3E1,7E1,2E0,2.9E1,9E0,2E1,2E1,2.9E1,3E0,6.1E1,4E0,3.9E1,6E0,2.7E1,2.3E1,4.7E1],"tree_param":{"num_deleted":"0","num_feature":"16","num_nodes":"45","size_leaf_vector":"1"}},{"base_weights":[2.0740286E-2,-4.0281324E0,9.65707E-1,-4.6827645E0,-2.8078785E0,2.4714182E-1,2.6748953E0,-2.8002313E-1,-2.050128E-1,-1.6051039E-1,-1.00185804E-1,-3.8196895E-1,5.882058E-1,2.1727648E0,3.1961994E0,-9.1754234E-1,-2.2343265E-1,3.6623996E-1,8.357912E-1,1.7007579E0,1.2320721E-1,1.47875E-1,2.0517282E-1,-1.0337178E0,-5.574256E-1,-3.746066E-1,-1.4675082E-1,-3.0331422E-2,3.7929365E-1,6.4075613E-1,8.9048445E-1,8.7143146E-2,3.493767E-2,-5.618735E-2,-1.9633198E-2,-5.2762986E-3,-3.0036116E-2,-2.6270194E-2,-1.1406538E-2,-2.4681218E-2,-4.519772E-3,8.165026E-3,2.2593841E-2,1.3916271E-2,3.552378E-2,4.487757E-2,8.128166E-3],"categories":[],"categories_nodes":[],"categories_segments":[],"categories_sizes":[],"default_left":[0,0,0,0,0,0,0,0,0,0,0,0,0,0,0,0,0,0,0,0,0,0,0,0,0,0,0,0,0,0,0,0,0,0,0,0,0,0,0,0,0,0,0,0,0,0,0],"id":27,"left_children":[1,3,5,7,9,11,13,-1,-1,-1,-1,15,17,19,21,23,25,27,29,31,-1,-1,-1,33,35,37,39,-1,41,43,45,-1,-1,-1,-1,-1,-1,-1,-1,-1,-1,-1,-1,-1,-1,-1,-1],"loss_changes":[2.3454326E3,7.951416E1,6.09736E2,1.6594604E1,7.4797974E0,7.553771E1,3.1534546E1,0E0,0E0,0E0,0E0,1.0323565E1,1.2223755E1,6.536682E0,3.0233154E0,5.952072E-1,1.069478E0,1.7794342E0,5.707855E-1,1.7441559E-1,0E0,0E0,0E0,7.130165E-1,1.12699986E-1,5.869603E-1,1.2455595E0,0E0,1.8231812E0,4.8450565E-1,2.7078247E-1,0E0,0E0,0E0,0E0,0E0,0E0,0E0,0E0,0E0,0E0,0E0,0E0,0E0,0E0,0E0,0E0],"parents":[2147483647,0,0,1,1,2,2,3,3,4,4,5,5,6,6,11,11,12,12,13,13,14,14,15,15,16,16,17,17,18,18,19,19,23,23,24,24,25,25,26,26,28,28,29,29,30,30],"right_children":[2,4,6,8,10,12,14,-1,-1,-1,-1,16,18,20,22,24,26,28,30,32,-1,-1,-1,34,36,38,40,-1,42,44,46,-1,-1,-1,-1,-1,-1,-1,-1,-1,-1,-1,-1,-1,-1,-1,-1],"split_conditions":[7.8788666E1,6.936041E1,8.796E1,6.364E1,7.529677E1,8.28E1,9.324E1,-2.8002313E-1,-2.050128E-1,-1.6051039E-1,-1.00185804E-1,8.210845E1,8.552E1,-5.826657E-3,9.647E1,8.035E1,-1.177995E-3,2.1357616E1,-2.379536E-3,6.016588E-3,1.2320721E-1,1.47875E-1,2.0517282E-1,4.577465E-3,8.054E1,8.223E1,8.089E1,-3.0331422E-2,8.9827736E1,3.6994216E3,8.74E1,8.7143146E-2,3.493767E-2,-5.618735E-2,-1.9633198E-2,-5.2762986E-3,-3.0036116E-2,-2.6270194E-2,-1.1406538E-2,-2.4681218E-2,-4.519772E-3,8.165026E-3,2.2593841E-2,1.3916271E-2,3.552378E-2,4.487757E-2,8.128166E-3],"split_indices":[8,8,0,2,8,2,2,0,0,0,0,9,0,14,0,2,13,5,13,15,0,0,0,13,2,0,0,0,12,4,0,0,0,0,0,0,0,0,0,0,0,0,0,0,0,0,0],"split_type":[0,0,0,0,0,0,0,0,0,0,0,0,0,0,0,0,0,0,0,0,0,0,0,0,0,0,0,0,0,0,0,0,0,0,0,0,0,0,0,0,0,0,0,0,0,0,0],"sum_hessian":[6.11E2,1.15E2,4.96E2,7.3E1,4.2E1,3.5E2,1.46E2,2.5E1,4.8E1,2.6E1,1.6E1,1.23E2,2.27E2,7.7E1,6.9E1,2.7E1,9.6E1,1.21E2,1.06E2,3.2E1,4.5E1,5.8E1,1.1E1,1.9E1,8E0,3.1E1,6.5E1,1E0,1.2E2,2.6E1,8E1,3E1,2E0,1.6E1,3E0,1E0,7E0,1.4E1,1.7E1,8E0,5.7E1,3.1E1,8.9E1,5E0,2.1E1,7.9E1,1E0],"tree_param":{"num_deleted":"0","num_feature":"16","num_nodes":"47","size_leaf_vector":"1"}},{"base_weights":[-5.1238164E-2,-3.8968873E0,9.738309E-1,-4.546844E0,-2.7595227E0,2.6486677E-1,2.5249982E0,-2.812637E-1,-2.0521048E-1,-1.6145518E-1,-1.028893E-1,-3.5450888E-1,6.136691E-1,2.1457372E0,3.262521E0,-8.6994016E-1,-2.1214016E-1,3.1140187E-1,7.866531E-1,8.322929E-2,1.2193809E-1,1.4602458E-1,2.073742E-1,-1.022611E0,-2.0884419E-2,-3.5032603E-1,-8.090537E-2,3.242101E-1,-1.12604775E-1,6.456401E-1,9.157472E-1,-5.8395494E-2,-2.0562593E-2,-9.646479E-3,-2.0759238E-2,-3.479373E-4,-9.864847E-3,1.3599488E-2,2.6615689E-2,7.286072E-4,-9.173966E-3,8.346367E-3,3.3289313E-2,4.7304884E-2,2.8872205E-2],"categories":[],"categories_nodes":[],"categories_segments":[],"categories_sizes":[],"default_left":[0,0,0,0,0,0,0,0,0,0,0,0,0,0,0,0,0,0,0,0,0,0,0,0,0,0,0,0,0,0,0,0,0,0,0,0,0,0,0,0,0,0,0,0,0],"id":28,"left_children":[1,3,5,7,9,11,13,-1,-1,-1,-1,15,17,19,21,23,25,27,29,-1,-1,-1,-1,31,-1,33,35,37,39,41,43,-1,-1,-1,-1,-1,-1,-1,-1,-1,-1,-1,-1,-1,-1],"loss_changes":[2.341434E3,7.985742E1,5.151007E2,1.4146118E1,9.172272E0,6.999836E1,3.411743E1,0E0,0E0,0E0,0E0,8.401063E0,1.0578529E1,1.0039398E1,2.4161377E0,1.2990074E0,1.6581926E0,4.5467806E-1,1.7934723E0,0E0,0E0,0E0,0E0,1.1186314E0,0E0,3.7928247E-1,4.2035848E-1,6.70259E-1,2.9714506E-2,5.25383E-1,1.3134766E-1,0E0,0E0,0E0,0E0,0E0,0E0,0E0,0E0,0E0,0E0,0E0,0E0,0E0,0E0],"parents":[2147483647,0,0,1,1,2,2,3,3,4,4,5,5,6,6,11,11,12,12,13,13,14,14,15,15,16,16,17,17,18,18,23,23,25,25,26,26,27,27,28,28,29,29,30,30],"right_children":[2,4,6,8,10,12,14,-1,-1,-1,-1,16,18,20,22,24,26,28,30,-1,-1,-1,-1,32,-1,34,36,38,40,42,44,-1,-1,-1,-1,-1,-1,-1,-1,-1,-1,-1,-1,-1,-1],"split_conditions":[7.707E1,6.888556E1,8.775E1,6.358E1,7.261E1,8.312E1,9.455E1,-2.812637E-1,-2.0521048E-1,-1.6145518E-1,-1.028893E-1,8.081E1,8.487E1,9.175E1,9.679E1,8.327223E1,8.217E1,1.2588133E-1,8.616E1,8.322929E-2,1.2193809E-1,1.4602458E-1,2.073742E-1,8.072E1,-2.0884419E-2,4.6831244E-3,8.287E1,8.505E1,8.314E1,8.513585E1,3.9677E-1,-5.8395494E-2,-2.0562593E-2,-9.646479E-3,-2.0759238E-2,-3.479373E-4,-9.864847E-3,1.3599488E-2,2.6615689E-2,7.286072E-4,-9.173966E-3,8.346367E-3,3.3289313E-2,4.7304884E-2,2.8872205E-2],"split_indices":[1,8,3,1,3,3,3,0,0,0,0,0,3,3,3,10,3,7,3,0,0,0,0,3,0,15,1,1,0,10,7,0,0,0,0,0,0,0,0,0,0,0,0,0,0],"split_type":[0,0,0,0,0,0,0,0,0,0,0,0,0,0,0,0,0,0,0,0,0,0,0,0,0,0,0,0,0,0,0,0,0,0,0,0,0,0,0,0,0,0,0,0,0],"sum_hessian":[5.92E2,1.24E2,4.68E2,7.7E1,4.7E1,3.22E2,1.46E2,1.9E1,5.8E1,2.6E1,2.1E1,1.16E2,2.06E2,9.9E1,4.7E1,2.4E1,9.2E1,7.6E1,1.3E2,4E1,5.9E1,3.7E1,1E1,1.7E1,7E0,4.4E1,4.8E1,7.4E1,2E0,6.5E1,6.5E1,1.3E1,4E0,1.4E1,3E1,3E1,1.8E1,6.1E1,1.3E1,1E0,1E0,3E0,6.2E1,5.8E1,7E0],"tree_param":{"num_deleted":"0","num_feature":"16","num_nodes":"45","size_leaf_vector":"1"}},{"base_weights":[5.3202216E-2,-3.702254E0,9.4724834E-1,-4.497052E0,-2.753437E0,2.5176454E-1,2.4034755E0,-2.6953837E-1,-2.0146179E-1,-1.5693574E-1,-9.291207E-2,-1.9429594E-1,6.1960477E-1,1.6245265E0,2.7144494E0,-7.569771E-1,-5.200653E-2,4.2301646E-1,8.20322E-1,1.2751726E0,1.7973953E0,2.5337145E0,1.9340545E-1,-5.695004E-2,-5.662866E-1,-1.8198733E-1,1.2741822E-1,6.9295573E-1,3.8214478E-1,6.8684053E-1,9.5658505E-1,6.62529E-2,9.430885E-3,2.2977829E-2,1.8287627E0,1.2764879E-1,5.363935E-2,-3.260152E-2,-1.6736556E-2,-5.3794193E-3,-1.3605771E-2,7.694855E-3,-2.991314E-2,5.0422747E-2,1.8430274E-2,1.4379901E-2,2.3829632E-2,4.0014014E-2,2.5819952E-2,9.547043E-3,4.8547633E-2,9.282899E-2,2.6942445E-2],"categories":[],"categories_nodes":[],"categories_segments":[],"categories_sizes":[],"default_left":[0,0,0,0,0,0,0,0,0,0,0,0,0,0,0,0,0,0,0,0,0,0,0,0,0,0,0,0,0,0,0,0,0,0,0,0,0,0,0,0,0,0,0,0,0,0,0,0,0,0,0,0,0],"id":29,"left_children":[1,3,5,7,9,11,13,-1,-1,-1,-1,15,17,19,21,23,25,27,29,31,33,35,-1,-1,37,39,41,43,45,47,49,-1,-1,-1,51,-1,-1,-1,-1,-1,-1,-1,-1,-1,-1,-1,-1,-1,-1,-1,-1,-1,-1],"loss_changes":[2.007965E3,7.434131E1,4.8856885E2,3.783081E0,1.3136932E1,5.39383E1,3.33786E1,0E0,0E0,0E0,0E0,1.1890105E1,6.7555466E0,5.46463E-1,1.313501E1,1.5404472E0,2.8218012E0,7.6124763E-1,9.43573E-1,7.79932E-1,3.7654114E-1,1.8859863E-2,0E0,0E0,2.18544E-1,4.4010377E-1,1.072047E0,7.539325E-1,6.041012E-1,5.1480675E-1,2.65625E-1,0E0,0E0,0E0,4.272461E-3,0E0,0E0,0E0,0E0,0E0,0E0,0E0,0E0,0E0,0E0,0E0,0E0,0E0,0E0,0E0,0E0,0E0,0E0],"parents":[2147483647,0,0,1,1,2,2,3,3,4,4,5,5,6,6,11,11,12,12,13,13,14,14,15,15,16,16,17,17,18,18,19,19,20,20,21,21,24,24,25,25,26,26,27,27,28,28,29,29,30,30,34,34],"right_children":[2,4,6,8,10,12,14,-1,-1,-1,-1,16,18,20,22,24,26,28,30,32,34,36,-1,-1,38,40,42,44,46,48,50,-1,-1,-1,52,-1,-1,-1,-1,-1,-1,-1,-1,-1,-1,-1,-1,-1,-1,-1,-1,-1,-1],"split_conditions":[7.707E1,6.701E1,9.097961E1,6.288E1,7.4806595E1,8.415E1,9.175E1,-2.6953837E-1,-2.0146179E-1,-1.5693574E-1,-9.291207E-2,8.858302E1,8.58E1,9.391743E1,9.65E1,7.918335E1,8.277E1,8.336893E1,1.6844197E-1,9.074E1,8.852393E1,4.949317E4,1.9340545E-1,-5.695004E-2,-5.912961E-4,8.906796E1,8.402E1,8.65859E1,8.46E1,-1.9321825E-1,9.014331E1,6.62529E-2,9.430885E-3,2.2977829E-2,9.229E1,1.2764879E-1,5.363935E-2,-3.260152E-2,-1.6736556E-2,-5.3794193E-3,-1.3605771E-2,7.694855E-3,-2.991314E-2,5.0422747E-2,1.8430274E-2,1.4379901E-2,2.3829632E-2,4.0014014E-2,2.5819952E-2,9.547043E-3,4.8547633E-2,9.282899E-2,2.6942445E-2],"split_indices":[1,1,10,3,8,3,3,0,0,0,0,12,3,12,3,11,3,11,7,1,11,4,0,0,13,12,2,10,2,6,12,0,0,0,1,0,0,0,0,0,0,0,0,0,0,0,0,0,0,0,0,0,0],"split_type":[0,0,0,0,0,0,0,0,0,0,0,0,0,0,0,0,0,0,0,0,0,0,0,0,0,0,0,0,0,0,0,0,0,0,0,0,0,0,0,0,0,0,0,0,0,0,0,0,0,0,0,0,0],"sum_hessian":[5.96E2,1.14E2,4.82E2,6E1,5.4E1,3.27E2,1.55E2,1.7E1,4.3E1,3.6E1,1.8E1,1.48E2,1.79E2,4.6E1,1.09E2,2.9E1,1.19E2,9.2E1,8.7E1,1.8E1,2.8E1,9.7E1,1.2E1,8E0,2.1E1,6.9E1,5E1,1E1,8.2E1,4.7E1,4E1,1.7E1,1E0,1E0,2.7E1,9.5E1,2E0,1.4E1,7E0,3.9E1,3E1,4.9E1,1E0,4E0,6E0,4.3E1,3.9E1,2.6E1,2.1E1,1E0,3.9E1,2.6E1,1E0],"tree_param":{"num_deleted":"0","num_feature":"16","num_nodes":"53","size_leaf_vector":"1"}},{"base_weights":[-1.9680658E-2,-3.4238055E0,8.505347E-1,-4.068548E0,-2.3407652E0,2.4658869E-1,2.2957761E0,-2.5193867E-1,-1.8073677E-1,-1.40296E-1,-9.106812E-2,-1.5258771E-1,6.285853E-1,1.9956111E0,1.5005879E-1,-5.112803E-1,1.1281967E-3,4.5877644E-1,7.5773996E-1,7.4600756E-2,1.1094502E-1,-3.88987E-2,-4.3560845E-1,-1.3231927E-1,1.19962215E-1,8.6461943E-1,4.2560324E-1,6.5751946E-1,8.950659E-1,-1.0204424E-2,-2.34263E-2,-3.9614555E-3,-1.6240247E-2,3.948435E-3,2.2124264E-2,1.11930845E-2,4.8442174E-2,7.2259904E-4,2.2126691E-2,1.8084368E-2,3.576844E-2,4.570597E-2,1.8085862E-2],"categories":[],"categories_nodes":[],"categories_segments":[],"categories_sizes":[],"default_left":[0,0,0,0,0,0,0,0,0,0,0,0,0,0,0,0,0,0,0,0,0,0,0,0,0,0,0,0,0,0,0,0,0,0,0,0,0,0,0,0,0,0,0],"id":30,"left_children":[1,3,5,7,9,11,13,-1,-1,-1,-1,15,17,19,-1,21,23,25,27,-1,-1,-1,29,31,33,35,37,39,41,-1,-1,-1,-1,-1,-1,-1,-1,-1,-1,-1,-1,-1,-1],"loss_changes":[1.8188153E3,7.776172E1,4.262564E2,1.5689209E1,6.7279663E0,5.2855392E1,2.4500916E1,0E0,0E0,0E0,0E0,9.373824E0,3.5342636E0,8.383911E0,0E0,6.903496E-1,1.9188452E0,6.955986E-1,7.740021E-1,0E0,0E0,0E0,2.2446394E-1,5.567543E-1,8.112239E-1,1.170249E-1,5.156822E-1,7.851963E-1,6.567001E-2,0E0,0E0,0E0,0E0,0E0,0E0,0E0,0E0,0E0,0E0,0E0,0E0,0E0,0E0],"parents":[2147483647,0,0,1,1,2,2,3,3,4,4,5,5,6,6,11,11,12,12,13,13,15,15,16,16,17,17,18,18,22,22,23,23,24,24,25,25,26,26,27,27,28,28],"right_children":[2,4,6,8,10,12,14,-1,-1,-1,-1,16,18,20,-1,22,24,26,28,-1,-1,-1,30,32,34,36,38,40,42,-1,-1,-1,-1,-1,-1,-1,-1,-1,-1,-1,-1,-1,-1],"split_conditions":[7.887E1,7.155732E1,8.775E1,6.411E1,7.261E1,8.471E1,9.494E1,-2.5193867E-1,-1.8073677E-1,-1.40296E-1,-9.106812E-2,8.19E1,8.58E1,9.125E1,1.5005879E-1,8.135927E1,8.277E1,-5.1503986E-1,8.663E1,7.4600756E-2,1.1094502E-1,-3.88987E-2,4.3980866E-3,8.285E1,5.320863E-3,8.462E1,-4.9218896E-1,-2.4713548E-3,4.1180655E-1,-1.0204424E-2,-2.34263E-2,-3.9614555E-3,-1.6240247E-2,3.948435E-3,2.2124264E-2,1.11930845E-2,4.8442174E-2,7.2259904E-4,2.2126691E-2,1.8084368E-2,3.576844E-2,4.570597E-2,1.8085862E-2],"split_indices":[3,9,3,1,3,1,3,0,0,0,0,3,3,3,0,9,3,7,3,0,0,0,15,1,15,3,7,13,7,0,0,0,0,0,0,0,0,0,0,0,0,0,0],"split_type":[0,0,0,0,0,0,0,0,0,0,0,0,0,0,0,0,0,0,0,0,0,0,0,0,0,0,0,0,0,0,0,0,0,0,0,0,0,0,0,0,0,0,0],"sum_hessian":[6.12E2,1.24E2,4.88E2,7.6E1,4.8E1,3.45E2,1.43E2,2.1E1,5.5E1,2.3E1,2.5E1,1.69E2,1.76E2,1.03E2,4E1,5E1,1.19E2,7.8E1,9.8E1,3.4E1,6.9E1,9E0,4.1E1,5.6E1,6.3E1,4E0,7.4E1,6E1,3.8E1,6E0,3.5E1,4.5E1,1.1E1,5.7E1,6E0,1E0,3E0,3E0,7.1E1,1.1E1,4.9E1,3.6E1,2E0],"tree_param":{"num_deleted":"0","num_feature":"16","num_nodes":"43","size_leaf_vector":"1"}},{"base_weights":[-1.2789686E-2,-3.3202314E0,8.22517E-1,-3.822604E0,-2.2099988E0,2.139601E-1,2.165512E0,-2.4858649E-1,-1.7169385E-1,-1.2223359E-1,-6.738694E-2,-3.3076945E-1,5.178273E-1,1.7954535E0,2.7246656E0,-6.5730673E-1,-1.5112105E-1,2.6293573E-1,6.496729E-1,1.3969861E0,1.985009E0,2.7479742E0,3.4319308E-2,-4.575554E-2,-5.012941E-1,-2.796387E-1,-6.841766E-2,-9.278742E-2,2.8929353E-1,5.2828205E-1,7.872145E-1,7.15217E-2,7.3301317E-3,1.0105218E-1,4.7862437E-2,1.236582E-1,1.657389E-1,-1.0761207E-2,-2.8328175E-2,-2.288437E-3,-1.729719E-2,-5.4007596E-3,7.6485635E-3,1.21711735E-2,-2.5506973E-2,6.4675594E-3,1.7694114E-2,1.6214062E-2,2.8551394E-2,3.9832007E-2,4.599381E-3],"categories":[],"categories_nodes":[],"categories_segments":[],"categories_sizes":[],"default_left":[0,0,0,0,0,0,0,0,0,0,0,0,0,0,0,0,0,0,0,0,0,0,0,0,0,0,0,0,0,0,0,0,0,0,0,0,0,0,0,0,0,0,0,0,0,0,0,0,0,0,0],"id":31,"left_children":[1,3,5,7,9,11,13,-1,-1,-1,-1,15,17,19,21,23,25,27,29,31,33,35,-1,-1,37,39,41,43,45,47,49,-1,-1,-1,-1,-1,-1,-1,-1,-1,-1,-1,-1,-1,-1,-1,-1,-1,-1,-1,-1],"loss_changes":[1.699046E3,6.0713135E1,4.008255E2,2.0450195E1,5.001526E0,5.6284405E1,2.6766724E1,0E0,0E0,0E0,0E0,7.0574207E0,7.1553574E0,4.4024963E0,9.168701E-1,1.2707481E0,8.3117557E-1,7.394252E-1,1.9716988E0,1.212265E0,3.6149597E-1,8.362732E-1,0E0,0E0,4.195385E-1,4.6487617E-1,4.5484596E-1,9.660898E-1,6.876888E-1,5.0372124E-1,3.5266113E-1,0E0,0E0,0E0,0E0,0E0,0E0,0E0,0E0,0E0,0E0,0E0,0E0,0E0,0E0,0E0,0E0,0E0,0E0,0E0,0E0],"parents":[2147483647,0,0,1,1,2,2,3,3,4,4,5,5,6,6,11,11,12,12,13,13,14,14,15,15,16,16,17,17,18,18,19,19,20,20,21,21,24,24,25,25,26,26,27,27,28,28,29,29,30,30],"right_children":[2,4,6,8,10,12,14,-1,-1,-1,-1,16,18,20,22,24,26,28,30,32,34,36,-1,-1,38,40,42,44,46,48,50,-1,-1,-1,-1,-1,-1,-1,-1,-1,-1,-1,-1,-1,-1,-1,-1,-1,-1,-1,-1],"split_conditions":[7.707E1,6.958E1,8.762E1,6.358E1,7.466E1,8.428408E1,9.378E1,-2.4858649E-1,-1.7169385E-1,-1.2223359E-1,-6.738694E-2,8.122E1,8.521E1,9.139E1,7.9770996E1,8.083437E1,-7.0323487E-4,2.1357616E1,8.62E1,9.125E1,9.420259E1,9.621E1,3.4319308E-2,-4.575554E-2,8.094801E1,-5.5680764E-3,8.308E1,8.5273834E1,8.9800476E1,-4.914737E-3,8.74E1,7.15217E-2,7.3301317E-3,1.0105218E-1,4.7862437E-2,1.236582E-1,1.657389E-1,-1.0761207E-2,-2.8328175E-2,-2.288437E-3,-1.729719E-2,-5.4007596E-3,7.6485635E-3,1.21711735E-2,-2.5506973E-2,6.4675594E-3,1.7694114E-2,1.6214062E-2,2.8551394E-2,3.9832007E-2,4.599381E-3],"split_indices":[1,1,0,1,3,9,3,0,0,0,0,3,1,1,5,8,13,5,3,0,8,3,0,0,8,13,1,9,12,13,0,0,0,0,0,0,0,0,0,0,0,0,0,0,0,0,0,0,0,0,0],"split_type":[0,0,0,0,0,0,0,0,0,0,0,0,0,0,0,0,0,0,0,0,0,0,0,0,0,0,0,0,0,0,0,0,0,0,0,0,0,0,0,0,0,0,0,0,0,0,0,0,0,0,0],"sum_hessian":[6.13E2,1.23E2,4.9E2,8.3E1,4E1,3.38E2,1.52E2,1.8E1,6.5E1,3E1,1E1,1.21E2,2.17E2,9.4E1,5.8E1,4.2E1,7.9E1,7.5E1,1.42E2,3.3E1,6.1E1,5.7E1,1E0,1.4E1,2.8E1,3E1,4.9E1,5E0,7E1,7.8E1,6.4E1,3.2E1,1E0,5.8E1,3E0,4.2E1,1.5E1,6E0,2.2E1,7E0,2.3E1,4.2E1,7E0,3E0,2E0,2.1E1,4.9E1,1.5E1,6.3E1,6.3E1,1E0],"tree_param":{"num_deleted":"0","num_feature":"16","num_nodes":"51","size_leaf_vector":"1"}},{"base_weights":[-2.2754349E-2,-3.1571915E0,7.97273E-1,-3.6389768E0,-2.0931141E0,2.4257012E-1,2.0667825E0,-4.0710616E0,-1.5180157E-1,-2.3414056E0,-7.235116E-2,-1.8564676E-1,5.169544E-1,1.7221032E0,2.5075412E0,-5.831776E-2,-2.0548458E-1,-4.9807105E-2,-1.2032872E-1,-4.5115003E-1,-4.9235377E-2,3.608115E-1,7.034495E-1,1.3490741E0,1.9257158E0,2.6279142E0,8.1542365E-2,-6.943385E-1,-3.4904665E-1,-1.1212185E-1,6.798283E-2,-1.0401481E-1,3.881037E-1,6.031389E-1,8.614759E-1,1.0515584E0,7.5647555E-2,2.7150154E-2,9.710904E-2,1.326599E-1,3.346138E-2,-3.6965873E-2,-4.9892426E-3,-9.793325E-3,-2.136256E-2,-1.2971463E-2,-3.763004E-3,-3.6896945E-3,1.0275531E-2,-2.4656804E-2,7.5130463E-3,3.887051E-2,1.784856E-2,3.2488745E-2,1.5482254E-2,4.4289347E-2,1.6155116E-2,7.1468353E-3,5.531251E-2],"categories":[],"categories_nodes":[],"categories_segments":[],"categories_sizes":[],"default_left":[0,0,0,0,0,0,0,0,0,0,0,0,0,0,0,0,0,0,0,0,0,0,0,0,0,0,0,0,0,0,0,0,0,0,0,0,0,0,0,0,0,0,0,0,0,0,0,0,0,0,0,0,0,0,0,0,0,0,0],"id":32,"left_children":[1,3,5,7,9,11,13,15,-1,17,-1,19,21,23,25,-1,-1,-1,-1,27,29,31,33,35,37,39,-1,41,43,45,47,49,51,53,55,57,-1,-1,-1,-1,-1,-1,-1,-1,-1,-1,-1,-1,-1,-1,-1,-1,-1,-1,-1,-1,-1,-1,-1],"loss_changes":[1.5370007E3,5.5952637E1,3.3328973E2,9.52417E0,3.1891174E0,3.8987144E1,1.7558289E1,3.682251E-1,0E0,5.7434082E-2,0E0,4.6860833E0,5.628395E0,3.7821503E0,2.1516418E0,0E0,0E0,0E0,0E0,8.501797E-1,6.4893764E-1,1.461216E0,9.229202E-1,1.7993927E-2,1.2924194E-1,7.9953E-1,0E0,2.471366E-1,3.1163502E-1,2.899859E-1,6.1961085E-1,7.667078E-1,1.0072155E0,6.063576E-1,1.4571953E-1,5.87286E-1,0E0,0E0,0E0,0E0,0E0,0E0,0E0,0E0,0E0,0E0,0E0,0E0,0E0,0E0,0E0,0E0,0E0,0E0,0E0,0E0,0E0,0E0,0E0],"parents":[2147483647,0,0,1,1,2,2,3,3,4,4,5,5,6,6,7,7,9,9,11,11,12,12,13,13,14,14,19,19,20,20,21,21,22,22,23,23,24,24,25,25,27,27,28,28,29,29,30,30,31,31,32,32,33,33,34,34,35,35],"right_children":[2,4,6,8,10,12,14,16,-1,18,-1,20,22,24,26,-1,-1,-1,-1,28,30,32,34,36,38,40,-1,42,44,46,48,50,52,54,56,58,-1,-1,-1,-1,-1,-1,-1,-1,-1,-1,-1,-1,-1,-1,-1,-1,-1,-1,-1,-1,-1,-1,-1],"split_conditions":[7.883E1,6.936041E1,8.902E1,6.3595455E1,7.466E1,8.9827736E1,9.378E1,7.831607E-3,-1.5180157E-1,6.746E1,-7.235116E-2,8.167E1,8.58E1,3.9749264E1,9.490677E1,-5.831776E-2,-2.0548458E-1,-4.9807105E-2,-1.2032872E-1,8.033E1,8.308E1,2.1357616E1,8.674E1,9.165349E1,-8.282934E-3,7.9770996E1,8.1542365E-2,1.5125073E-3,8.054E1,8.871302E1,1.21462406E-4,-2.6884864E-3,8.484579E1,8.689E1,4.1180655E-1,-6.5505435E-3,7.5647555E-2,2.7150154E-2,9.710904E-2,1.326599E-1,3.346138E-2,-3.6965873E-2,-4.9892426E-3,-9.793325E-3,-2.136256E-2,-1.2971463E-2,-3.763004E-3,-3.6896945E-3,1.0275531E-2,-2.4656804E-2,7.5130463E-3,3.887051E-2,1.784856E-2,3.2488745E-2,1.5482254E-2,4.4289347E-2,1.6155116E-2,7.1468353E-3,5.531251E-2],"split_indices":[0,8,3,11,3,12,3,15,0,2,0,3,3,5,12,0,0,0,0,3,1,5,3,8,13,5,0,13,2,12,13,13,9,1,7,13,0,0,0,0,0,0,0,0,0,0,0,0,0,0,0,0,0,0,0,0,0,0,0],"split_type":[0,0,0,0,0,0,0,0,0,0,0,0,0,0,0,0,0,0,0,0,0,0,0,0,0,0,0,0,0,0,0,0,0,0,0,0,0,0,0,0,0,0,0,0,0,0,0,0,0,0,0,0,0,0,0,0,0,0,0],"sum_hessian":[5.96E2,1.23E2,4.73E2,8.3E1,4E1,3.3E2,1.43E2,4.5E1,3.8E1,2.7E1,1.3E1,1.29E2,2.01E2,8.3E1,6E1,1E0,4.4E1,2E0,2.5E1,4.3E1,8.6E1,1.11E2,9E1,3.2E1,5.1E1,5.1E1,9E0,1.1E1,3.2E1,5.6E1,3E1,6E0,1.05E2,5.8E1,3.2E1,1.4E1,1.8E1,1E0,5E1,5E1,1E0,1E1,1E0,1.2E1,2E1,1E1,4.6E1,1.5E1,1.5E1,2E0,4E0,6E0,9.9E1,4.9E1,9E0,3E1,2E0,1E0,1.3E1],"tree_param":{"num_deleted":"0","num_feature":"16","num_nodes":"59","size_leaf_vector":"1"}},{"base_weights":[-2.2314538E-3,-2.9721992E0,7.2511214E-1,-3.5742798E0,-2.1436396E0,2.2671601E-1,2.0475175E0,-1.9818288E-1,-1.456978E-1,-1.247772E-1,-7.671701E-2,-2.4433511E-1,5.074934E-1,1.74429E0,2.6281126E0,-4.8626253E-1,-1.1234734E-1,3.31174E-1,7.5229627E-1,1.3487893E0,9.329154E-2,1.3294415E-1,3.262482E-2,-6.864215E-1,-3.895423E-1,-1.9910732E-1,-2.8803287E-2,2.3873535E-1,4.449968E-1,6.5789694E-1,9.702524E-1,5.750675E-1,7.140788E-2,-3.599481E-2,-6.2812804E-3,-4.529476E-3,-2.077755E-2,-3.3617783E-2,-8.591552E-3,5.91561E-3,-3.9209966E-3,-2.488556E-3,1.3941563E-2,5.4024696E-2,2.0744585E-2,4.6729087E-3,3.4125507E-2,3.3771514E-3,5.018295E-2,6.968117E-3,3.3692423E-2],"categories":[],"categories_nodes":[],"categories_segments":[],"categories_sizes":[],"default_left":[0,0,0,0,0,0,0,0,0,0,0,0,0,0,0,0,0,0,0,0,0,0,0,0,0,0,0,0,0,0,0,0,0,0,0,0,0,0,0,0,0,0,0,0,0,0,0,0,0,0,0],"id":33,"left_children":[1,3,5,7,9,11,13,-1,-1,-1,-1,15,17,19,21,23,25,27,29,31,-1,-1,-1,33,35,37,39,41,43,45,47,49,-1,-1,-1,-1,-1,-1,-1,-1,-1,-1,-1,-1,-1,-1,-1,-1,-1,-1,-1],"loss_changes":[1.3177092E3,5.220117E1,3.2248587E2,5.933899E0,7.5349884E0,4.7340996E1,1.9006836E1,0E0,0E0,0E0,0E0,4.224186E0,9.419483E0,1.8576965E0,9.3984985E-1,6.425028E-1,6.321138E-1,1.2826185E0,1.2751389E0,7.1393585E-1,0E0,0E0,0E0,1.7237711E-1,2.2671795E-1,4.3953192E-1,3.4504938E-1,8.814721E-1,6.6135216E-1,8.809128E-1,7.1628E-1,7.82485E-2,0E0,0E0,0E0,0E0,0E0,0E0,0E0,0E0,0E0,0E0,0E0,0E0,0E0,0E0,0E0,0E0,0E0,0E0,0E0],"parents":[2147483647,0,0,1,1,2,2,3,3,4,4,5,5,6,6,11,11,12,12,13,13,14,14,15,15,16,16,17,17,18,18,19,19,23,23,24,24,25,25,26,26,27,27,28,28,29,29,30,30,31,31],"right_children":[2,4,6,8,10,12,14,-1,-1,-1,-1,16,18,20,22,24,26,28,30,32,-1,-1,-1,34,36,38,40,42,44,46,48,50,-1,-1,-1,-1,-1,-1,-1,-1,-1,-1,-1,-1,-1,-1,-1,-1,-1,-1,-1],"split_conditions":[7.707E1,6.6665E1,8.945E1,-6.37669E-2,7.4806595E1,8.440383E1,9.482E1,-1.9818288E-1,-1.456978E-1,-1.247772E-1,-7.671701E-2,8.178E1,8.595E1,9.145E1,7.9770996E1,7.973E1,8.273E1,8.487E1,8.711E1,9.218107E1,9.329154E-2,1.3294415E-1,3.262482E-2,8.327223E1,8.092364E1,-4.6896708E-1,8.285E1,-6.3470393E-1,8.4058754E1,-5.230769E-3,-7.9868037E-1,3.410853E1,7.140788E-2,-3.599481E-2,-6.2812804E-3,-4.529476E-3,-2.077755E-2,-3.3617783E-2,-8.591552E-3,5.91561E-3,-3.9209966E-3,-2.488556E-3,1.3941563E-2,5.4024696E-2,2.0744585E-2,4.6729087E-3,3.4125507E-2,3.3771514E-3,5.018295E-2,6.968117E-3,3.3692423E-2],"split_indices":[1,2,2,6,8,9,3,0,0,0,0,1,3,3,5,3,1,3,0,9,0,0,0,10,8,6,1,6,8,13,6,5,0,0,0,0,0,0,0,0,0,0,0,0,0,0,0,0,0,0,0],"split_type":[0,0,0,0,0,0,0,0,0,0,0,0,0,0,0,0,0,0,0,0,0,0,0,0,0,0,0,0,0,0,0,0,0,0,0,0,0,0,0,0,0,0,0,0,0,0,0,0,0,0,0],"sum_hessian":[6.08E2,1.19E2,4.89E2,6.7E1,5.2E1,3.56E2,1.33E2,3.9E1,2.8E1,3.1E1,2.1E1,1.33E2,2.23E2,9E1,4.3E1,4.6E1,8.7E1,1.31E2,9.2E1,2.4E1,6.6E1,4.2E1,1E0,1.3E1,3.3E1,4.2E1,4.5E1,7.4E1,5.7E1,6.7E1,2.5E1,3E0,2.1E1,1.2E1,1E0,3E0,3E1,1E0,4.1E1,1.1E1,3.4E1,9E0,6.5E1,1E0,5.6E1,3E0,6.4E1,1E0,2.4E1,1E0,2E0],"tree_param":{"num_deleted":"0","num_feature":"16","num_nodes":"51","size_leaf_vector":"1"}},{"base_weights":[-3.6711834E-2,-2.867816E0,7.1154344E-1,-3.3352022E0,-2.0485673E0,2.219892E-1,1.9355978E0,-1.9681792E-1,-1.4157169E-1,-1.1535597E-1,-7.2068855E-2,-1.8733798E-1,5.719476E-1,1.7845497E0,1.5125062E-1,-5.840889E-1,-1.7656619E-2,4.202074E-1,7.3098284E-1,7.108239E-2,9.9408716E-2,-7.603186E-1,-3.6713973E-1,-1.02179736E-1,1.3492641E-1,2.764677E-1,4.9111128E-1,6.4824855E-1,4.899336E-2,-4.2011444E-2,-1.3631592E-2,-6.880442E-3,-2.116267E-2,-1.0289832E-2,-1.7718166E-3,-1.0196177E-2,9.457997E-3,1.609459E-2,-2.568512E-3,8.999444E-3,2.6339373E-2,7.837391E-3,3.3410724E-2],"categories":[],"categories_nodes":[],"categories_segments":[],"categories_sizes":[],"default_left":[0,0,0,0,0,0,0,0,0,0,0,0,0,0,0,0,0,0,0,0,0,0,0,0,0,0,0,0,0,0,0,0,0,0,0,0,0,0,0,0,0,0,0],"id":34,"left_children":[1,3,5,7,9,11,13,-1,-1,-1,-1,15,17,19,-1,21,23,25,27,-1,-1,29,31,33,35,37,39,41,-1,-1,-1,-1,-1,-1,-1,-1,-1,-1,-1,-1,-1,-1,-1],"loss_changes":[1.2667186E3,4.103076E1,2.830113E2,1.2476196E1,4.210083E0,4.8668045E1,1.6816498E1,0E0,0E0,0E0,0E0,1.0559122E1,4.1089973E0,6.114929E0,0E0,1.5178013E0,1.445331E0,8.426266E-1,1.1768379E0,0E0,0E0,7.452059E-1,2.3799253E-1,4.9064112E-1,7.7365524E-1,5.228548E-1,6.044626E-1,5.7237434E-1,0E0,0E0,0E0,0E0,0E0,0E0,0E0,0E0,0E0,0E0,0E0,0E0,0E0,0E0,0E0],"parents":[2147483647,0,0,1,1,2,2,3,3,4,4,5,5,6,6,11,11,12,12,13,13,15,15,16,16,17,17,18,18,21,21,22,22,23,23,24,24,25,25,26,26,27,27],"right_children":[2,4,6,8,10,12,14,-1,-1,-1,-1,16,18,20,-1,22,24,26,28,-1,-1,30,32,34,36,38,40,42,-1,-1,-1,-1,-1,-1,-1,-1,-1,-1,-1,-1,-1,-1,-1],"split_conditions":[7.795903E1,7.081337E1,8.945E1,-8.146076E-1,7.4E1,8.446E1,9.647E1,-1.9681792E-1,-1.4157169E-1,-1.1535597E-1,-7.2068855E-2,8.178E1,8.57E1,9.276E1,1.5125062E-1,8.035E1,8.421804E1,-2.7260876E-3,8.769E1,7.108239E-2,9.9408716E-2,4.577465E-3,8.054E1,-7.0323487E-4,2.1357616E1,-3.0339148E-3,8.555821E1,-8.039956E-3,4.899336E-2,-4.2011444E-2,-1.3631592E-2,-6.880442E-3,-2.116267E-2,-1.0289832E-2,-1.7718166E-3,-1.0196177E-2,9.457997E-3,1.609459E-2,-2.568512E-3,8.999444E-3,2.6339373E-2,7.837391E-3,3.3410724E-2],"split_indices":[8,10,2,7,1,1,0,0,0,0,0,1,2,2,0,2,9,13,1,0,0,13,2,13,5,13,10,13,0,0,0,0,0,0,0,0,0,0,0,0,0,0,0],"split_type":[0,0,0,0,0,0,0,0,0,0,0,0,0,0,0,0,0,0,0,0,0,0,0,0,0,0,0,0,0,0,0,0,0,0,0,0,0,0,0,0,0,0,0],"sum_hessian":[5.96E2,1.24E2,4.72E2,7.7E1,4.7E1,3.38E2,1.34E2,3.2E1,4.5E1,3.1E1,1.6E1,1.56E2,1.82E2,1.2E2,1.4E1,4.6E1,1.1E2,9.5E1,8.7E1,4.6E1,7.4E1,2.4E1,2.2E1,7.1E1,3.9E1,3.3E1,6.2E1,6.8E1,1.9E1,2E1,4E0,5E0,1.7E1,2.7E1,4.4E1,5E0,3.4E1,2.9E1,4E0,7E0,5.5E1,3E0,6.5E1],"tree_param":{"num_deleted":"0","num_feature":"16","num_nodes":"43","size_leaf_vector":"1"}},{"base_weights":[-1.1639247E-2,-2.571713E0,6.6727024E-1,-3.1543798E0,-1.8071978E0,2.0686507E-1,1.7959092E0,-1.3778175E-1,-1.9507031E-1,-2.0462894E0,-1.1489173E0,-1.23945974E-1,4.8957735E-1,1.5193136E0,2.2507339E0,-4.7268104E-2,-2.1067362E0,-5.9254408E-2,-1.3350296E-2,-3.2379505E-1,2.995973E-2,3.6825338E-1,6.2601817E-1,1.0213865E0,1.610701E0,2.0654073E0,1.5059267E-1,-2.8560638E-2,-2.1321127E0,-4.7244313E-1,-2.0350517E-1,-1.0523417E-2,3.3269987E-1,3.0736074E-1,5.13036E-1,4.5388654E-1,6.731955E-1,5.543673E-2,1.2209193E-2,1.6223193E0,1.8483162E-2,1.0428452E-1,2.932396E-2,-1.0875713E-1,-4.525261E-2,-1.69647E-2,-2.9592464E-2,-5.891136E-3,-1.7208328E-2,1.4285112E-4,-2.7692987E-2,2.469616E-2,5.801328E-3,7.851302E-3,1.7958645E-2,3.6639255E-2,1.8875485E-2,2.4000514E-2,-2.3677826E-3,3.6304187E-2,2.5068402E-2,8.2436524E-2,3.7066936E-2],"categories":[],"categories_nodes":[],"categories_segments":[],"categories_sizes":[],"default_left":[0,0,0,0,0,0,0,0,0,0,0,0,0,0,0,0,0,0,0,0,0,0,0,0,0,0,0,0,0,0,0,0,0,0,0,0,0,0,0,0,0,0,0,0,0,0,0,0,0,0,0,0,0,0,0,0,0,0,0,0,0,0,0],"id":35,"left_children":[1,3,5,7,9,11,13,-1,-1,15,17,19,21,23,25,-1,27,-1,-1,29,31,33,35,37,39,41,-1,-1,43,45,47,49,51,53,55,57,59,-1,-1,61,-1,-1,-1,-1,-1,-1,-1,-1,-1,-1,-1,-1,-1,-1,-1,-1,-1,-1,-1,-1,-1,-1,-1],"loss_changes":[1.0862644E3,5.2654358E1,2.563263E2,1.0993835E1,6.934967E0,3.2981247E1,1.457016E1,0E0,0E0,8.0337524E-1,2.5776482E-1,5.023241E0,2.9146423E0,2.5412445E0,1.1141663E0,0E0,3.0178833E-1,0E0,0E0,1.1733956E0,1.1432973E0,7.503805E-1,4.0906525E-1,8.8334846E-1,4.96109E-1,1.2664795E-1,0E0,0E0,3.778076E-2,2.9205227E-1,4.5359015E-1,6.049989E-1,3.2695258E-1,5.277877E-1,5.870385E-1,3.108058E-1,2.4484062E-1,0E0,0E0,5.228119E-1,0E0,0E0,0E0,0E0,0E0,0E0,0E0,0E0,0E0,0E0,0E0,0E0,0E0,0E0,0E0,0E0,0E0,0E0,0E0,0E0,0E0,0E0,0E0],"parents":[2147483647,0,0,1,1,2,2,3,3,4,4,5,5,6,6,9,9,10,10,11,11,12,12,13,13,14,14,16,16,19,19,20,20,21,21,22,22,23,23,24,24,25,25,28,28,29,29,30,30,31,31,32,32,33,33,34,34,35,35,36,36,39,39],"right_children":[2,4,6,8,10,12,14,-1,-1,16,18,20,22,24,26,-1,28,-1,-1,30,32,34,36,38,40,42,-1,-1,44,46,48,50,52,54,56,58,60,-1,-1,62,-1,-1,-1,-1,-1,-1,-1,-1,-1,-1,-1,-1,-1,-1,-1,-1,-1,-1,-1,-1,-1,-1,-1],"split_conditions":[7.9E1,6.703146E1,8.925E1,1.3613314E-2,7.466E1,8.415E1,9.453E1,-1.3778175E-1,-1.9507031E-1,-1.5557804E0,8.22458E1,8.217E1,8.589E1,9.076E1,9.679E1,-4.7268104E-2,6.6665E1,-5.9254408E-2,-1.3350296E-2,8.12E1,8.3666824E1,5.3909466E1,8.704014E1,9.037E1,9.467E1,7.9770996E1,1.5059267E-1,-2.8560638E-2,-9.4445163E-1,-4.2798385E-1,8.127403E1,8.392E1,-1.1532125E-2,8.5892075E1,5.5969334E1,3.6282307E-1,8.593406E1,5.543673E-2,1.2209193E-2,3.7916277E4,1.8483162E-2,1.0428452E-1,2.932396E-2,-1.0875713E-1,-4.525261E-2,-1.69647E-2,-2.9592464E-2,-5.891136E-3,-1.7208328E-2,1.4285112E-4,-2.7692987E-2,2.469616E-2,5.801328E-3,7.851302E-3,1.7958645E-2,3.6639255E-2,1.8875485E-2,2.4000514E-2,-2.3677826E-3,3.6304187E-2,2.5068402E-2,8.2436524E-2,3.7066936E-2],"split_indices":[0,11,1,15,3,3,3,0,0,6,10,3,3,3,3,0,2,0,0,1,11,5,10,2,0,5,0,0,7,7,11,2,14,10,5,7,11,0,0,4,0,0,0,0,0,0,0,0,0,0,0,0,0,0,0,0,0,0,0,0,0,0,0],"split_type":[0,0,0,0,0,0,0,0,0,0,0,0,0,0,0,0,0,0,0,0,0,0,0,0,0,0,0,0,0,0,0,0,0,0,0,0,0,0,0,0,0,0,0,0,0,0,0,0,0,0,0,0,0,0,0,0,0,0,0,0,0,0,0],"sum_hessian":[6.23E2,1.3E2,4.93E2,7.2E1,5.8E1,3.51E2,1.42E2,5E1,2.2E1,4.1E1,1.7E1,1.62E2,1.89E2,9.1E1,5.1E1,3E0,3.8E1,1.6E1,1E0,7E1,9.2E1,1.02E2,8.7E1,1.6E1,7.5E1,4.4E1,7E0,1E0,3.7E1,3E1,4E1,8.2E1,1E1,7.4E1,2.8E1,2.1E1,6.6E1,1.4E1,2E0,7.4E1,1E0,4.3E1,1E0,3.5E1,2E0,1.6E1,1.4E1,2.6E1,1.4E1,8.1E1,1E0,5E0,5E0,2E1,5.4E1,9E0,1.9E1,2E1,1E0,4.8E1,1.8E1,7.1E1,3E0],"tree_param":{"num_deleted":"0","num_feature":"16","num_nodes":"63","size_leaf_vector":"1"}},{"base_weights":[2.1253737E-2,-2.5537379E0,6.6360754E-1,-3.2578993E0,-2.0653913E0,1.899879E-1,1.6948317E0,-1.6442601E-1,-4.623356E-2,-2.3346314E0,-1.4550647E0,-1.768332E-1,4.4108555E-1,1.429818E0,2.321033E0,-2.7099038E-2,-2.360687E0,-1.9965554E-2,-1.4824165E0,-4.98311E-1,-8.721348E-2,3.1406075E-1,5.636095E-1,1.1397889E0,8.214224E-2,2.02941E0,1.4924496E-1,-1.1936077E-1,-2.7846528E-2,-3.680687E-2,-1.5539736E0,-5.2376276E-1,-5.1570893E-3,-1.5056682E-1,6.3996315E-2,2.0110713E-1,3.7092507E-1,5.9077364E-1,3.1970152E-1,3.5555124E-2,1.1943057E0,1.0285453E-1,2.8590774E-2,-8.6695485E-2,-5.2241948E-2,-3.0980015E-2,-1.7616622E-2,-1.2603886E-2,-3.4580764E-3,2.1156184E-2,1.2975185E-3,-2.700062E-2,1.1939375E-2,7.1467846E-3,2.159517E-2,2.2533322E-2,3.231554E-2,1.8472787E-2,2.3643493E-3,6.0421914E-2,1.53717045E-2],"categories":[],"categories_nodes":[],"categories_segments":[],"categories_sizes":[],"default_left":[0,0,0,0,0,0,0,0,0,0,0,0,0,0,0,0,0,0,0,0,0,0,0,0,0,0,0,0,0,0,0,0,0,0,0,0,0,0,0,0,0,0,0,0,0,0,0,0,0,0,0,0,0,0,0,0,0,0,0,0,0],"id":36,"left_children":[1,3,5,7,9,11,13,-1,-1,15,17,19,21,23,25,-1,27,-1,29,31,33,35,37,39,-1,41,-1,-1,-1,-1,43,45,-1,47,49,51,53,55,57,-1,59,-1,-1,-1,-1,-1,-1,-1,-1,-1,-1,-1,-1,-1,-1,-1,-1,-1,-1,-1,-1],"loss_changes":[9.858578E2,3.419226E1,2.3264862E2,3.1710815E-1,8.598663E0,3.0289396E1,2.1574127E1,0E0,0E0,1.0092773E0,1.2997055E-1,3.817181E0,2.8578873E0,4.800171E0,2.2671814E0,0E0,9.6728516E-1,0E0,1.3769913E-1,2.3765278E-1,1.025078E0,5.5486107E-1,4.6043396E-1,2.9588318E-1,0E0,1.5516663E-1,0E0,0E0,0E0,0E0,1.1219406E-1,2.252903E-1,0E0,6.023303E-1,4.262467E-1,1.1063454E0,8.280201E-1,3.8568878E-1,1.4517462E-1,0E0,1.548996E-1,0E0,0E0,0E0,0E0,0E0,0E0,0E0,0E0,0E0,0E0,0E0,0E0,0E0,0E0,0E0,0E0,0E0,0E0,0E0,0E0],"parents":[2147483647,0,0,1,1,2,2,3,3,4,4,5,5,6,6,9,9,10,10,11,11,12,12,13,13,14,14,16,16,18,18,19,19,20,20,21,21,22,22,23,23,25,25,30,30,31,31,33,33,34,34,35,35,36,36,37,37,38,38,40,40],"right_children":[2,4,6,8,10,12,14,-1,-1,16,18,20,22,24,26,-1,28,-1,30,32,34,36,38,40,-1,42,-1,-1,-1,-1,44,46,-1,48,50,52,54,56,58,-1,60,-1,-1,-1,-1,-1,-1,-1,-1,-1,-1,-1,-1,-1,-1,-1,-1,-1,-1,-1,-1],"split_conditions":[7.883E1,6.3653725E1,8.769E1,7.9770996E1,7.233E1,8.383E1,9.478E1,-1.6442601E-1,-4.623356E-2,-1.4141502E0,7.093E1,8.12E1,8.517E1,9.175E1,9.679E1,-2.7099038E-2,2.084548E-2,-1.9965554E-2,1.6161615E1,6.7760344E-3,8.277E1,-1.8113755E-3,6.431906E-3,-5.942178E-3,8.214224E-2,7.9770996E1,1.4924496E-1,-1.1936077E-1,-2.7846528E-2,-3.680687E-2,1.0471531E-2,8.035E1,-5.1570893E-3,-8.4450544E-4,-3.375116E-1,2.1357616E1,8.555821E1,8.701043E1,2.8631365E-1,3.5555124E-2,9.159E1,1.0285453E-1,2.8590774E-2,-8.6695485E-2,-5.2241948E-2,-3.0980015E-2,-1.7616622E-2,-1.2603886E-2,-3.4580764E-3,2.1156184E-2,1.2975185E-3,-2.700062E-2,1.1939375E-2,7.1467846E-3,2.159517E-2,2.2533322E-2,3.231554E-2,1.8472787E-2,2.3643493E-3,6.0421914E-2,1.53717045E-2],"split_indices":[0,11,1,5,1,3,3,0,0,7,2,1,2,3,3,0,13,0,5,13,3,13,15,13,0,5,0,0,0,0,15,2,0,13,7,5,10,10,7,0,0,0,0,0,0,0,0,0,0,0,0,0,0,0,0,0,0,0,0,0,0],"split_type":[0,0,0,0,0,0,0,0,0,0,0,0,0,0,0,0,0,0,0,0,0,0,0,0,0,0,0,0,0,0,0,0,0,0,0,0,0,0,0,0,0,0,0,0,0,0,0,0,0,0,0,0,0,0,0,0,0,0,0,0,0],"sum_hessian":[5.94E2,1.18E2,4.76E2,4.6E1,7.2E1,3.27E2,1.49E2,4.5E1,1E0,4.8E1,2.4E1,1.33E2,1.94E2,1.07E2,4.2E1,1E0,4.7E1,1E0,2.3E1,2.8E1,1.05E2,9.7E1,9.7E1,4.8E1,5.9E1,3.2E1,